svm_type c_svc
kernel_type rbf
gamma 0.05
nr_class 2
total_sv 234
rho -2.57355
label 0 1
probA -4.47179
probB 0.866742
nr_sv 125 109
SV
1 1:0.3381295 2:0.47138047 3:0.16465863 4:0.53676471 6:0.23697917 7:0.9609375 8:0.65632458 9:0.5331565 10:0.35657371 11:0.63573086 12:0.41570881 13:0.60859189 14:0.56904762 15:0.5799458 16:0.078549849 17:0.31428571 18:0.79379157 19:0.43366337 20:0.30426357 21:0.53036437 22:0.9760479 23:0.58823529 24:0.013089005 25:0.02247191 26:0.8962963 27:0.91160221 28:0.73954984 29:0.46417445 30:0.033980583 31:0.0032467532 32:0.8869863 33:0.23906706 34:0.11564626 35:0.31592689 36:0.25429553 37:0.010025063 38:0.30252101 39:0.012 40:0.64054054 41:0.37867647 42:0.73011364 43:0.49673203 44:0.64622642 45:0.46052632 46:0.46799117 47:0.02247191 48:0.80407125 49:0.54565702 50:0.34702259 51:0.46800731 52:0.74504249 53:1 54:0.45454545 55:0.16666667 56:0.47401247 57:0.76441103 58:0.57785467 59:0.43220339 60:0.22453704 61:0.26666667 62:0.68206522 63:0.30726257 64:0.026378897 65:0.53932584 66:0.30456853 67:0.0023364486 68:0.23796034 69:0.0029498525 70:0.50277778 71:0.22568093 72:0.13306452 73:0.60879121 74:0.48444444 75:0.5470297 76:0.052083333 77:0.37897311 78:0.56092437 79:0.42020202 80:0.56046512 81:0.55782313 82:0.9701087 83:0.49312377 84:0.22922636 85:0.12098765 86:0.98714653 87:0.81619938 88:0.49056604 89:0.51094891 90:0.03712297 91:0.081081081 92:0.62032086 93:0.35875706 94:0.40079365 95:0.40707965 96:0.071428571 97:0.28176796 98:0.41298701 99:0.0098522167 100:0.73076923 101:0.47986577 102:0.56622517 103:0.63265306 104:0.64578313 105:0.57033248 106:0.56437768 107:0.17159763 108:0.93913043 109:0.42725173 110:0.46551724 111:0.52574526 112:0.48851775 113:0.59610706 114:0.89071038 115:0.12831858 116:0.28701595 117:0.026252983 118:0.78323699 119:0.80882353 120:0.94334278 121:0.031830239 122:0.1314433 123:0.07804878 124:0.17757009 125:0.68707483 126:0.20441989 127:0.3627451 128:0.076586433 129:0.41163793 130:0.40294118 131:0.54700855 132:0.096774194 133:0.6626506 134:0.53409091 135:0.64238411 136:0.12874252 137:0.31524548 138:0.085626911 139:0.8671875 140:0.47058824 141:0.47744361 142:0.44628099 143:0.78167116 144:0.76132931 145:0.0084033613 146:0.011527378 147:0.090909091 148:0.65373134 149:0.74404762 150:0.8 151:0.27642276 152:0.4516129 153:0.37617555 154:0.49803922 155:0.87908497 156:0.72580645 157:0.045801527 158:0.1540404 159:0.028205128 160:0.48125 161:0.46701847 162:0.52845528 163:0.26490066 164:0.66666667 165:0.76764706 166:0.47882736 
1 1:0.41726619 2:0.016835017 3:0.080321285 4:0.52941176 6:0.25 7:0.98697917 8:0.62052506 9:0.35013263 10:0.3247012 11:0.64965197 12:0.65900383 13:0.59188544 14:0.57857143 15:0.56097561 16:0.084592145 17:0.33428571 18:0.51441242 19:0.66534653 20:0.31976744 21:0.69838057 22:0.94311377 23:0.73076923 24:0.015706806 25:0.02247191 26:0.83703704 27:0.61049724 28:0.79421222 29:0.46728972 30:0.031553398 31:0.0032467532 32:0.32191781 33:0.33819242 34:0.11791383 35:0.31853786 36:0.30584192 37:0.015037594 38:0.26330532 39:0.064 40:0.54324324 41:0.069852941 42:0.60511364 43:0.47276688 44:0.66037736 45:0.57631579 46:0.49889625 47:0.014981273 48:0.50381679 49:0.65924276 50:0.30800821 51:0.67458867 52:0.64872521 53:0.92328767 54:0.46386946 55:0.16666667 56:0.57796258 57:0.86215539 58:0.20069204 59:0.43785311 60:0.20833333 61:0.24927536 62:0.010869565 63:0.5698324 64:0.023980815 65:0.54681648 66:0.27411168 67:0.0023364486 68:0.17563739 69:0.56342183 70:0.33333333 71:0.077821012 72:0.044354839 73:0.6043956 74:0.59333333 75:0.51980198 76:0.057291667 77:0.3398533 78:0.53991597 79:0.6989899 80:0.58139535 81:0.55555556 82:0.97282609 83:0.75638507 84:0.20630372 85:0.10617284 86:0.97943445 87:0.32398754 88:1 89:0.50729927 90:0.034802784 92:0.27272727 93:0.35310734 94:0.4047619 95:0.32743363 96:0.45073892 97:0.29834254 98:0.42857143 99:0.0098522167 100:0.84615385 101:0.040268456 102:0.45364238 103:0.61479592 104:0.64096386 105:0.57033248 106:0.3583691 107:0.026627219 108:0.47536232 109:0.40646651 110:0.54022989 111:0.53658537 112:0.72442589 113:0.59124088 114:0.78142077 115:0.12831858 116:0.33940774 117:0.028639618 118:0.95953757 119:0.88235294 120:0.61189802 121:0.029177719 122:0.1314433 123:0.07804878 124:0.39563863 125:0.071428571 126:0.49171271 127:0.34068627 128:0.074398249 129:0.40086207 130:0.41176471 131:0.17094017 132:0.10322581 133:0.60441767 134:0.59090909 135:0.54083885 136:0.11077844 137:0.29715762 138:0.082568807 139:0.8046875 140:0.71805274 141:0.72556391 142:0.41046832 143:0.87331536 144:0.83685801 145:0.070028011 146:0.023054755 147:0.40909091 148:0.40298507 149:0.4047619 150:0.6109589 151:0.27642276 152:0.45519713 153:0.37617555 154:0.054901961 155:0.58169935 156:0.029032258 157:0.043256997 158:0.17676768 159:0.025641026 160:0.534375 161:0.73087071 162:0.57181572 163:0.15231788 164:0.57051282 165:0.71470588 166:0.20521173 
1 1:0.36690647 2:0.037037037 3:0.16064257 4:0.022058824 6:0.0026041667 7:0.56510417 8:0.57040573 9:0.53846154 10:0.43027888 11:0.6450116 12:0.57088123 13:0.66348449 14:0.51904762 15:0.53116531 16:0.069486405 17:0.79714286 18:0.56984479 19:0.53861386 20:0.35852713 21:0.46356275 22:0.49700599 23:0.61085973 24:0.02617801 25:0.014044944 26:0.4691358 27:0.74861878 28:0.1607717 30:0.050970874 31:0.0032467532 32:0.71575342 33:0.27988338 34:0.1723356 35:0.062663185 36:0.2233677 38:0.54341737 39:0.02 40:0.67567568 41:0.19117647 42:0.72159091 43:0.5620915 44:0.60141509 45:0.60789474 46:0.48785872 47:0.26966292 48:0.51145038 49:0.4922049 50:0.40041068 51:0.45886654 52:0.51274788 53:0.55890411 54:0.51048951 55:0.002688172 56:0.51143451 57:0.66666667 58:0.14532872 60:0.29398148 62:0.11684783 63:0.51955307 64:0.021582734 65:0.0037453184 66:0.29441624 67:0.0046728972 68:0.42209632 69:0.032448378 70:0.52222222 71:0.16731518 72:0.11290323 73:0.64175824 74:0.6 75:0.57673267 76:0.052083333 77:0.62347188 78:0.46428571 79:0.6 80:0.59069767 81:0.49206349 82:0.5 83:0.49705305 85:0.1654321 86:0.51156812 87:0.48909657 88:0.25471698 89:0.010948905 90:0.020881671 92:0.5026738 93:0.019774011 94:0.4702381 95:0.46902655 96:0.071428571 98:0.53506494 99:0.0049261084 100:0.63076923 101:0.18120805 102:0.56953642 103:0.64540816 104:0.63373494 105:0.52173913 106:0.30257511 107:0.15680473 108:0.6115942 109:0.42263279 110:0.57758621 111:0.51490515 112:0.55532359 113:0.58150852 114:0.62568306 115:0.17920354 116:0.4236902 117:0.023866348 118:0.60404624 119:0.65686275 120:0.66288952 121:0.021220159 123:0.0048780488 124:0.043613707 125:0.14965986 126:0.19337017 127:0.48529412 128:0.12035011 129:0.50215517 131:0.47863248 132:0.0064516129 133:0.45783133 134:0.48863636 135:0.5209713 136:0.28742515 137:0.60723514 138:0.34250765 139:0.59635417 140:0.46044625 141:0.45300752 142:0.61432507 143:0.5902965 144:0.56193353 145:0.0056022409 146:0.017291066 147:0.075757576 148:0.55223881 149:0.5327381 150:0.7369863 151:0.16260163 154:0.26666667 155:0.79738562 156:0.36129032 157:0.048346056 158:0.21717172 159:0.025641026 160:0.575 161:0.66226913 162:0.60162602 163:0.14238411 164:0.65384615 165:0.80588235 166:0.32247557 
1 1:0.36690647 3:0.0080321285 4:0.25367647 5:0.0028169014 6:0.56510417 7:0.015625 8:0.71121718 9:0.068965517 10:0.50199203 11:0.49187935 12:0.48275862 13:0.575179 14:0.61666667 15:0.56910569 16:0.078549849 17:0.025714286 18:0.64745011 19:0.45742574 20:0.41472868 21:0.41295547 22:0.01497006 23:0.13800905 24:0.58115183 25:0.50280899 26:0.083950617 28:0.01607717 29:0.22741433 30:0.61407767 31:0.0032467532 32:0.70205479 33:0.27696793 34:0.68480726 35:0.062663185 36:0.2233677 37:0.040100251 38:0.0028011204 39:0.02 41:0.018382353 42:0.72159091 43:0.50108932 44:0.54481132 45:0.55526316 46:0.2803532 47:0.014981273 48:0.45547074 49:0.62806236 50:0.51334702 51:0.44606947 52:0.02266289 53:0.019178082 54:0.35198135 55:0.67204301 56:0.35343035 57:0.0050125313 59:0.40112994 60:0.60185185 62:0.11413043 63:0.52513966 64:0.72422062 65:0.082397004 66:0.2893401 67:0.0023364486 69:0.029498525 71:0.015564202 72:0.088709677 73:0.54725275 74:0.6 75:0.60643564 76:0.067708333 77:0.041564792 78:0.55882353 79:0.45656566 80:0.47674419 81:0.23809524 82:0.013586957 83:0.36935167 84:0.67621776 85:0.62222222 86:0.01285347 88:0.20125786 89:0.22992701 90:0.64733179 92:0.47593583 93:0.019774011 94:0.42857143 95:0.46460177 96:0.078817734 97:0.35911602 98:0.020779221 101:0.0067114094 102:0.56291391 103:0.56377551 104:0.46746988 105:0.51918159 106:0.48927039 107:0.073964497 108:0.42898551 109:0.57736721 110:0.50287356 111:0.51761518 112:0.27348643 113:0.092457421 114:0.035519126 115:0.65929204 116:0.59908884 117:0.62529833 118:0.031791908 119:0.019607843 121:0.53050398 122:0.51030928 123:0.54390244 124:0.043613707 125:0.13265306 126:0.19889503 127:0.58578431 128:0.66301969 129:0.51077586 131:0.46581197 132:0.0064516129 133:0.53012048 134:0.54545455 135:0.67328918 137:0.012919897 139:0.09375 140:0.36105477 141:0.31578947 143:0.010781671 144:0.01510574 145:0.0056022409 146:0.017291066 147:0.075757576 148:0.0029850746 151:0.15718157 154:0.18823529 155:0.79084967 156:0.33870968 157:0.03562341 158:0.36868687 159:0.71025641 160:0.584375 161:0.66754617 162:0.59891599 163:0.14238411 164:0.6474359 165:0.79705882 166:0.31921824 
1 1:0.41726619 2:0.0067340067 3:0.092369478 4:0.52573529 6:0.25520833 7:0.6171875 8:0.50357995 9:0.5596817 10:0.18326693 11:0.29930394 12:0.6743295 13:0.1646778 14:0.42380952 15:0.40108401 16:0.051359517 17:0.72 18:0.43237251 19:0.64356436 20:0.43217054 21:0.72874494 22:0.52694611 23:0.71040724 24:0.010471204 25:0.025280899 26:0.52098765 27:0.64640884 28:0.10610932 29:0.46728972 30:0.02184466 31:0.0032467532 32:0.29109589 33:0.33527697 34:0.011337868 35:0.32114883 36:0.30927835 37:0.01754386 38:0.46498599 39:0.064 40:0.6 41:0.051470588 42:0.59375 43:0.1503268 44:0.39150943 45:0.53157895 46:0.086092715 47:0.21348315 48:0.6692112 49:0.6013363 50:0.34291581 51:0.6928702 52:0.48441926 53:0.55616438 54:0.34265734 55:0.16397849 56:0.45738046 57:0.64411028 58:0.083044983 59:0.44067797 60:0.083333333 61:0.24637681 62:0.0081521739 63:0.5698324 64:0.023980815 65:0.5505618 66:0.27918782 67:0.0023364486 68:0.30028329 69:0.57817109 70:0.38055556 71:0.062256809 72:0.040322581 73:0.22197802 74:0.61111111 75:0.37376238 76:0.052083333 77:0.61613692 78:0.34243697 79:0.6989899 80:0.60697674 81:0.60770975 82:0.57065217 83:0.75638507 84:0.19484241 85:0.086419753 86:0.58868895 87:0.2834891 88:0.17610063 89:0.50729927 90:0.034802784 92:0.26203209 93:0.35310734 94:0.051587302 95:0.32743363 96:0.46059113 97:0.3038674 98:0.47532468 99:0.0098522167 100:0.61794872 101:0.030201342 102:0.44701987 103:0.30357143 104:0.31566265 105:0.34015345 106:0.24034335 107:0.32544379 108:0.74202899 109:0.43879908 110:0.56034483 111:0.5799458 112:0.73068894 113:0.54744526 114:0.55191257 115:0.19911504 116:0.44419134 117:0.031026253 118:0.63872832 119:0.65441176 120:0.54390935 121:0.031830239 122:0.1314433 123:0.07804878 124:0.3894081 125:0.06122449 126:0.49171271 127:0.066176471 128:0.010940919 129:0.056034483 130:0.41764706 131:0.17521368 132:0.12258065 133:0.66666667 134:0.63636364 135:0.46799117 136:0.18862275 137:0.45994832 138:0.22324159 139:0.63020833 140:0.6673428 141:0.70676692 142:0.55371901 143:0.60107817 144:0.57099698 145:0.0028011204 146:0.011527378 147:0.098484848 148:0.38208955 149:0.35119048 150:0.64657534 151:0.27642276 152:0.45519713 153:0.37617555 154:0.050980392 155:0.56862745 156:0.025806452 157:0.038167939 158:0.015151515 159:0.023076923 160:0.528125 161:0.73350923 162:0.56910569 163:0.15231788 164:0.57051282 165:0.71176471 166:0.20521173 
1 1:0.37410072 2:0.32659933 3:0.59036145 4:0.0625 6:0.5859375 7:0.020833333 8:0.15274463 9:0.045092838 10:0.5059761 11:0.74709977 12:0.51340996 13:0.76610979 14:0.6547619 15:0.47154472 16:0.12386707 17:0.034285714 18:0.58093126 19:0.42178218 20:0.36821705 21:0.36639676 22:0.023952096 23:0.1199095 24:0.66492147 25:0.5252809 26:0.012345679 27:0.11325967 28:0.01607717 29:0.27102804 30:0.63592233 31:0.0032467532 32:0.15410959 33:0.30612245 34:0.63492063 36:0.49828179 37:0.0025062657 38:0.11204482 39:0.476 40:0.14594595 41:0.52205882 42:0.35795455 43:0.63180828 44:0.59669811 45:0.63684211 46:0.72626932 47:0.026217228 48:0.28498728 49:0.33184855 50:0.51950719 51:0.44606947 52:0.025495751 53:0.019178082 54:0.095571096 55:0.40053763 56:0.031185031 57:0.01754386 58:0.076124567 59:0.49717514 60:0.56481481 61:0.014492754 62:0.18206522 63:0.53072626 64:0.68585132 65:0.06741573 66:0.37563452 67:0.0023364486 68:0.43909348 69:0.47492625 70:0.43333333 71:0.55642023 72:0.47580645 73:0.74505495 74:0.63777778 75:0.49257426 76:0.072916667 77:0.031784841 78:0.54201681 79:0.49494949 80:0.31395349 81:0.15873016 82:0.02173913 83:0.37131631 84:0.26074499 85:0.45432099 86:0.015424165 87:0.39563863 88:0.012578616 89:0.098540146 90:0.67285383 91:0.021621622 92:0.19786096 93:0.048022599 94:0.72222222 95:0.20353982 96:0.65270936 97:0.25138122 98:0.031168831 99:0.64039409 100:0.015384615 101:0.46979866 102:0.36754967 103:0.5255102 104:0.55180723 105:0.57033248 106:0.39270386 107:0.038461538 108:0.17391304 109:0.33487298 110:0.58333333 111:0.36856369 112:0.22129436 113:0.068126521 114:0.030054645 115:0.47123894 116:0.58997722 117:0.53221957 118:0.0086705202 119:0.022058824 120:0.039660057 121:0.61803714 122:0.53865979 123:0.62682927 124:0.52959502 125:0.034013605 126:0.54696133 127:0.72058824 128:0.62363239 129:0.74353448 130:0.0029411765 131:0.02991453 132:0.11612903 133:0.48192771 134:0.54734848 135:0.66887417 136:0.50299401 137:0.072351421 138:0.4587156 139:0.049479167 140:0.13184584 141:0.28571429 142:0.13498623 143:0.021563342 144:0.027190332 145:0.0028011204 146:0.011527378 147:0.068181818 148:0.50149254 149:0.48809524 150:0.15068493 151:0.070460705 152:0.0035842294 153:0.0062695925 154:0.45490196 155:0.25490196 156:0.36774194 157:0.050890585 158:0.76515152 159:0.55384615 160:0.375 161:0.70712401 162:0.53387534 163:0.18543046 164:0.61538462 165:0.7 166:0.11074919 
0.1610514414336844 1:0.3381295 2:0.077441077 3:0.040160643 4:0.53676471 6:0.234375 7:0.52604167 8:0.37708831 9:0.56233422 10:0.37250996 11:0.60556845 12:0.67049808 13:0.60620525 14:0.57380952 15:0.61246612 16:0.051359517 17:0.72285714 18:0.5232816 19:0.64950495 20:0.29651163 21:0.71862348 22:0.51197605 23:0.71493213 24:0.0078534031 25:0.025280899 26:0.61481481 27:0.49171271 28:0.33118971 29:0.46417445 30:0.026699029 31:0.0032467532 32:0.8869863 33:0.24198251 34:0.090702948 35:0.31592689 36:0.24742268 37:0.010025063 38:0.57703081 39:0.008 40:0.38378378 41:0.025735294 42:0.73011364 43:0.50326797 44:0.63443396 45:0.6 46:0.39735099 47:0.12734082 48:0.58778626 49:0.59465479 50:0.37782341 51:0.68738574 52:0.54390935 53:0.53424658 54:0.060606061 55:0.16935484 56:0.5010395 57:0.52631579 58:0.10726644 59:0.43220339 60:0.21990741 61:0.26956522 62:0.68206522 63:0.31843575 64:0.023980815 65:0.53932584 66:0.30456853 67:0.0023364486 68:0.28611898 69:0.0029498525 70:0.21944444 71:0.019455253 72:0.11693548 73:0.59340659 74:0.61333333 75:0.57425743 76:0.057291667 77:0.62102689 78:0.46848739 79:0.6989899 80:0.29069767 81:0.59183673 82:0.47826087 83:0.75638507 84:0.22922636 85:0.12839506 86:0.58611825 87:0.24299065 88:0.51572327 89:0.51094891 90:0.030162413 91:0.051351351 92:0.61497326 93:0.36158192 94:0.36111111 95:0.41150442 96:0.061576355 97:0.27900552 98:0.61298701 99:0.0098522167 100:0.44615385 101:0.087248322 102:0.56622517 103:0.64795918 104:0.64578313 105:0.59079284 106:0.32403433 107:0.044378698 108:0.56521739 109:0.46882217 110:0.56896552 111:0.38753388 112:0.72860125 113:0.55231144 114:0.5273224 115:0.14380531 116:0.079726651 117:0.033412888 118:0.78323699 119:0.62009804 120:0.49858357 121:0.029177719 122:0.1314433 123:0.075609756 124:0.17445483 125:0.68027211 126:0.20441989 127:0.34803922 128:0.059080963 129:0.38577586 130:0.40294118 131:0.54700855 132:0.090322581 133:0.65060241 134:0.625 135:0.53200883 136:0.31437126 137:0.65374677 138:0.31498471 139:0.65104167 140:0.68154158 141:0.71240602 142:0.44352617 143:0.47169811 144:0.6102719 145:0.0028011204 146:0.0086455331 147:0.090909091 148:0.22089552 149:0.23809524 150:0.42465753 151:0.27642276 152:0.4516129 153:0.37617555 154:0.49411765 155:0.87908497 156:0.72258065 157:0.038167939 158:0.095959596 159:0.023076923 160:0.4875 161:0.47229551 162:0.53116531 163:0.25827815 164:0.66666667 165:0.76764706 166:0.4723127 
1 1:0.37410072 2:0.32659933 3:0.59036145 4:0.0625 6:0.5859375 7:0.020833333 8:0.150358 9:0.045092838 10:0.5059761 11:0.74709977 12:0.51340996 13:0.76372315 14:0.6547619 15:0.47154472 16:0.12688822 17:0.034285714 18:0.58314856 19:0.42178218 20:0.36627907 21:0.36639676 22:0.023952096 23:0.1199095 24:0.66230366 25:0.5252809 26:0.012345679 27:0.11325967 28:0.01607717 29:0.27102804 30:0.63592233 31:0.0032467532 32:0.15410959 33:0.30612245 34:0.63492063 36:0.49828179 37:0.0050125313 38:0.11204482 39:0.476 40:0.14594595 41:0.52205882 42:0.35795455 43:0.63180828 44:0.59669811 45:0.63684211 46:0.72626932 47:0.026217228 48:0.28498728 49:0.32962138 50:0.51950719 51:0.44606947 52:0.025495751 53:0.019178082 54:0.093240093 55:0.40053763 56:0.029106029 57:0.01754386 58:0.076124567 59:0.5 60:0.56481481 61:0.014492754 62:0.18206522 63:0.53072626 64:0.68585132 65:0.071161049 66:0.37563452 67:0.0023364486 68:0.43909348 69:0.47492625 70:0.43333333 71:0.55642023 72:0.47580645 73:0.74505495 74:0.63777778 75:0.49257426 76:0.072916667 77:0.031784841 78:0.54201681 79:0.49494949 80:0.31395349 81:0.15873016 82:0.02173913 83:0.37131631 84:0.26074499 85:0.45432099 86:0.015424165 87:0.39563863 88:0.012578616 89:0.098540146 90:0.67517401 91:0.021621622 92:0.20320856 93:0.048022599 94:0.72222222 95:0.19911504 96:0.65270936 97:0.25414365 98:0.031168831 99:0.64039409 100:0.015384615 101:0.46979866 102:0.36754967 103:0.52295918 104:0.55180723 105:0.57033248 106:0.39270386 107:0.038461538 108:0.17391304 109:0.33487298 110:0.58045977 111:0.36856369 112:0.21920668 113:0.068126521 114:0.030054645 115:0.47123894 116:0.58997722 117:0.53221957 118:0.0086705202 119:0.019607843 120:0.039660057 121:0.61803714 122:0.53865979 123:0.62682927 124:0.52959502 125:0.037414966 126:0.54696133 127:0.72058824 128:0.62363239 129:0.74353448 130:0.0029411765 131:0.02991453 132:0.11612903 133:0.48192771 134:0.54734848 135:0.66887417 136:0.50299401 137:0.072351421 138:0.45565749 139:0.049479167 140:0.12981744 141:0.28571429 142:0.13498623 143:0.018867925 144:0.027190332 145:0.0028011204 146:0.011527378 147:0.068181818 148:0.50447761 149:0.48809524 150:0.15068493 151:0.070460705 152:0.0035842294 153:0.0062695925 154:0.45490196 155:0.25490196 156:0.36774194 157:0.050890585 158:0.76767677 159:0.55641026 160:0.375 161:0.70712401 162:0.53387534 163:0.18543046 164:0.61538462 165:0.7 166:0.11074919 
1 1:0.41007194 2:0.026936027 3:0.10040161 4:0.51838235 6:0.68489583 7:0.57552083 8:0.13365155 9:0.52785146 10:0.11155378 11:0.0046403712 12:0.39655172 13:0.042959427 14:0.14047619 15:0.01897019 16:0.045317221 17:0.80285714 18:0.3481153 19:0.36237624 20:0.025193798 21:0.54453441 22:0.48802395 23:0.58371041 24:0.013089005 25:0.68539326 26:0.50617284 27:0.71546961 28:0.29903537 29:0.8847352 30:0.33252427 31:0.0032467532 32:0.20205479 33:0.31778426 34:0.3537415 35:0.35770235 36:0.34707904 37:0.0050125313 38:0.56022409 39:0.076 40:0.60540541 41:0.080882353 42:0.53409091 43:0.091503268 44:0.044811321 45:0.17105263 46:0.0088300221 47:0.25468165 48:0.57506361 49:0.33407572 50:0.05338809 51:0.46252285 52:0.50424929 53:0.5369863 54:0.016317016 55:0.60483871 56:0.38253638 57:0.6566416 58:0.15570934 59:0.79378531 60:0.40046296 61:0.3884058 62:0.0027173913 63:0.54748603 64:0.42206235 65:0.53183521 66:0.27411168 67:0.0023364486 68:0.34560907 69:0.61356932 70:0.40555556 71:0.085603113 72:0.028225806 73:0.010989011 74:0.30222222 76:0.046875 77:0.61124694 78:0.06092437 79:0.3979798 80:0.023255814 81:0.54875283 82:0.49456522 83:0.52455796 84:0.5530086 85:0.28395062 86:0.55526992 87:0.42367601 88:0.14465409 89:0.84306569 90:0.42691415 92:0.26737968 93:0.35875706 94:0.017857143 95:0.26548673 96:0.51724138 97:0.64917127 98:0.56883117 99:0.0049261084 100:0.6 101:0.067114094 102:0.41390728 103:0.0051020408 104:0.019277108 105:0.04859335 106:0.045064378 107:0.079881657 108:0.48405797 110:0.11781609 111:0.046070461 112:0.565762 113:0.54744526 114:0.56830601 115:0.32522124 116:0.38268793 117:0.47494033 118:0.70809249 119:0.67892157 120:0.66288952 121:0.5066313 122:0.6314433 123:0.5097561 124:0.4517134 125:0.074829932 126:0.55248619 127:0.44607843 128:0.37636761 129:0.13146552 130:0.47058824 131:0.23076923 132:0.12258065 133:0.4939759 134:0.39583333 135:0.24503311 136:0.34131737 137:0.66666667 138:0.44342508 139:0.59635417 140:0.5030426 141:0.4962406 142:0.53443526 143:0.54986523 144:0.56193353 145:0.0028011204 146:0.011527378 147:0.090909091 148:0.44179104 149:0.44047619 150:0.68219178 151:0.23306233 152:0.43369176 153:0.2539185 154:0.031372549 155:0.48366013 156:0.016129032 157:0.03562341 158:0.015151515 159:0.020512821 160:0.4625 161:0.73350923 162:0.55555556 163:0.18211921 164:0.56410256 165:0.68235294 166:0.16938111 
0.328988067343748 1:0.45323741 2:0.61616162 3:0.73092369 4:0.15441176 6:0.51822917 7:0.59635417 8:0.066825776 9:0.25994695 10:0.51792829 11:0.013921114 12:0.10536398 13:0.55369928 14:0.0071428571 15:0.010840108 16:0.03021148 17:0.36 18:0.035476718 19:0.12871287 20:0.09496124 21:0.21862348 22:0.31137725 23:0.30995475 24:0.5078534 25:0.59550562 26:0.29382716 27:0.64917127 28:0.19935691 29:0.53582555 30:0.53398058 31:0.46753247 32:0.9760274 33:0.020408163 34:0.64852608 35:0.078328982 36:0.29209622 38:0.36134454 39:0.352 40:0.6972973 41:0.53676471 42:0.51136364 43:0.56862745 45:0.023684211 46:0.0088300221 47:0.014981273 48:0.16793893 49:0.14253898 50:0.34086242 51:0.14808044 52:0.24645892 53:0.30684932 54:0.065268065 55:0.71236559 56:0.21621622 57:0.64160401 58:0.69896194 59:0.60169492 60:0.67592593 61:0.0057971014 62:0.70380435 63:0.18994413 64:0.45803357 65:0.06741573 66:0.28426396 67:0.0023364486 68:0.77903683 69:0.12389381 70:0.85277778 71:0.57976654 72:0.41935484 73:0.34725275 74:0.06 75:0.13366337 76:0.041666667 77:0.34229829 79:0.12121212 80:0.051162791 81:0.20861678 82:0.48913043 83:0.23968566 84:0.18338109 85:0.54320988 86:0.38560411 87:0.8411215 88:0.11949686 89:0.40875912 90:0.55916473 91:0.63783784 92:0.81818182 93:0.0084745763 94:0.54365079 95:0.30088496 96:0.044334975 97:0.066298343 98:0.31168831 99:0.48275862 100:0.65128205 101:0.59395973 102:0.54966887 103:0.086734694 104:0.019277108 106:0.0021459227 107:0.0059171598 108:0.092753623 109:0.011547344 110:0.014367816 111:0.027100271 112:0.27348643 113:0.22384428 114:0.26502732 115:0.53318584 116:0.70387244 117:0.51789976 118:0.63872832 119:0.56372549 120:0.61756374 121:0.53580902 122:0.69587629 123:0.64390244 124:0.20872274 125:0.96258503 126:0.70718232 127:0.78921569 128:0.595186 129:0.67887931 130:0.0088235294 131:0.54273504 132:0.45483871 133:0.088353414 134:0.066287879 135:0.024282561 136:0.55988024 137:0.30232558 138:0.60550459 139:0.33072917 140:0.28397566 141:0.2518797 142:0.61983471 143:0.63342318 144:0.47734139 145:0.0028011204 146:0.014409222 147:0.12878788 148:0.89552239 149:0.79166667 150:0.69863014 151:0.051490515 152:0.025089606 153:0.0031347962 154:0.41960784 155:0.82026144 156:0.5483871 157:0.017811705 158:0.60353535 159:0.20769231 160:0.38125 161:0.13720317 162:0.41192412 163:0.35761589 164:0.76923077 165:0.76764706 166:0.58631922 
1 1:0.36690647 2:0.21885522 3:0.48192771 4:0.16176471 6:0.51822917 7:0.296875 8:0.021479714 9:0.33421751 10:0.5 11:0.041763341 12:0.13793103 13:0.53937947 14:0.064285714 15:0.027100271 16:0.060422961 17:0.67714286 18:0.11529933 19:0.099009901 20:0.12015504 21:0.29959514 22:0.2994012 23:0.2760181 24:0.44502618 25:0.59550562 26:0.24691358 27:0.37016575 28:0.012861736 29:0.53582555 30:0.54126214 31:0.0032467532 32:0.089041096 33:0.25364431 34:0.67573696 35:0.010443864 36:0.51890034 38:0.61344538 39:0.404 40:0.30810811 41:0.45220588 42:0.32670455 43:0.55337691 44:0.049528302 45:0.05 46:0.035320088 47:0.23220974 48:0.33587786 49:0.069042316 50:0.33059548 51:0.21755027 52:0.33711048 53:0.23013699 54:0.037296037 55:0.71236559 56:0.079002079 57:0.31578947 58:0.055363322 59:0.60169492 60:0.6712963 61:0.014492754 62:0.029891304 63:0.5027933 64:0.48201439 65:0.052434457 66:0.38071066 67:0.0023364486 68:0.7082153 69:0.55457227 70:0.47222222 71:0.42412451 72:0.39919355 73:0.32307692 74:0.11333333 75:0.11633663 76:0.078125 77:0.47432763 78:0.025210084 79:0.12525253 80:0.023255814 81:0.3015873 82:0.26902174 83:0.2475442 84:0.1747851 85:0.53333333 86:0.29820051 87:0.5576324 88:0.0094339623 89:0.40875912 90:0.55916473 92:0.20855615 93:0.042372881 94:0.55952381 95:0.11504425 96:0.68719212 97:0.074585635 98:0.63896104 99:0.5270936 100:0.27948718 101:0.43288591 102:0.29801324 103:0.091836735 104:0.053012048 105:0.028132992 106:0.030042918 107:0.079881657 108:0.29565217 109:0.011547344 110:0.017241379 111:0.010840108 112:0.29645094 113:0.2676399 114:0.2431694 115:0.54867257 116:0.70387244 117:0.51312649 118:0.33236994 119:0.3627451 120:0.26345609 121:0.53580902 122:0.69587629 123:0.64390244 124:0.52336449 125:0.027210884 126:0.5801105 127:0.79166667 128:0.61050328 129:0.6875 130:0.0029411765 131:0.072649573 132:0.18064516 133:0.26706827 134:0.15719697 135:0.10375276 136:0.88323353 137:0.66666667 138:0.80428135 139:0.234375 140:0.15212982 141:0.21052632 142:0.36639118 143:0.34231806 144:0.58308157 145:0.0028011204 146:0.014409222 147:0.068181818 148:0.52238806 149:0.58035714 150:0.33424658 151:0.048780488 152:0.017921147 153:0.0062695925 154:0.35686275 155:0.16013072 156:0.18709677 157:0.043256997 158:0.65656566 159:0.27435897 160:0.3875 161:0.67810026 162:0.49322493 163:0.21854305 164:0.59615385 165:0.66470588 166:0.09771987 
1 1:0.31654676 2:0.25252525 3:0.10441767 4:0.82720588 6:0.3984375 7:0.57552083 8:0.13603819 9:0.52785146 10:0.25697211 11:0.013921114 12:0.39463602 13:0.011933174 14:0.14285714 15:0.024390244 16:0.054380665 17:0.80571429 18:0.33924612 19:0.36633663 20:0.031007752 21:0.54251012 22:0.48802395 23:0.58371041 24:0.64921466 25:0.56460674 26:0.5037037 27:0.71823204 28:0.2926045 29:0.50778816 30:0.34223301 31:0.019480519 32:0.92808219 33:0.27696793 34:0.036281179 35:0.22976501 36:0.30584192 37:0.0025062657 38:0.55462185 39:0.008 40:0.60810811 41:0.16911765 42:0.69318182 43:0.069716776 44:0.056603774 45:0.17105263 46:0.015452539 47:0.25842697 48:0.56997455 49:0.34075724 50:0.17659138 51:0.4606947 52:0.50141643 53:0.5369863 54:0.0093240093 55:0.68817204 56:0.38877339 57:0.6566416 58:0.17301038 59:0.44915254 60:0.32175926 61:0.26086957 62:0.72826087 63:0.1452514 64:0.38369305 65:0.54307116 66:0.30456853 67:0.0023364486 68:0.34560907 69:0.0029498525 70:0.41388889 71:0.089494163 72:0.076612903 73:0.01978022 74:0.30222222 75:0.022277228 76:0.057291667 77:0.61369193 78:0.06302521 79:0.4 80:0.01627907 81:0.54648526 82:0.49456522 83:0.52455796 84:0.75071633 85:0.30617284 86:0.55269923 87:0.45482866 88:0.13207547 89:0.7919708 90:0.36426914 91:0.5 92:0.67379679 93:0.34463277 94:0.003968254 95:0.34070796 96:0.086206897 97:0.4558011 98:0.56623377 99:0.0049261084 100:0.6025641 101:0.27516779 102:0.55960265 103:0.015306122 104:0.031325301 105:0.05370844 106:0.049356223 107:0.091715976 108:0.48985507 109:0.0023094688 110:0.12068966 111:0.046070461 112:0.56367432 113:0.54501217 114:0.56830601 115:0.3539823 116:0.11617312 117:0.62768496 118:0.69942197 119:0.67647059 120:0.66288952 121:0.30503979 122:0.3814433 123:0.28536585 124:0.19314642 125:0.78911565 126:0.33149171 127:0.16421569 128:0.38293217 129:0.019396552 130:0.31764706 131:0.53418803 132:0.11290323 133:0.49196787 134:0.39393939 135:0.24282561 136:0.33233533 137:0.66149871 138:0.40672783 139:0.59895833 140:0.50709939 141:0.4981203 142:0.53719008 143:0.55256065 144:0.56193353 145:0.0028011204 146:0.011527378 147:0.075757576 148:0.44776119 149:0.45833333 150:0.68493151 151:0.30352304 152:0.30824373 153:0.28526646 154:0.35686275 155:0.87908497 156:0.72903226 157:0.050890585 158:0.02020202 159:0.048717949 160:0.328125 161:0.34300792 162:0.49322493 163:0.32450331 164:0.69871795 165:0.74705882 166:0.54397394 
0.5180487897754198 1:0.36690647 2:0.62289562 3:0.73092369 4:0.26102941 6:0.5859375 7:0.015625 8:0.6921241 9:0.061007958 10:0.51394422 11:0.50580046 12:0.46551724 13:0.57995227 14:0.61904762 15:0.56910569 16:0.10271903 17:0.32571429 18:0.654102 19:0.45940594 20:0.40503876 21:0.39068826 22:0.005988024 23:0.1199095 24:0.56544503 25:0.50842697 26:0.074074074 27:0.77348066 28:0.19292604 29:0.23676012 30:0.61650485 31:0.0032467532 32:0.15410959 33:0.24781341 34:0.68707483 35:0.01305483 36:0.53264605 37:0.045112782 38:0.39215686 39:0.6 40:0.58378378 41:0.77205882 42:0.35511364 43:0.50980392 44:0.55896226 45:0.54210526 46:0.32891832 47:0.64044944 48:0.44274809 49:0.62360802 50:0.5174538 51:0.42961609 52:0.014164306 53:0.010958904 54:0.33100233 55:0.68010753 56:0.32848233 57:0.22305764 58:0.76124567 59:0.42655367 60:0.6087963 61:0.014492754 62:0.22282609 63:0.49162011 64:0.73621103 65:0.08988764 66:0.40101523 67:0.0023364486 68:0.65155807 69:0.60471976 70:0.71944444 71:0.76264591 72:0.44354839 73:0.55164835 74:0.59333333 75:0.62871287 76:0.088541667 77:0.090464548 78:0.57563025 79:0.44444444 80:0.48139535 81:0.21088435 82:0.0027173913 83:0.34381139 84:0.67621776 85:0.64197531 86:0.0051413882 87:0.95015576 88:0.27672956 89:0.24087591 90:0.65893271 91:0.089189189 92:0.21390374 93:0.042372881 94:0.44642857 95:0.092920354 96:0.69704433 97:0.39502762 98:0.044155844 99:0.69950739 100:0.14871795 101:0.73825503 102:0.29470199 103:0.58928571 104:0.47951807 105:0.52173913 106:0.51716738 107:0.094674556 108:0.43768116 109:0.57505774 110:0.50287356 111:0.5203252 112:0.23590814 113:0.075425791 114:0.021857924 115:0.65929204 116:0.59908884 117:0.62768496 118:0.21098266 119:0.13970588 120:0.74220963 121:0.53050398 122:0.52061856 123:0.55609756 124:0.53271028 125:0.17346939 126:0.58563536 127:0.58823529 128:0.66739606 129:0.51939655 131:0.1025641 132:0.19677419 133:0.52008032 134:0.53787879 135:0.67770419 136:0.7994012 137:0.45994832 138:0.97247706 139:0.0859375 140:0.35294118 141:0.29887218 142:0.44352617 143:0.059299191 144:0.024169184 145:0.0028011204 146:0.014409222 147:0.053030303 148:0.87164179 149:0.93154762 150:0.70684932 151:0.043360434 153:0.0062695925 154:0.4745098 155:0.21568627 156:0.37741935 157:0.045801527 158:0.37626263 159:0.72820513 160:0.375 161:0.6701847 162:0.49051491 163:0.22847682 164:0.6025641 165:0.65882353 166:0.084690554 
1 1:0.43884892 2:0.033670034 3:0.1686747 4:0.80882353 6:0.54947917 7:0.56510417 8:0.56563246 9:0.54376658 10:0.40836653 11:0.6612529 12:0.57854406 13:0.65632458 14:0.53571429 15:0.52574526 16:0.093655589 17:0.81142857 18:0.57871397 19:0.52475248 20:0.35271318 21:0.47165992 22:0.50898204 23:0.60859729 24:0.010471204 25:0.053370787 26:0.47160494 27:0.75690608 28:0.14790997 29:0.73208723 30:0.07038835 31:0.0032467532 32:0.1609589 33:0.34985423 34:0.21315193 35:0.50913838 36:0.35395189 37:0.79197995 38:0.55742297 39:0.056 40:0.68378378 41:0.11764706 42:0.47727273 43:0.54684096 44:0.62028302 45:0.6 46:0.51655629 47:0.27340824 48:0.51399491 49:0.48997773 50:0.37371663 51:0.47531993 52:0.52407932 53:0.56712329 54:0.48018648 55:0.74193548 56:0.50935551 57:0.6716792 58:0.14532872 59:0.68079096 60:0.28009259 61:0.084057971 63:0.53631285 64:0.10551559 65:0.92883895 66:0.27411168 67:0.0023364486 68:0.43342776 69:0.65781711 70:0.53333333 71:0.13618677 72:0.02016129 73:0.64395604 74:0.60888889 75:0.55940594 76:0.0625 77:0.62836186 78:0.48319328 79:0.5979798 80:0.58837209 81:0.50340136 82:0.50543478 83:0.50098232 84:0.747851 85:0.14567901 86:0.51156812 87:0.49844237 88:0.23584906 89:0.82481752 90:0.088167053 92:0.27272727 93:0.38700565 94:0.47420635 95:0.2920354 96:0.54926108 97:0.78729282 98:0.54545455 99:0.0098522167 100:0.63846154 101:0.087248322 102:0.37086093 103:0.6377551 104:0.63614458 105:0.52429668 106:0.34334764 107:0.15088757 108:0.6115942 109:0.41339492 110:0.56034483 111:0.52303523 112:0.55323591 113:0.59610706 114:0.63934426 115:0.16150442 116:0.40546697 117:0.15513126 118:0.60115607 119:0.65931373 120:0.66855524 121:0.045092838 122:0.62628866 123:0.41707317 124:0.43302181 125:0.057823129 126:0.57458564 127:0.46568627 128:0.13347921 129:0.49568966 130:0.84117647 131:0.37179487 132:0.64516129 133:0.46586345 134:0.50568182 135:0.5209713 136:0.30239521 137:0.62790698 138:0.39449541 139:0.59114583 140:0.45841785 141:0.44548872 142:0.62258953 143:0.59568733 144:0.56797583 145:0.0028011204 146:0.014409222 147:0.053030303 148:0.5641791 149:0.54166667 150:0.74520548 151:0.28726287 152:0.62365591 153:0.34796238 154:0.023529412 155:0.38888889 156:0.012903226 157:0.066157761 158:0.26262626 159:0.15128205 160:0.4125 161:0.73087071 162:0.53387534 163:0.20529801 164:0.54487179 165:0.65882353 166:0.17263844 
0.2152960956426562 1:0.1942446 2:0.0067340067 3:0.060240964 4:0.54411765 6:0.73958333 7:0.34114583 8:0.67541766 9:0.55172414 10:0.41035857 11:0.59164733 12:0.66475096 13:0.62529833 14:0.55 15:0.59620596 16:0.16314199 17:0.66285714 18:0.75166297 19:0.63960396 20:0.32945736 21:0.7145749 22:0.53592814 23:0.70361991 24:0.028795812 25:0.042134831 26:0.37530864 27:0.11878453 28:0.019292605 29:0.70716511 30:0.038834951 31:0.0032467532 32:0.071917808 33:0.63848397 34:0.12018141 35:0.48041775 36:0.13745704 37:0.71177945 38:0.6162465 39:0.012 40:0.38918919 41:0.022058824 42:0.14772727 43:0.53376906 44:0.60141509 45:0.58421053 46:0.39072848 47:0.086142322 48:0.69211196 49:0.63028953 50:0.41273101 51:0.68190128 52:0.55524079 53:0.43835616 54:0.48951049 55:0.094086022 56:0.36798337 57:0.26566416 58:0.0034602076 59:0.79661017 60:0.25462963 61:0.13043478 62:0.0027173913 63:0.66480447 64:0.11990408 65:1 66:0.15228426 67:0.0046728972 68:0.33427762 69:0.005899705 70:0.24722222 71:0.023346303 72:0.012096774 73:0.5978022 74:0.60666667 75:0.59158416 76:0.067708333 77:0.59413203 78:0.56092437 79:0.69090909 80:0.53023256 81:0.59183673 82:0.42934783 83:0.74656189 84:0.097421203 85:0.15802469 86:0.30848329 87:0.031152648 88:0.24528302 89:0.55109489 90:0.13457077 92:0.27807487 93:0.38135593 94:0.37896825 95:0.57079646 96:0.012315271 97:0.86740331 98:0.62597403 99:0.014778325 100:0.37692308 101:0.010067114 102:0.36423841 103:0.6505102 104:0.63373494 105:0.55498721 106:0.64377682 107:0.50887574 108:0.86956522 109:0.47344111 110:0.5545977 111:0.4796748 112:0.72025052 113:0.55231144 114:0.5273224 115:0.17477876 116:0.27562642 117:0.047732697 118:0.38150289 119:0.28431373 120:0.076487252 121:0.039787798 122:0.19072165 123:0.21219512 124:0.69158878 125:0.010204082 126:0.20441989 127:0.40441176 128:0.10940919 129:0.42025862 130:0.75588235 131:0.82051282 132:0.74193548 133:0.66064257 134:0.62310606 135:0.62030905 136:0.34131737 137:0.65633075 138:0.30275229 139:0.61979167 140:0.6673428 141:0.70112782 142:0.50688705 143:0.49595687 144:0.64954683 145:0.0028011204 146:0.0057636888 147:0.11363636 148:0.15522388 149:0.06547619 150:0.24931507 151:0.42547425 152:0.71684588 153:0.36990596 154:0.011764706 155:0.33986928 156:0.0064516129 157:0.03307888 158:0.095959596 159:0.038461538 160:0.034375 161:0.09762533 162:0.39566396 163:0.57284768 164:0.60897436 165:0.3 166:0.43973941 
0.681539659506341 1:0.16546763 2:0.0067340067 3:0.060240964 4:0.99632353 6:0.096354167 7:0.34375 8:0.67064439 9:0.55172414 10:0.40836653 11:0.59860789 12:0.66475096 13:0.62529833 14:0.55 15:0.59349593 16:0.16314199 17:0.66 18:0.75166297 19:0.63960396 20:0.3255814 21:0.71659919 22:0.53592814 23:0.70361991 24:0.052356021 25:0.039325843 26:0.37530864 27:0.11878453 28:0.019292605 29:0.47975078 30:0.04368932 31:0.0032467532 32:0.030821918 33:0.60932945 34:0.11111111 35:0.40469974 36:0.14089347 38:0.61904762 39:0.012 40:0.39189189 41:0.022058824 42:0.14204545 43:0.53376906 44:0.60613208 45:0.58421053 46:0.39735099 47:0.086142322 48:0.69465649 49:0.62806236 50:0.41067762 51:0.68190128 52:0.55524079 53:0.43835616 54:0.48484848 55:0.41666667 56:0.36590437 57:0.26566416 58:0.0034602076 59:0.25706215 60:0.25462963 61:0.65797101 62:0.0027173913 63:0.5698324 64:0.033573141 65:0.57303371 66:0.16751269 67:0.0046728972 68:0.33711048 69:0.005899705 70:0.24722222 71:0.023346303 72:0.012096774 73:0.6021978 74:0.60666667 75:0.58910891 76:0.067708333 77:0.59168704 78:0.56092437 79:0.69090909 80:0.53255814 81:0.59410431 82:0.43206522 83:0.74656189 84:0.84240688 85:0.15555556 86:0.30848329 87:0.031152648 88:0.23899371 89:0.77737226 90:0.039443155 92:0.25668449 93:0.56779661 94:0.38293651 95:0.61504425 96:0.012315271 97:0.11049724 98:0.62597403 99:0.014778325 100:0.37948718 101:0.010067114 102:0.35761589 103:0.6505102 104:0.63373494 105:0.55498721 106:0.64377682 107:0.5147929 108:0.87246377 109:0.47113164 110:0.55172414 111:0.48238482 112:0.72025052 113:0.55231144 114:0.5273224 115:0.17035398 116:0.27562642 117:0.045346062 118:0.38150289 119:0.28431373 120:0.076487252 121:0.045092838 122:0.13659794 123:0.051219512 124:0.74454829 125:0.010204082 126:0.24309392 127:0.40441176 128:0.078774617 129:0.42241379 130:0.47058824 131:0.85042735 132:0.032258065 133:0.66064257 134:0.625 135:0.62030905 136:0.34131737 137:0.65633075 138:0.30275229 139:0.6171875 140:0.6673428 141:0.70112782 142:0.50688705 143:0.49865229 144:0.65256798 145:0.0028011204 146:0.0057636888 147:0.10606061 148:0.15820896 149:0.068452381 150:0.25479452 151:0.42547425 152:0.40860215 153:0.48275862 154:0.015686275 155:0.29411765 156:0.0064516129 157:0.038167939 158:0.10353535 159:0.030769231 160:0.034375 161:0.15039578 162:0.39837398 163:0.57284768 164:0.61538462 165:0.30294118 166:0.45602606 
0.8236886934910972 1:0.15827338 2:0.0067340067 3:0.10843373 4:1 6:0.098958333 7:0.61197917 8:0.7398568 9:0.35278515 10:0.25298805 11:0.61484919 12:0.66475096 13:0.44391408 14:0.59761905 15:0.48509485 16:0.27492447 17:0.25142857 18:0.53215078 19:0.63762376 20:0.44767442 21:0.71659919 22:0.55988024 23:0.70361991 24:0.013089005 25:0.039325843 26:0.54567901 27:0.62430939 28:0.10932476 29:0.50155763 30:0.031553398 31:0.0032467532 32:0.017123288 33:0.60641399 34:0.095238095 35:0.4073107 36:0.14776632 37:0.0025062657 38:0.52941176 39:0.012 40:0.61891892 41:0.051470588 42:0.13920455 43:0.32679739 44:0.6509434 45:0.55789474 46:0.5187638 47:0.011235955 48:0.54198473 49:0.61915367 50:0.38193018 51:0.68372943 52:0.44475921 53:0.55342466 54:0.34032634 55:0.43010753 56:0.67567568 57:0.63408521 58:0.058823529 59:0.25988701 60:0.14351852 61:0.64927536 62:0.0027173913 63:0.56424581 64:0.033573141 65:0.56928839 66:0.17258883 67:0.0046728972 68:0.35127479 69:0.005899705 70:0.41666667 71:0.070038911 72:0.012096774 73:0.51208791 74:0.61333333 75:0.42821782 76:0.0625 77:0.3202934 78:0.61344538 79:0.69090909 80:0.59302326 81:0.59410431 82:0.58423913 83:0.74656189 84:0.83954155 85:0.11111111 86:0.56812339 87:0.25233645 88:0.85220126 89:0.78832117 90:0.041763341 91:0.0027027027 92:0.2459893 93:0.56779661 94:0.32936508 95:0.61946903 96:0.017241379 97:0.12707182 98:0.43636364 99:0.014778325 100:0.62307692 101:0.026845638 102:0.35761589 103:0.47959184 104:0.56626506 105:0.52685422 106:0.54291845 107:0.073964497 108:0.41449275 109:0.44572748 110:0.54597701 111:0.5501355 112:0.72025052 113:0.54014599 114:0.55464481 115:0.23672566 116:0.48063781 117:0.042959427 118:0.63294798 119:0.62009804 120:0.48441926 121:0.045092838 122:0.1443299 123:0.053658537 124:0.74454829 125:0.0068027211 126:0.23756906 127:0.22794118 128:0.054704595 129:0.27155172 130:0.47647059 131:0.85470085 132:0.038709677 133:0.65662651 134:0.625 135:0.61368653 136:0.21556886 137:0.3255814 138:0.042813456 139:0.62760417 140:0.6653144 141:0.69924812 142:0.5922865 143:0.62533693 144:0.6223565 145:0.0028011204 146:0.0057636888 147:0.12878788 148:0.39402985 149:0.33928571 150:0.64657534 151:0.42547425 152:0.41577061 153:0.49216301 154:0.011764706 155:0.26797386 156:0.0064516129 157:0.03562341 158:0.1969697 159:0.030769231 160:0.0375 161:0.18469657 162:0.40108401 163:0.57615894 164:0.61538462 165:0.30294118 166:0.46254072 
1 1:0.16546763 2:0.0067340067 3:0.032128514 4:0.99632353 6:0.098958333 7:0.54947917 8:0.64439141 9:0.34482759 10:0.39043825 11:0.62180974 12:0.6532567 13:0.62529833 14:0.55238095 15:0.58265583 16:0.10876133 17:0.31714286 18:0.76496674 19:0.65742574 20:0.31976744 21:0.68825911 22:0.41017964 23:0.71040724 24:0.04973822 25:0.039325843 26:0.60246914 27:0.53314917 28:0.3022508 29:0.48286604 30:0.046116505 31:0.0032467532 32:0.02739726 33:0.6122449 34:0.12244898 35:0.40469974 36:0.1443299 37:0.0025062657 38:0.23529412 39:0.012 40:0.38918919 41:0.033088235 42:0.14204545 43:0.52287582 44:0.625 45:0.57631579 46:0.4392936 47:0.04494382 48:0.7302799 49:0.65256125 50:0.38398357 51:0.6654479 52:0.31728045 53:0.54246575 54:0.49184149 55:0.41666667 56:0.4968815 57:0.55639098 58:0.10726644 59:0.25706215 60:0.24768519 61:0.65797101 62:0.0027173913 63:0.57541899 64:0.035971223 65:0.57303371 66:0.16751269 67:0.0046728972 68:0.1388102 69:0.005899705 70:0.20833333 71:0.031128405 72:0.012096774 73:0.61098901 74:0.58666667 75:0.57178218 76:0.067708333 77:0.35452323 78:0.55672269 79:0.69292929 80:0.55581395 81:0.55328798 82:0.48369565 83:0.74263261 84:0.84240688 85:0.14320988 86:0.59383033 87:0.23364486 88:0.49056604 89:0.77737226 90:0.039443155 91:0.0027027027 92:0.25668449 93:0.56779661 94:0.40277778 95:0.61504425 96:0.012315271 97:0.1160221 98:0.2987013 99:0.014778325 100:0.47948718 101:0.023489933 102:0.35761589 103:0.64285714 104:0.64096386 105:0.55754476 106:0.60944206 107:0.38461538 108:0.89565217 109:0.44572748 110:0.54885057 111:0.49593496 112:0.70981211 113:0.51094891 114:0.51639344 115:0.15044248 116:0.31890661 117:0.042959427 118:0.76589595 119:0.63480392 120:0.5184136 121:0.045092838 122:0.13659794 123:0.053658537 124:0.74143302 125:0.0068027211 126:0.24309392 127:0.3995098 128:0.085339168 129:0.43103448 130:0.47352941 131:0.85042735 132:0.032258065 133:0.64859438 134:0.59469697 135:0.62693157 136:0.11377246 137:0.2997416 138:0.082568807 139:0.6640625 140:0.70385396 141:0.71240602 142:0.29201102 143:0.43665768 144:0.36253776 145:0.0028011204 146:0.0057636888 147:0.098484848 148:0.25074627 149:0.25892857 150:0.47945205 151:0.42547425 152:0.40860215 153:0.48589342 154:0.011764706 155:0.29084967 156:0.0064516129 157:0.038167939 158:0.13888889 159:0.033333333 160:0.034375 161:0.15831135 162:0.39837398 163:0.57284768 164:0.61538462 165:0.30294118 166:0.45602606 
1 1:0.18705036 2:0.0067340067 3:0.10843373 4:0.54779412 6:0.73958333 7:0.61197917 8:0.73747017 9:0.35278515 10:0.24900398 11:0.612529 12:0.66475096 13:0.44630072 14:0.6 15:0.48509485 16:0.25981873 17:0.25142857 18:0.52993348 19:0.63960396 20:0.44767442 21:0.7145749 22:0.55988024 23:0.70361991 24:0.015706806 25:0.042134831 26:0.54567901 27:0.62430939 28:0.11254019 29:0.70093458 30:0.024271845 31:0.0032467532 32:0.051369863 33:0.63848397 34:0.10204082 35:0.48041775 36:0.14089347 37:0.71929825 38:0.53221289 39:0.012 40:0.61891892 41:0.047794118 42:0.14772727 43:0.32679739 44:0.6509434 45:0.55789474 46:0.51655629 47:0.011235955 48:0.5394402 49:0.61915367 50:0.3798768 51:0.68190128 52:0.44759207 53:0.55342466 54:0.34731935 55:0.088709677 56:0.67567568 57:0.63157895 58:0.058823529 59:0.79378531 60:0.1412037 61:0.10434783 62:0.0027173913 63:0.66480447 64:0.067146283 65:1 66:0.15228426 67:0.0046728972 68:0.35410765 69:0.005899705 70:0.41666667 71:0.070038911 72:0.012096774 73:0.51208791 74:0.61333333 75:0.42574257 76:0.0625 77:0.3202934 78:0.61134454 79:0.69090909 80:0.59534884 81:0.59410431 82:0.58423913 83:0.74656189 84:0.091690544 85:0.10617284 86:0.56812339 87:0.25233645 88:0.85534591 89:0.53649635 90:0.13921114 91:0.0027027027 92:0.27272727 93:0.38135593 94:0.32738095 95:0.57079646 96:0.017241379 97:0.87016575 98:0.43896104 99:0.014778325 100:0.62564103 101:0.023489933 102:0.36423841 103:0.47959184 104:0.56626506 105:0.52941176 106:0.53862661 107:0.071005917 108:0.41449275 109:0.44341801 110:0.54597701 111:0.54742547 112:0.72025052 113:0.54014599 114:0.55464481 115:0.23672566 116:0.48291572 117:0.045346062 118:0.63294798 119:0.62009804 120:0.4815864 121:0.042440318 122:0.18556701 123:0.21219512 124:0.68847352 125:0.0068027211 126:0.19337017 127:0.22794118 128:0.050328228 129:0.27155172 130:0.75588235 131:0.82051282 132:0.74516129 133:0.65261044 134:0.625 135:0.61368653 136:0.21856287 137:0.32816537 138:0.042813456 139:0.62760417 140:0.6673428 141:0.70112782 142:0.59504132 143:0.62803235 144:0.62537764 145:0.0028011204 146:0.0057636888 147:0.13636364 148:0.39402985 149:0.33928571 150:0.64657534 151:0.42547425 152:0.70967742 153:0.36050157 154:0.011764706 155:0.32352941 156:0.0064516129 157:0.03307888 158:0.20959596 159:0.074358974 160:0.034375 161:0.11609499 162:0.39837398 163:0.57284768 164:0.60897436 165:0.3 166:0.44625407 
1 1:0.1942446 2:0.0067340067 3:0.032128514 4:0.54411765 6:0.7421875 7:0.54947917 8:0.64677804 9:0.34217507 10:0.39243028 11:0.61716937 12:0.6532567 13:0.62291169 14:0.55238095 15:0.58265583 16:0.10574018 17:0.31714286 18:0.76718404 19:0.65940594 20:0.31976744 21:0.68623482 22:0.41017964 23:0.71040724 24:0.028795812 25:0.042134831 26:0.60246914 27:0.5359116 28:0.3022508 29:0.71339564 30:0.041262136 31:0.0032467532 32:0.068493151 33:0.63848397 34:0.15192744 35:0.48041775 36:0.13745704 37:0.70927318 38:0.23529412 39:0.012 40:0.39189189 41:0.033088235 42:0.14772727 43:0.52287582 44:0.62028302 45:0.57368421 46:0.43046358 47:0.041198502 48:0.7302799 49:0.65478842 50:0.38603696 51:0.66361974 52:0.31728045 53:0.54246575 54:0.4965035 55:0.094086022 56:0.4989605 57:0.55889724 58:0.10726644 59:0.79943503 60:0.24768519 61:0.13913043 62:0.0027173913 63:0.67039106 64:0.13669065 65:1 66:0.14720812 67:0.0046728972 68:0.1388102 69:0.005899705 70:0.21111111 71:0.031128405 72:0.012096774 73:0.60879121 74:0.58444444 75:0.57425743 76:0.0625 77:0.35452323 78:0.55672269 79:0.69090909 80:0.55581395 81:0.55102041 82:0.48369565 83:0.74263261 84:0.094555874 85:0.14567901 86:0.59383033 87:0.23676012 88:0.49056604 89:0.55839416 90:0.13689095 91:0.0027027027 92:0.27807487 93:0.38135593 94:0.40079365 95:0.57079646 96:0.012315271 97:0.86740331 98:0.2987013 99:0.014778325 100:0.48205128 101:0.023489933 102:0.36423841 103:0.64285714 104:0.63855422 105:0.55754476 106:0.60729614 107:0.37278107 108:0.89275362 109:0.45034642 110:0.54885057 111:0.49322493 112:0.70772443 113:0.50851582 114:0.51639344 115:0.15486726 116:0.31890661 117:0.047732697 118:0.76589595 119:0.63480392 120:0.52124646 121:0.042440318 122:0.19329897 123:0.21707317 124:0.67912773 125:0.0068027211 126:0.19337017 127:0.3995098 128:0.11378556 129:0.42887931 130:0.75294118 131:0.81623932 132:0.75483871 133:0.64658635 134:0.59280303 135:0.62913907 136:0.11377246 137:0.29715762 138:0.082568807 139:0.6640625 140:0.70588235 141:0.71240602 142:0.29476584 143:0.43665768 144:0.36555891 145:0.0028011204 146:0.0057636888 147:0.10606061 148:0.25074627 149:0.26190476 150:0.47945205 151:0.42547425 152:0.71684588 153:0.37304075 154:0.011764706 155:0.33660131 156:0.0064516129 157:0.03562341 158:0.13131313 159:0.038461538 160:0.034375 161:0.09762533 162:0.39566396 163:0.57284768 164:0.60897436 165:0.3 166:0.43973941 
0.4234887214515872 1:0.41726619 3:0.020080321 4:0.52941176 5:0.061971831 6:0.25520833 7:0.31770833 8:0.55608592 9:0.93899204 10:0.40836653 11:0.64965197 12:0.54214559 13:0.64916468 14:0.50952381 15:0.5501355 16:0.22356495 17:0.91714286 18:0.5654102 19:0.58613861 20:0.35852713 21:0.44534413 22:0.76347305 23:0.61085973 24:0.031413613 25:0.011235955 26:0.44197531 27:0.36740331 28:0.022508039 29:0.46728972 30:0.036407767 31:0.0032467532 32:0.30479452 33:0.33819242 34:0.14965986 35:0.31331593 36:0.31271478 37:0.015037594 38:0.52661064 39:0.112 40:0.35405405 41:0.014705882 42:0.59943182 43:0.54466231 44:0.62264151 45:0.56578947 46:0.49006623 47:0.62921348 48:0.63358779 49:0.54342984 50:0.38193018 51:0.4369287 52:0.898017 53:0.59452055 54:0.52680653 55:0.16666667 56:0.50519751 57:0.34837093 58:0.0034602076 59:0.43785311 60:0.2662037 61:0.24927536 62:0.0081521739 63:0.5698324 64:0.016786571 65:0.54307116 66:0.27918782 67:0.025700935 68:0.22379603 69:0.56342183 70:0.21388889 71:0.015564202 72:0.036290323 73:0.63516484 74:0.52 75:0.56930693 76:0.32291667 77:0.98533007 78:0.47268908 79:0.6040404 80:0.58837209 81:0.52834467 82:0.44836957 83:0.48722986 84:0.22063037 85:0.14567901 86:0.32904884 87:0.1152648 88:0.14779874 89:0.50729927 90:0.025522042 92:0.27272727 93:0.35028249 94:0.45238095 95:0.32743363 96:0.45812808 97:0.30110497 98:0.92987013 100:0.34615385 101:0.0067114094 102:0.45364238 103:0.64285714 104:0.64096386 105:0.52685422 106:0.42918455 107:0.90236686 108:0.80289855 109:0.42263279 110:0.56896552 111:0.50677507 112:0.51983299 113:0.61313869 114:0.6557377 115:0.17256637 116:0.44419134 117:0.023866348 118:0.34104046 119:0.32107843 120:0.17280453 121:0.015915119 122:0.1314433 123:0.070731707 124:0.39875389 125:0.068027211 126:0.49723757 127:0.44852941 128:0.10065646 129:0.47844828 130:0.40588235 131:0.16239316 132:0.10322581 133:0.48594378 134:0.47727273 135:0.53863135 136:0.32335329 137:0.82687338 138:0.49541284 139:0.64583333 140:0.46044625 141:0.47556391 142:0.35812672 143:0.45013477 144:0.86102719 145:0.0056022409 146:0.014409222 147:0.068181818 148:0.2238806 149:0.1875 150:0.3890411 151:0.27371274 152:0.44802867 153:0.36990596 154:0.050980392 155:0.5751634 156:0.029032258 157:0.081424936 158:0.1969697 159:0.020512821 160:0.525 161:0.73350923 162:0.57452575 163:0.15562914 164:0.57051282 165:0.71470588 166:0.2019544 
1 1:0.43884892 2:0.26599327 3:0.57028112 4:0.27205882 6:0.56510417 7:0.015625 8:0.72076372 9:0.055702918 10:0.48804781 11:0.47563805 12:0.48850575 13:0.57756563 14:0.61904762 15:0.5501355 16:0.060422961 17:0.014285714 18:0.63192905 19:0.44950495 20:0.43604651 21:0.40890688 22:0.0089820359 23:0.13800905 24:0.58115183 25:0.5 26:0.083950617 27:0.096685083 28:0.022508039 29:0.23364486 30:0.61893204 31:0.068181818 32:0.9760274 33:0.0087463557 34:0.68027211 35:0.08616188 36:0.26116838 37:0.035087719 38:0.11204482 39:0.492 40:0.13513514 41:0.48161765 42:0.59090909 43:0.49891068 44:0.54245283 45:0.56842105 46:0.25165563 47:0.026217228 48:0.43256997 49:0.61915367 50:0.51129363 51:0.44972578 52:0.014164306 53:0.019178082 54:0.38461538 55:0.6827957 56:0.34719335 57:0.012531328 58:0.027681661 59:0.40677966 60:0.59722222 61:0.0028985507 62:0.70923913 63:0.19553073 64:0.72182254 65:0.086142322 66:0.2893401 67:0.0023364486 68:0.44192635 69:0.30678466 70:0.42222222 71:0.52529183 72:0.4516129 73:0.54065934 74:0.60666667 75:0.59653465 76:0.057291667 77:0.024449878 78:0.54831933 79:0.46060606 80:0.48604651 81:0.22675737 82:0.010869565 83:0.37721022 84:0.69340974 85:0.62469136 86:0.015424165 87:0.33333333 88:0.22327044 89:0.24452555 90:0.64965197 91:0.57297297 92:0.80748663 93:0.0084745763 94:0.41269841 95:0.35840708 96:0.039408867 97:0.35082873 98:0.01038961 99:0.64039409 100:0.0076923077 101:0.41946309 102:0.57615894 103:0.54081633 104:0.45783133 105:0.51918159 106:0.46566524 107:0.056213018 108:0.37971014 109:0.57736721 110:0.50862069 111:0.50948509 112:0.27557411 113:0.087591241 114:0.032786885 115:0.66814159 116:0.60364465 117:0.62768496 118:0.037572254 119:0.026960784 120:0.028328612 121:0.53846154 122:0.51804124 123:0.54878049 124:0.12149533 125:0.91836735 126:0.62430939 127:0.58333333 128:0.66520788 129:0.50646552 130:0.0088235294 131:0.57264957 132:0.42580645 133:0.52208835 134:0.54545455 135:0.66887417 136:0.51796407 137:0.069767442 138:0.50764526 139:0.088541667 140:0.34077079 141:0.31203008 142:0.12947658 143:0.0080862534 144:0.0060422961 145:0.0028011204 146:0.014409222 147:0.10606061 148:0.47761194 149:0.44642857 150:0.13424658 151:0.073170732 152:0.0071684588 153:0.0031347962 154:0.4745098 155:0.85620915 156:0.57741935 157:0.020356234 158:0.31060606 159:0.7025641 160:0.35625 161:0.20580475 162:0.46612466 163:0.32450331 164:0.75641026 165:0.78823529 166:0.5504886 
1 1:0.10791367 2:0.03030303 3:0.16064257 4:0.58455882 6:0.13541667 7:0.56510417 8:0.56324582 9:0.53846154 10:0.42430279 11:0.65429234 12:0.57471264 13:0.66348449 14:0.52619048 15:0.52574526 16:0.081570997 17:0.80285714 18:0.57206208 19:0.52871287 20:0.35852713 21:0.46761134 22:0.5 23:0.60859729 24:0.018324607 25:0.011235955 26:0.46666667 27:0.74861878 28:0.15434084 29:0.31775701 30:0.053398058 31:0.0064935065 32:0.48287671 33:1 34:0.17913832 35:0.91644909 36:0.1443299 37:0.0025062657 38:0.54621849 39:0.004 40:0.67567568 41:0.11029412 42:0.039772727 43:0.55991285 44:0.60613208 45:0.60789474 46:0.50331126 47:0.27715356 48:0.51145038 49:0.48775056 50:0.39219713 51:0.46435101 52:0.51274788 53:0.55890411 54:0.4965035 55:0.18548387 56:0.50727651 57:0.6641604 58:0.14532872 59:0.30508475 60:0.29166667 61:0.64057971 62:0.029891304 63:0.5698324 64:0.023980815 65:0.59925094 66:0.12182741 67:0.0023364486 68:0.42492918 69:0.0029498525 70:0.52222222 71:0.12840467 72:0.0080645161 73:0.64395604 74:0.60666667 75:0.56930693 76:0.057291667 77:0.62591687 78:0.47268908 79:0.5959596 80:0.58837209 81:0.49886621 82:0.5 83:0.49705305 84:0.17191977 85:0.16049383 86:0.50899743 87:0.48909657 88:0.24213836 89:0.45985401 90:0.027842227 91:0.0054054054 92:0.19786096 93:1 94:0.47619048 95:0.9380531 96:0.21674877 97:0.39502762 98:0.53506494 99:0.0049261084 100:0.63076923 101:0.080536913 102:0.10264901 103:0.64285714 104:0.63373494 105:0.52173913 106:0.32618026 107:0.16272189 108:0.61449275 109:0.41801386 110:0.57183908 111:0.51761518 112:0.55532359 113:0.5863747 114:0.62568306 115:0.17477876 116:0.4191344 117:0.019093079 118:0.60115607 119:0.65441176 120:0.66005666 121:0.023872679 122:0.067010309 123:0.03902439 124:0.67912773 125:0.55102041 126:0.24309392 127:0.48529412 128:0.12472648 129:0.50646552 130:0.49411765 131:0.74358974 132:0.038709677 133:0.45783133 134:0.49621212 135:0.5209713 136:0.29041916 137:0.6124031 138:0.34862385 139:0.58854167 140:0.45841785 141:0.44736842 142:0.61707989 143:0.5902965 144:0.56193353 145:0.0056022409 146:0.017291066 147:0.060606061 148:0.55223881 149:0.5327381 150:0.7369863 151:1 152:0.88172043 153:1 154:0.011764706 155:0.12745098 156:0.029032258 157:0.055979644 158:0.23484848 159:0.028205128 160:0.015625 161:0.33773087 162:0.21409214 163:0.2218543 164:0.69871795 165:0.87352941 166:0.39739414 
1 1:0.021582734 2:0.02020202 3:0.076305221 4:0.41911765 6:0.171875 7:0.5625 8:0.54415274 9:0.51458886 10:0.312749 11:0.65429234 12:0.53639847 13:0.575179 14:0.56190476 15:0.52303523 16:0.10574018 17:0.77142857 18:0.50332594 19:0.58415842 20:0.43410853 21:0.48380567 22:0.49101796 23:0.59276018 24:0.041884817 25:0.019662921 26:0.52839506 27:0.66574586 28:0.38585209 29:0.46417445 30:0.019417476 31:0.0032467532 33:0.33819242 34:0.12471655 35:0.66318538 36:0.18556701 37:1 38:0.62745098 39:0.008 40:0.52702703 41:0.058823529 42:0.11079545 43:0.45098039 44:0.65801887 45:0.57894737 46:0.52980132 47:0.20973783 48:0.58015267 49:0.55011136 50:0.36344969 51:0.42961609 52:0.5184136 53:0.54520548 54:0.47785548 55:0.091397849 56:0.45530146 57:0.62406015 58:0.15570934 59:0.48022599 60:0.19675926 61:0.43188406 63:0.26256983 64:0.011990408 65:0.8988764 66:0.060913706 67:1 68:0.39093484 69:0.0029498525 70:0.34444444 71:0.054474708 72:0.0080645161 73:0.5978022 74:0.53111111 75:0.48267327 76:0.041666667 77:0.57212714 78:0.55882353 79:0.6 80:0.59302326 81:0.54421769 82:0.48369565 83:0.49508841 84:0.042979943 85:0.10617284 86:0.57069409 87:0.36137072 88:0.34591195 89:0.37956204 90:0.018561485 92:0.069518717 93:0.38418079 94:0.41468254 95:0.48230089 96:0.22413793 97:0.77900552 98:0.58441558 99:0.019704434 100:0.55384615 101:0.05033557 102:0.15562914 103:0.58673469 104:0.62650602 105:0.54731458 106:0.40128755 107:0.073964497 108:0.59130435 109:0.40646651 110:0.57758621 111:0.51219512 112:0.56367432 113:0.59854015 114:0.60655738 115:0.25442478 116:0.55125285 117:0.035799523 118:0.75722543 119:0.67401961 120:0.64022663 121:0.018567639 122:0.13917526 123:0.07804878 124:0.40498442 125:0.06462585 126:0.38121547 127:0.33088235 128:0.072210066 129:0.40086207 130:1 131:0.68803419 132:1 133:0.46385542 134:0.41856061 135:0.50331126 136:0.44610778 137:0.70284238 138:0.49235474 139:0.54166667 140:0.44421907 141:0.45864662 142:0.52066116 143:0.5148248 144:0.57401813 145:0.0056022409 146:0.017291066 147:0.10606061 148:0.35223881 149:0.36607143 150:0.61369863 151:0.63414634 152:0.43010753 153:0.30407524 154:0.0078431373 155:0.022875817 156:0.0064516129 157:0.027989822 158:0.21717172 159:0.025641026 160:0.034375 161:0.29287599 162:0.27913279 163:0.43046358 164:0.92948718 165:0.85294118 166:0.64169381 
1 1:0.20863309 2:0.02020202 3:0.076305221 4:0.54779412 6:0.3828125 7:0.56510417 8:0.54653938 9:0.51458886 10:0.30677291 11:0.64965197 12:0.53448276 13:0.57279236 14:0.56666667 15:0.53116531 16:0.093655589 17:0.76857143 18:0.50110865 19:0.58811881 20:0.43023256 21:0.47975709 22:0.49401198 23:0.59502262 24:0.044502618 25:0.014044944 26:0.52592593 27:0.67127072 28:0.38585209 29:0.42367601 30:0.012135922 31:0.0032467532 32:0.50342466 33:0.87463557 34:0.11564626 35:1 36:0.16494845 38:0.6302521 39:0.008 40:0.53513514 41:0.058823529 42:0.125 43:0.44662309 44:0.65801887 45:0.57368421 46:0.5187638 47:0.20599251 48:0.58015267 49:0.5545657 50:0.35728953 51:0.42961609 52:0.52124646 53:0.55068493 54:0.48717949 55:0.069892473 56:0.45945946 57:0.62907268 58:0.15570934 59:0.50282486 60:0.19212963 61:0.11884058 62:0.04076087 63:0.63687151 64:0.0095923261 65:0.68913858 66:0.076142132 67:0.0023364486 68:0.39660057 69:0.0029498525 70:0.35 71:0.054474708 72:0.0040322581 73:0.59340659 74:0.52666667 75:0.48514851 76:0.036458333 77:0.57212714 78:0.55882353 79:0.6020202 80:0.59534884 81:0.54195011 82:0.48369565 83:0.49705305 84:0.13467049 85:0.10123457 86:0.57069409 87:0.36760125 88:0.34591195 89:0.34671533 90:0.018561485 92:0.16042781 93:0.84745763 94:0.40674603 95:1 96:0.39901478 97:0.32872928 98:0.58701299 99:0.019704434 100:0.55897436 101:0.05033557 102:0.18211921 103:0.58673469 104:0.62650602 105:0.55498721 106:0.39484979 107:0.065088757 108:0.5884058 109:0.40646651 110:0.57183908 111:0.50948509 112:0.56367432 113:0.60097324 114:0.6147541 115:0.24557522 116:0.54897494 117:0.035799523 118:0.75722543 119:0.67647059 120:0.64872521 121:0.013262599 122:0.10051546 123:0.087804878 124:0.40498442 125:0.33673469 126:0.28176796 127:0.32352941 128:0.06345733 129:0.39224138 130:0.92352941 131:1 132:0.79354839 133:0.46385542 134:0.41477273 135:0.50772627 136:0.4491018 137:0.70542636 138:0.49235474 139:0.546875 140:0.44827586 141:0.46428571 142:0.5261708 143:0.51752022 144:0.57703927 145:0.0056022409 146:0.017291066 147:0.11363636 148:0.35820896 149:0.37202381 150:0.62191781 151:0.99457995 152:1 153:0.96551724 154:0.011764706 155:0.40196078 156:0.038709677 157:0.025445293 158:0.19949495 159:0.0076923077 160:0.00625 161:0.11609499 162:0.16260163 163:0.13907285 164:0.63461538 165:0.83529412 166:0.21824104 
1 1:0.14388489 2:0.03030303 3:0.16064257 4:0.53676471 5:0.0028169014 6:0.11979167 7:0.56510417 8:0.56563246 9:0.53846154 10:0.42629482 11:0.65197216 12:0.57471264 13:0.66348449 14:0.52619048 15:0.52845528 16:0.081570997 17:0.80285714 18:0.57206208 19:0.53069307 20:0.35658915 21:0.46761134 22:0.5 23:0.60859729 24:0.020942408 25:0.011235955 26:0.46666667 27:0.74861878 28:0.15755627 29:0.31775701 30:0.053398058 31:1 32:0.5 33:0.67930029 34:0.17913832 35:0.46475196 36:0.1443299 37:0.0025062657 38:0.54621849 39:0.004 40:0.67567568 41:0.11029412 42:0.045454545 43:0.55991285 44:0.60613208 45:0.60789474 46:0.50110375 47:0.27340824 48:0.51145038 49:0.48775056 50:0.39219713 51:0.46435101 52:0.51274788 53:0.55890411 54:0.4988345 55:0.19354839 56:0.50935551 57:0.6641604 58:0.14532872 59:0.2740113 60:0.29166667 61:1 62:0.035326087 63:0.5698324 64:0.023980815 65:0.55805243 66:0.12690355 67:0.0023364486 68:0.42492918 69:0.0029498525 70:0.52222222 71:0.12840467 72:0.0080645161 73:0.64395604 74:0.60666667 75:0.57178218 76:0.057291667 77:0.62591687 78:0.47058824 79:0.5979798 80:0.58837209 81:0.49886621 82:0.5 83:0.49705305 84:0.14613181 85:0.16296296 86:0.50899743 87:0.48909657 88:0.24528302 89:0.42335766 90:0.025522042 91:0.0054054054 92:0.19251337 93:0.66384181 94:0.47420635 95:0.54424779 96:0.25862069 97:0.37016575 98:0.53506494 99:0.0049261084 100:0.63076923 101:0.080536913 102:0.10596026 103:0.64285714 104:0.63373494 105:0.52173913 106:0.32403433 107:0.16272189 108:0.6115942 109:0.41801386 110:0.57183908 111:0.51761518 112:0.55532359 113:0.5863747 114:0.62568306 115:0.17477876 116:0.4191344 117:0.019093079 118:0.60404624 119:0.65441176 120:0.66005666 121:0.023872679 122:0.074742268 123:0.036585366 124:1 125:0.55782313 126:0.4198895 127:0.48529412 128:0.12472648 129:0.50431034 130:0.42941176 131:0.5982906 132:0.032258065 133:0.45783133 134:0.49431818 135:0.5209713 136:0.29041916 137:0.6124031 138:0.34862385 139:0.58854167 140:0.45841785 141:0.44736842 142:0.61707989 143:0.5902965 144:0.56193353 145:0.0056022409 146:1 147:0.068181818 148:0.55223881 149:0.5327381 150:0.7369863 151:0.65582656 152:0.3655914 153:0.53918495 154:0.011764706 155:0.17320261 156:0.035483871 157:0.055979644 158:0.23232323 159:0.028205128 160:0.0125 161:0.32453826 162:0.20054201 163:0.20198675 164:0.67307692 165:0.86764706 166:0.36807818 
1 1:0.2733813 2:0.080808081 3:0.48192771 4:0.54779412 5:0.022535211 6:0.76822917 7:0.57552083 8:0.56324582 9:0.5596817 10:0.3685259 11:0.65197216 12:0.50574713 13:0.62052506 14:0.51904762 15:0.52303523 16:0.075528701 17:0.76857143 18:0.52549889 19:0.56831683 20:0.4244186 21:0.548583 22:0.51497006 23:0.58371041 24:0.068062827 25:0.028089888 26:0.60493827 27:0.57734807 28:0.29581994 29:0.72897196 30:0.041262136 31:0.0032467532 32:0.30821918 33:0.65889213 34:0.22675737 35:0.46214099 36:0.15120275 37:0.69423559 38:0.59383754 39:0.864 40:0.45675676 41:0.36764706 42:0.36079545 43:0.50762527 44:0.62735849 45:0.61315789 46:0.5187638 47:0.48689139 48:0.54707379 49:0.56124722 50:0.38398357 51:0.44241316 52:0.53541076 53:0.5369863 54:0.52214452 55:0.10215054 56:0.46985447 57:0.5914787 58:0.11418685 59:0.81920904 60:0.24305556 61:0.11014493 62:0.28804348 63:0.63687151 64:0.21342926 65:0.98501873 66:0.20304569 67:0.0046728972 68:0.4674221 69:0.81415929 70:0.46666667 71:0.40466926 72:0.42741935 73:0.61978022 74:0.51777778 75:0.52475248 76:0.041666667 77:0.63814181 78:0.49789916 79:0.57777778 80:0.5744186 81:0.55555556 82:0.50815217 83:0.50884086 84:0.10601719 85:0.13580247 86:0.6092545 87:0.35202492 88:0.40880503 89:0.56934307 90:0.17169374 92:0.35828877 93:0.39265537 94:0.45039683 95:0.55309735 96:0.13054187 97:0.87569061 98:0.62337662 99:0.66995074 100:0.51538462 101:0.31543624 102:0.37748344 103:0.6122449 104:0.62650602 105:0.52685422 106:0.34549356 107:0.050295858 108:0.5826087 109:0.40184758 110:0.65517241 111:0.52303523 112:0.59290188 113:0.55717762 114:0.53278689 115:0.28539823 116:0.58997722 117:0.050119332 118:0.78612717 119:0.66421569 120:0.55807365 121:0.023872679 122:0.23195876 123:0.26829268 124:0.57632399 125:0.010204082 126:0.16574586 127:0.41666667 128:0.15317287 129:0.4612069 130:0.71764706 131:0.77777778 132:0.79677419 133:0.47389558 134:0.41856061 135:0.47240618 136:0.52994012 137:0.68217054 138:0.86238532 139:0.546875 140:0.44219067 141:0.45300752 142:0.46556474 143:0.50404313 144:0.60725076 145:0.0028011204 146:0.0086455331 147:0.11363636 148:0.51343284 149:0.44940476 150:0.52876712 151:0.45799458 152:0.6953405 153:0.36050157 154:0.50980392 155:0.40196078 156:0.50322581 157:0.020356234 158:0.26010101 159:0.094871795 160:0.44375 161:0.43271768 162:0.38753388 163:0.52649007 164:0.55128205 165:0.34411765 166:0.42019544 
0.8348458576548308 1:0.26618705 2:0.080808081 3:0.48594378 4:0.97794118 5:0.01971831 6:0.12239583 7:0.57291667 8:0.56085919 9:0.5596817 10:0.36454183 11:0.65661253 12:0.50766284 13:0.62052506 14:0.52142857 15:0.5203252 16:0.084592145 17:0.76285714 18:0.52549889 19:0.56633663 20:0.43023256 21:0.5465587 22:0.51497006 23:0.58597285 24:0.17801047 25:0.028089888 26:0.60493827 27:0.57734807 28:0.30546624 29:0.43613707 30:0.041262136 31:0.0032467532 32:0.29109589 33:0.65597668 34:0.16099773 35:0.41253264 36:0.1580756 38:0.59663866 39:0.864 40:0.45675676 41:0.36764706 42:0.36079545 43:0.50544662 44:0.63207547 45:0.61578947 46:0.52759382 47:0.47191011 48:0.54707379 49:0.55902004 50:0.38603696 51:0.44241316 52:0.53824363 53:0.53424658 54:0.51048951 55:0.36021505 56:0.46985447 57:0.5914787 58:0.11418685 59:0.3700565 60:0.24305556 61:0.68405797 62:0.28804348 63:0.62569832 64:0.021582734 65:0.57303371 66:0.20812183 67:0.0046728972 68:0.4674221 69:0.81415929 70:0.46666667 71:0.40466926 72:0.42741935 73:0.62197802 74:0.52 75:0.51980198 76:0.041666667 77:0.63814181 78:0.50630252 79:0.57777778 80:0.57209302 81:0.55328798 82:0.50543478 83:0.50884086 84:0.84527221 85:0.1382716 86:0.6092545 87:0.35202492 88:0.41194969 89:0.72992701 90:0.025522042 92:0.34759358 93:0.56779661 94:0.45238095 95:0.54867257 96:0.13054187 97:0.12430939 98:0.62597403 99:0.67487685 100:0.51282051 101:0.31543624 102:0.37417219 103:0.60969388 104:0.62650602 105:0.52941176 106:0.35407725 107:0.053254438 108:0.5826087 109:0.39953811 110:0.65517241 111:0.52303523 112:0.59290188 113:0.55474453 114:0.53278689 115:0.29424779 116:0.58997722 117:0.066825776 118:0.78612717 119:0.66421569 120:0.55807365 121:0.029177719 122:0.1056701 123:0.053658537 124:0.61682243 125:0.0068027211 126:0.16574586 127:0.41421569 128:0.10503282 129:0.4612069 130:0.47647059 131:0.79059829 132:0.78064516 133:0.47389558 134:0.41856061 135:0.47461369 136:0.53293413 137:0.68217054 138:0.86544343 139:0.54947917 140:0.44219067 141:0.45488722 142:0.46556474 143:0.50404313 144:0.6102719 145:0.0028011204 146:0.0086455331 147:0.10606061 148:0.51343284 149:0.45238095 150:0.5260274 151:0.45257453 152:0.38351254 153:0.45141066 154:0.50980392 155:0.39869281 156:0.50322581 157:0.025445293 158:0.25 159:0.017948718 160:0.44375 161:0.43271768 162:0.38753388 163:0.52649007 164:0.55128205 165:0.34411765 166:0.4267101 
0.1486958593522666 1:0.48920863 2:0.78451178 3:0.8313253 4:0.014705882 5:0.0028169014 6:0.0052083333 7:0.03125 8:0.70883055 9:0.055702918 10:0.46812749 11:0.44315545 12:0.44827586 13:0.52983294 14:0.62619048 15:0.52845528 16:0.090634441 17:0.20285714 18:0.63636364 19:0.48712871 20:0.47286822 21:0.34412955 22:0.026946108 23:0.14932127 24:0.0078534031 25:0.016853933 26:0.13580247 27:0.60220994 28:0.08681672 30:0.019417476 31:0.0032467532 32:0.50342466 33:0.090379009 34:0.027210884 35:0.026109661 36:0.18556701 38:0.16806723 39:0.724 40:0.3 41:0.91911765 42:0.64204545 43:0.52287582 44:0.58254717 45:0.54473684 46:0.30684327 47:0.67790262 48:0.37659033 49:0.65033408 50:0.51950719 51:0.40036563 52:0.025495751 53:0.049315068 54:0.24242424 55:0.0053763441 56:0.44698545 57:0.07518797 58:0.79584775 59:0.0028248588 60:0.28009259 61:0.0028985507 62:0.49456522 63:0.45810056 64:0.016786571 65:0.014981273 66:0.35532995 67:0.0046728972 68:0.58923513 69:0.64306785 70:0.67777778 71:0.89883268 72:0.59677419 73:0.42197802 74:0.58444444 75:0.6039604 76:0.052083333 77:0.04400978 78:0.59033613 79:0.44848485 80:0.46511628 81:0.16780045 82:0.029891304 83:0.33988212 84:0.005730659 85:0.24197531 86:0.035989717 87:0.95950156 88:0.30188679 89:0.0072992701 90:0.018561485 91:0.14054054 92:0.17112299 93:0.011299435 94:0.13095238 95:0.33185841 96:0.086206897 97:0.0027624309 98:0.038961039 99:0.81280788 100:0.058974359 101:0.88590604 102:0.2384106 103:0.57397959 104:0.4939759 105:0.51918159 106:0.527897 107:0.085798817 108:0.37391304 109:0.52193995 110:0.49425287 111:0.49864499 112:0.20250522 113:0.063260341 114:0.032786885 115:0.36061947 116:0.4214123 117:0.031026253 118:0.17052023 119:0.068627451 120:0.54390935 121:0.021220159 123:0.0048780488 125:0.1122449 126:0.26519337 127:0.37009804 128:0.032822757 129:0.27586207 130:0.0058823529 131:0.29059829 133:0.48795181 134:0.52083333 135:0.67328918 136:0.76047904 137:0.20930233 138:0.98165138 139:0.15885417 140:0.45233266 141:0.34774436 142:0.17630854 143:0.037735849 144:0.036253776 145:0.0028011204 146:0.011527378 147:0.090909091 148:0.86567164 149:0.94047619 150:0.51232877 151:0.062330623 152:0.010752688 153:0.0062695925 154:0.72941176 155:0.70915033 156:0.72580645 157:0.038167939 158:0.065656566 159:0.020512821 160:0.490625 161:0.59630607 162:0.31165312 163:0.2218543 164:0.55128205 165:0.67647059 166:0.36156352 
0.7418763019525547 1:0.48920863 2:0.76767677 3:0.84337349 4:0.014705882 5:0.0056338028 6:0.0026041667 7:0.03125 8:0.49164678 9:0.074270557 10:0.35458167 11:0.6612529 12:0.54022989 13:0.61813842 14:0.5452381 15:0.52845528 16:0.090634441 17:0.071428571 18:0.41463415 19:0.54653465 20:0.3875969 21:0.47368421 22:0.038922156 23:0.40497738 24:0.036649215 25:0.016853933 26:0.11358025 27:0.61049724 28:0.057877813 30:0.031553398 31:0.0032467532 32:0.5239726 33:0.087463557 34:0.14739229 35:0.026109661 36:0.18900344 38:0.15966387 39:0.724 40:0.34054054 41:0.91911765 42:0.62784091 43:0.50108932 44:0.64150943 45:0.55789474 46:0.52759382 47:0.71910112 48:0.33842239 49:0.56570156 50:0.34702259 51:0.50274223 52:0.050991501 53:0.11506849 54:0.51048951 55:0.002688172 56:0.29313929 57:0.077694236 58:0.77508651 59:0.0028248588 60:0.23148148 61:0.0057971014 62:0.51630435 63:0.45810056 64:0.016786571 65:0.014981273 66:0.35532995 67:0.0046728972 68:0.59206799 69:0.64306785 70:0.69166667 71:0.90272374 72:0.59677419 73:0.62197802 74:0.56444444 75:0.52227723 76:0.052083333 77:0.026894866 78:0.51890756 79:0.56767677 80:0.59767442 81:0.3106576 82:0.032608696 83:0.52455796 84:0.005730659 85:0.11604938 86:0.038560411 87:0.95638629 88:0.047169811 89:0.010948905 90:0.016241299 91:0.12702703 92:0.17112299 93:0.011299435 94:0.44642857 95:0.33628319 96:0.083743842 97:0.0027624309 98:0.038961039 99:0.81280788 100:0.064102564 101:0.87919463 102:0.22847682 103:0.6122449 104:0.63373494 105:0.53196931 106:0.27682403 107:0.020710059 108:0.10144928 109:0.40415704 110:0.54310345 111:0.50135501 112:0.44467641 113:0.21411192 114:0.15300546 115:0.18584071 116:0.48519362 117:0.028639618 118:0.023121387 119:0.051470588 120:0.53824363 121:0.021220159 123:0.0024390244 125:0.10884354 126:0.25414365 127:0.39705882 128:0.094091904 129:0.45043103 130:0.0029411765 131:0.2991453 133:0.47590361 134:0.51136364 135:0.5187638 136:0.74550898 137:0.19896641 138:0.98165138 139:0.3203125 140:0.48275862 141:0.4962406 142:0.184573 143:0.040431267 144:0.039274924 145:0.0028011204 146:0.011527378 147:0.090909091 148:0.87462687 149:0.94345238 150:0.52876712 151:0.062330623 152:0.0071684588 153:0.0062695925 154:0.7254902 155:0.70588235 156:0.72903226 157:0.038167939 158:0.23232323 159:0.017948718 160:0.490625 161:0.60158311 162:0.31165312 163:0.2218543 164:0.55128205 165:0.67941176 166:0.36482085 
1 1:0.23021583 2:0.0067340067 3:0.02811245 4:0.9375 6:0.36458333 7:0.55208333 8:0.65632458 9:0.55702918 10:0.34462151 11:0.62645012 12:0.38314176 13:0.59665871 14:0.56666667 15:0.58807588 16:0.057401813 17:0.73714286 18:0.53436807 19:0.42970297 20:0.30813953 21:0.4048583 22:0.50598802 23:0.42081448 24:0.12303665 25:0.028089888 26:0.60493827 27:0.54143646 28:0.31832797 29:0.44859813 30:0.024271845 31:0.0064935065 32:0.50684932 33:0.4548105 34:0.10204082 35:0.68668407 36:0.1580756 38:0.53501401 39:0.008 40:0.4027027 41:0.029411765 42:0.125 43:0.48583878 44:0.64858491 45:0.47631579 46:0.45033113 47:0.15355805 48:0.53435115 49:0.53674833 50:0.34086242 51:0.39853748 52:0.52407932 53:0.49315068 54:0.49417249 55:0.25806452 56:0.44490644 57:0.56140351 58:0.11072664 59:0.50564972 60:0.21296296 61:0.73043478 62:0.046195652 63:0.59776536 64:0.021582734 65:0.4906367 66:0.081218274 67:0.0023364486 68:0.24929178 69:0.0029498525 70:0.22222222 71:0.023346303 72:0.0080645161 73:0.5978022 74:0.43333333 75:0.54455446 76:0.052083333 77:0.62836186 78:0.5105042 79:0.41616162 80:0.56976744 81:0.38095238 82:0.48913043 83:0.47740668 84:0.83667622 85:0.11604938 86:0.59640103 87:0.23987539 88:0.5 89:0.63138686 90:0.030162413 92:0.15508021 93:0.57062147 94:0.38095238 95:0.53097345 96:0.39408867 97:0.074585635 98:0.59220779 99:0.0098522167 100:0.48205128 101:0.020134228 102:0.17549669 103:0.63010204 104:0.64337349 105:0.5831202 106:0.27896996 107:0.053254438 108:0.56521739 109:0.43187067 110:0.46551724 111:0.50948509 112:0.4091858 113:0.36739659 114:0.3989071 115:0.13053097 116:0.3166287 117:0.045346062 118:0.78034682 119:0.64215686 120:0.5325779 121:0.029177719 122:0.11597938 123:0.095121951 124:0.46728972 125:0.35714286 126:0.28176796 127:0.34068627 128:0.061269147 129:0.39008621 130:0.52647059 131:0.63675214 132:0.78387097 133:0.47590361 134:0.39962121 135:0.50993377 136:0.28742515 137:0.63307494 138:0.3088685 139:0.5 140:0.48275862 141:0.48120301 142:0.41322314 143:0.47169811 144:0.57099698 145:0.0028011204 146:0.63400576 147:0.098484848 148:0.24776119 149:0.26190476 150:0.48219178 151:0.6504065 152:0.41935484 153:0.52351097 154:0.011764706 155:0.40196078 156:0.04516129 157:0.03307888 158:0.13383838 159:0.020512821 160:0.00625 161:0.13456464 162:0.16260163 163:0.13907285 164:0.63461538 165:0.83235294 166:0.22801303 
1 1:0.12230216 2:0.01010101 3:0.080321285 4:0.84926471 6:0.4609375 7:0.60677083 8:0.5274463 9:0.56763926 10:0.22310757 11:0.63341067 12:0.42911877 13:0.49880668 14:0.60952381 15:0.50948509 16:0.14501511 17:0.73428571 18:0.47006652 19:0.38613861 20:0.40116279 21:0.48380567 22:0.51197605 23:0.39366516 24:0.020942408 25:0.039325843 26:0.52592593 27:0.64088398 28:0.1511254 29:0.80996885 30:0.024271845 31:0.016233766 32:0.2739726 33:0.70262391 34:0.095238095 35:0.35248042 36:0.17869416 38:0.43417367 39:0.012 40:0.56756757 41:0.047794118 42:0.19034091 43:0.35947712 44:0.66981132 45:0.48157895 46:0.51434879 47:0.20599251 48:0.57760814 49:0.47438753 50:0.29568788 51:0.46983547 52:0.48725212 53:0.48219178 54:0.43356643 55:0.69354839 56:0.46985447 57:0.63659148 58:0.096885813 59:0.73728814 60:0.15972222 61:0.71304348 62:0.0054347826 63:0.4972067 64:0.026378897 65:0.59550562 66:0.035532995 67:0.0023364486 68:0.26062323 69:0.005899705 70:0.34166667 71:0.058365759 72:0.0080645161 73:0.54945055 74:0.49111111 75:0.42079208 76:0.052083333 77:0.62836186 78:0.60504202 79:0.41616162 80:0.60697674 81:0.44444444 82:0.55163043 83:0.48330059 84:0.64469914 85:0.074074074 86:0.59383033 87:0.28971963 88:0.22955975 89:0.89416058 90:0.046403712 92:0.12299465 93:0.68644068 94:0.34920635 95:0.23451327 96:0.34482759 97:0.019337017 98:0.49350649 99:0.0098522167 100:0.59487179 101:0.030201342 102:0.20198675 103:0.53316327 104:0.60481928 105:0.56521739 106:0.49141631 107:0.27810651 108:0.71014493 109:0.39953811 110:0.45977011 111:0.5501355 112:0.44050104 113:0.37226277 114:0.3989071 115:0.18141593 116:0.44419134 117:0.052505967 118:0.68208092 119:0.65931373 120:0.56373938 121:0.034482759 122:0.60309278 123:0.39512195 124:0.6728972 125:0.017006803 126:0.56353591 127:0.25490196 128:0.052516411 129:0.30603448 130:0.51470588 131:0.2991453 132:0.4516129 133:0.45983936 134:0.4469697 135:0.58057395 136:0.19161677 137:0.50387597 138:0.24159021 139:0.42708333 140:0.44827586 141:0.41541353 142:0.50688705 143:0.57142857 144:0.5407855 145:0.0028011204 146:0.011527378 147:0.10606061 148:0.35820896 149:0.3422619 150:0.62739726 151:0.55284553 152:0.54121864 153:0.51410658 154:0.0078431373 155:0.35294118 156:0.0096774194 157:0.03307888 158:0.17929293 159:0.025641026 160:0.0375 161:0.021108179 162:0.25745257 163:0.24834437 164:0.63461538 165:0.71176471 166:0.019543974 
1 1:0.1294964 2:0.0033670034 3:0.032128514 4:0.51470588 6:0.69791667 7:0.55208333 8:0.64916468 9:0.55437666 10:0.34262948 11:0.63573086 12:0.38888889 13:0.59904535 14:0.56666667 15:0.58265583 16:0.069486405 17:0.74285714 18:0.53880266 19:0.43168317 20:0.30813953 21:0.40688259 22:0.50598802 23:0.42307692 24:0.020942408 25:0.028089888 26:0.60740741 27:0.53314917 28:0.30546624 29:0.57320872 30:0.029126214 31:0.0064935065 32:0.49315068 33:0.63848397 34:0.16553288 35:0.51958225 36:0.1443299 37:0.78195489 38:0.53781513 39:0.004 40:0.4 41:0.029411765 42:0.042613636 43:0.48366013 44:0.65566038 45:0.47105263 46:0.46799117 47:0.15730337 48:0.53435115 49:0.53674833 50:0.33264887 51:0.40219378 52:0.52124646 53:0.49863014 54:0.48018648 55:0.19086022 56:0.44490644 57:0.55889724 58:0.10726644 59:0.71186441 60:0.21296296 61:0.62028986 62:0.038043478 63:0.46927374 64:0.14388489 65:0.94756554 66:0.1319797 67:0.0023364486 68:0.24929178 69:0.005899705 70:0.22222222 71:0.027237354 72:0.0080645161 73:0.6021978 74:0.43555556 75:0.53960396 76:0.0625 77:0.62836186 78:0.51890756 79:0.41818182 80:0.56976744 81:0.38095238 82:0.48913043 83:0.48133595 84:0.14899713 85:0.11604938 86:0.59640103 87:0.23364486 88:0.49056604 89:0.46715328 90:0.13457077 91:0.0054054054 92:0.19251337 93:0.63559322 94:0.39087302 95:0.53982301 96:0.23152709 97:0.86740331 98:0.59220779 99:0.0098522167 100:0.47948718 101:0.023489933 102:0.10264901 103:0.62755102 104:0.64578313 105:0.58056266 106:0.30472103 107:0.062130178 108:0.57391304 109:0.42494226 110:0.46551724 111:0.51761518 112:0.41336117 113:0.36739659 114:0.40163934 115:0.12831858 116:0.3166287 117:0.035799523 118:0.77745665 119:0.63970588 120:0.52407932 121:0.031830239 122:0.12371134 123:0.16341463 124:0.65732087 125:0.54421769 126:0.21546961 127:0.34313725 128:0.094091904 129:0.39655172 130:0.77058824 131:0.60683761 132:0.47096774 133:0.47590361 134:0.39583333 135:0.51214128 136:0.29041916 137:0.63565891 138:0.31192661 139:0.5 140:0.47464503 141:0.47932331 142:0.41322314 143:0.4690027 144:0.57099698 145:0.0028011204 146:0.011527378 147:0.083333333 148:0.24477612 149:0.25892857 150:0.47671233 151:0.65853659 152:0.62724014 153:0.52037618 154:0.011764706 155:0.15359477 156:0.032258065 157:0.038167939 158:0.1489899 159:0.18717949 160:0.015625 161:0.33773087 162:0.20596206 163:0.21192053 164:0.68589744 165:0.86470588 166:0.38762215 
0.9851583745702082 1:0.17266187 2:0.01010101 3:0.080321285 4:0.97794118 6:0.71354167 7:0.59895833 8:0.51312649 9:0.5596817 10:0.24103586 11:0.64037123 12:0.68199234 13:0.51312649 14:0.60714286 15:0.50135501 16:0.16918429 17:0.73142857 18:0.54101996 19:0.62376238 20:0.41085271 21:0.73684211 22:0.50598802 23:0.67873303 24:0.023560209 25:0.039325843 26:0.52592593 27:0.63535912 28:0.1511254 29:0.64485981 30:0.029126214 31:0.0032467532 32:0.034246575 33:0.62390671 34:0.13605442 35:0.48563969 36:0.1443299 37:0.75438596 38:0.43137255 39:0.012 40:0.56486486 41:0.051470588 42:0.14488636 43:0.37472767 44:0.66509434 45:0.58157895 46:0.52759382 47:0.21722846 48:0.68193384 49:0.5701559 50:0.31622177 51:0.70018282 52:0.47875354 53:0.5369863 54:0.42890443 55:0.34408602 56:0.44698545 57:0.62907268 58:0.10034602 59:0.75141243 60:0.16898148 61:0.68695652 62:0.0027173913 63:0.61452514 64:0.098321343 65:0.98127341 66:0.16243655 67:0.0046728972 68:0.26345609 69:0.005899705 70:0.34166667 71:0.058365759 72:0.012096774 73:0.55824176 74:0.64666667 75:0.42821782 76:0.0625 77:0.61858191 78:0.5987395 79:0.69292929 80:0.60232558 81:0.62131519 82:0.54619565 83:0.74656189 84:0.83667622 85:0.083950617 86:0.58868895 87:0.28971963 88:0.22012579 89:0.73357664 90:0.13689095 91:0.0027027027 92:0.25668449 93:0.57062147 94:0.37103175 95:0.58849558 96:0.017241379 97:0.86740331 98:0.48311688 99:0.014778325 100:0.58974359 101:0.033557047 102:0.36092715 103:0.53571429 104:0.60481928 105:0.54987212 106:0.48712446 107:0.30473373 108:0.70724638 109:0.40184758 110:0.54310345 111:0.53929539 112:0.72025052 113:0.54014599 114:0.5273224 115:0.19690265 116:0.46469248 117:0.042959427 118:0.67630058 119:0.65441176 120:0.55807365 121:0.042440318 122:0.16752577 123:0.18292683 124:0.7258567 125:0.0068027211 126:0.22099448 127:0.26960784 128:0.072210066 129:0.33189655 130:0.77352941 131:0.84615385 132:0.6483871 133:0.70080321 134:0.66477273 135:0.62030905 136:0.19161677 137:0.49612403 138:0.24159021 139:0.59375 140:0.61663286 141:0.68421053 142:0.50688705 143:0.56603774 144:0.5347432 145:0.0028011204 146:0.0057636888 147:0.098484848 148:0.35820896 149:0.3422619 150:0.62191781 151:0.42276423 152:0.67741935 153:0.47962382 154:0.011764706 155:0.30392157 156:0.0064516129 157:0.03562341 158:0.23232323 159:0.14615385 160:0.0375 161:0.1530343 162:0.39837398 163:0.57284768 164:0.61538462 165:0.3 166:0.45602606 
1 1:0.17985612 2:0.31313131 3:0.58232932 4:0.56985294 6:0.63802083 7:0.2578125 8:0.68973747 9:0.27055703 10:0.38247012 11:0.62645012 12:0.42911877 13:0.61336516 14:0.57380952 15:0.62059621 16:0.054380665 17:0.28571429 18:0.52549889 19:0.43564356 20:0.30232558 21:0.45748988 22:0.23353293 23:0.37782805 24:0.052356021 25:0.39044944 26:0.34320988 27:0.25690608 28:0.012861736 29:0.53894081 30:0.35436893 31:0.0032467532 32:0.1609589 33:0.55102041 34:0.2244898 35:0.51697128 36:0.1443299 37:0.79197995 38:0.27170868 39:0.496 40:0.21891892 41:0.51470588 42:0.33238636 43:0.50544662 44:0.65566038 45:0.5 46:0.41942605 47:0.02247191 48:0.43256997 49:0.5701559 50:0.36960986 51:0.45886654 52:0.24645892 53:0.26027397 54:0.45221445 55:0.33602151 56:0.32432432 57:0.21804511 58:0.044982699 59:0.66949153 60:0.40972222 61:0.34492754 62:0.18206522 63:0.51955307 64:0.30695444 65:0.97003745 66:0.20304569 67:0.0046728972 68:0.42209632 69:0.29498525 70:0.41111111 71:0.54863813 72:0.48790323 73:0.60659341 74:0.46666667 75:0.57673267 76:0.072916667 77:0.32273839 78:0.49369748 79:0.43636364 80:0.53953488 81:0.31519274 82:0.2173913 83:0.50098232 84:0.24068768 85:0.39012346 86:0.31619537 87:0.35825545 88:0.18867925 89:0.4379562 90:0.34570766 91:0.016216216 92:0.2513369 93:0.36440678 94:0.36904762 95:0.72566372 96:0.0024630542 97:0.84530387 98:0.30649351 99:0.65024631 100:0.16153846 101:0.46308725 102:0.35761589 103:0.65816327 104:0.6626506 105:0.60358056 106:0.35407725 107:0.050295858 108:0.49565217 109:0.46882217 110:0.49425287 111:0.51219512 112:0.44676409 113:0.25547445 114:0.24863388 115:0.35619469 116:0.35535308 117:0.35322196 118:0.36416185 119:0.30637255 120:0.15864023 121:0.37665782 122:0.33247423 123:0.34634146 124:0.7694704 125:0.027210884 126:0.27071823 127:0.44852941 128:0.33041575 129:0.40086207 130:0.82058824 131:0.85042735 132:0.47096774 133:0.43975904 134:0.40340909 135:0.49006623 136:0.49401198 137:0.31524548 138:0.4617737 139:0.3359375 140:0.37525355 141:0.45676692 142:0.21487603 143:0.17789757 144:0.25981873 145:0.0028011204 146:0.0057636888 147:0.090909091 148:0.48059701 149:0.46130952 150:0.25479452 151:0.45257453 152:0.65949821 153:0.31974922 154:0.46666667 155:0.33006536 156:0.37096774 157:0.030534351 158:0.093434343 159:0.066666667 160:0.34375 161:0.29815303 162:0.40379404 163:0.56953642 164:0.6025641 165:0.31176471 166:0.46905537 
0.6776312961687436 1:0.25899281 2:0.30976431 3:0.58232932 4:0.90808824 6:0.31510417 7:0.25520833 8:0.6778043 9:0.27055703 10:0.38047809 11:0.63805104 12:0.43103448 13:0.61575179 14:0.58095238 15:0.62330623 16:0.069486405 17:0.28571429 18:0.52771619 19:0.43366337 20:0.3003876 21:0.46153846 22:0.23353293 23:0.37556561 24:0.039267016 25:0.38764045 26:0.34320988 27:0.25138122 28:0.0096463023 29:0.37383178 30:0.37378641 31:0.019480519 32:0.24315068 33:0.63556851 34:0.26530612 35:0.37336815 36:0.1443299 37:0.0025062657 38:0.27170868 39:0.496 40:0.21621622 41:0.51470588 42:0.33806818 43:0.50544662 44:0.66509434 45:0.5 46:0.43487859 47:0.026217228 48:0.43765903 49:0.56570156 50:0.36344969 51:0.4606947 52:0.24645892 53:0.26027397 54:0.44522145 55:0.37365591 56:0.32224532 57:0.21553885 58:0.041522491 59:0.41242938 60:0.42361111 61:0.8173913 62:0.17934783 63:0.75418994 64:0.30695444 65:0.56928839 66:0.16243655 67:0.0046728972 68:0.42209632 69:0.2979351 70:0.41111111 71:0.54863813 72:0.48790323 73:0.61318681 74:0.46888889 75:0.57673267 76:0.083333333 77:0.32273839 78:0.50630252 79:0.43636364 80:0.53953488 81:0.31746032 82:0.2173913 83:0.49901768 84:0.75644699 85:0.39753086 86:0.31362468 87:0.35514019 88:0.17924528 89:0.54014599 90:0.35034803 91:0.013513514 92:0.30481283 93:0.61016949 94:0.375 95:0.66371681 96:0.036945813 97:0.082872928 98:0.30909091 99:0.65024631 100:0.15897436 101:0.45973154 102:0.37086093 103:0.66071429 104:0.66746988 105:0.60869565 106:0.36266094 107:0.056213018 108:0.51014493 109:0.46420323 110:0.49425287 111:0.51490515 112:0.44885177 113:0.25547445 114:0.24863388 115:0.35176991 116:0.34624146 117:0.33651551 118:0.36127168 119:0.30147059 120:0.15580737 121:0.3872679 122:0.31701031 123:0.33170732 124:0.48909657 126:0.055248619 127:0.46078431 128:0.35886214 129:0.40948276 130:0.46176471 131:0.70512821 132:0.84193548 133:0.44176707 134:0.40719697 135:0.49448124 136:0.49401198 137:0.31782946 138:0.4648318 139:0.33333333 140:0.36713996 141:0.45488722 142:0.21487603 143:0.17789757 144:0.26283988 145:0.0028011204 146:0.78386167 147:0.075757576 148:0.47761194 149:0.46130952 150:0.25205479 151:0.4796748 152:0.390681 153:0.4200627 154:0.46666667 155:0.36601307 156:0.37096774 157:0.048346056 158:0.11363636 159:0.074358974 160:0.34375 161:0.26912929 162:0.39837398 163:0.56291391 164:0.58974359 165:0.30882353 166:0.43648208 
1 1:0.25179856 2:0.28282828 3:0.57831325 4:0.94485294 6:0.32552083 7:0.30989583 8:0.52505967 9:0.30769231 10:0.28486056 11:0.60324826 12:0.42911877 13:0.42720764 14:0.62619048 15:0.50135501 16:0.16314199 17:0.27142857 18:0.50332594 19:0.42376238 20:0.43217054 21:0.4291498 22:0.23652695 23:0.39366516 24:0.015706806 25:0.38764045 26:0.30123457 27:0.30110497 28:0.025723473 29:0.37071651 30:0.37135922 31:0.0064935065 32:0.25342466 33:0.64431487 34:0.25623583 35:0.37075718 36:0.1443299 37:0.0025062657 38:0.20448179 39:0.504 40:0.2972973 41:0.5 42:0.33806818 43:0.33333333 44:0.66273585 45:0.50526316 46:0.49006623 47:0.014981273 48:0.36132316 49:0.46547884 50:0.33470226 51:0.44058501 52:0.23796034 53:0.25205479 54:0.36130536 55:0.39247312 56:0.45322245 57:0.32581454 58:0.031141869 59:0.40677966 60:0.4212963 61:0.78550725 62:0.16304348 63:0.74860335 64:0.30455635 65:0.57677903 66:0.16243655 67:0.0046728972 68:0.42209632 69:0.31563422 70:0.40555556 71:0.53696498 72:0.47983871 73:0.4989011 74:0.51111111 75:0.40346535 76:0.057291667 77:0.33740831 78:0.62184874 79:0.43636364 80:0.62325581 81:0.3106576 82:0.26086957 83:0.49901768 84:0.78796562 85:0.39506173 86:0.28791774 87:0.3271028 88:0.17924528 89:0.62408759 90:0.35034803 91:0.0081081081 92:0.30481283 93:0.61016949 94:0.30952381 95:0.61504425 96:0.02955665 97:0.11878453 98:0.20519481 99:0.65024631 100:0.29487179 101:0.44295302 102:0.37417219 103:0.47959184 104:0.57349398 105:0.55754476 106:0.53648069 107:0.056213018 108:0.3942029 109:0.43648961 110:0.49137931 111:0.59078591 112:0.44050104 113:0.25304136 114:0.25136612 115:0.36283186 116:0.45330296 117:0.33890215 118:0.27745665 119:0.33823529 120:0.13314448 121:0.3872679 122:0.32216495 123:0.33170732 124:0.48286604 126:0.08839779 127:0.39705882 128:0.35667396 129:0.33189655 130:0.46764706 131:0.73504273 132:0.83870968 133:0.37148594 134:0.43560606 135:0.62472406 136:0.5 137:0.21963824 138:0.48318043 139:0.33333333 140:0.43610548 141:0.47180451 142:0.26446281 143:0.27493261 144:0.2265861 145:0.0028011204 146:0.0028818444 147:0.11363636 148:0.46865672 149:0.44345238 150:0.32328767 151:0.45799458 152:0.390681 153:0.45141066 154:0.45490196 155:0.36601307 156:0.35806452 157:0.03307888 158:0.18181818 159:0.066666667 160:0.34375 161:0.27176781 162:0.39837398 163:0.56622517 164:0.58974359 165:0.30588235 166:0.43322476 
1 1:0.51079137 2:0.88215488 3:0.79518072 4:0.52573529 6:0.2109375 7:0.33072917 8:0.51551313 9:0.32095491 10:0.20318725 11:0.60788863 12:0.43103448 13:0.43198091 14:0.61666667 15:0.49051491 16:0.18731118 17:0.38285714 18:0.49223947 19:0.41386139 20:0.42054264 21:0.4534413 22:0.26047904 23:0.39819005 24:0.015706806 25:0.02247191 26:0.31604938 27:0.50552486 28:0.061093248 29:0.45482866 30:0.019417476 31:0.0032467532 32:0.32876712 33:0.27988338 34:0.077097506 35:0.33420366 36:0.17182131 37:0.012531328 38:0.3697479 39:0.732 40:0.35945946 41:0.94485294 42:0.69602273 43:0.2962963 44:0.66037736 45:0.48947368 46:0.49889625 47:0.14981273 48:0.3740458 49:0.45434298 50:0.32648871 51:0.45338208 52:0.25495751 53:0.26849315 54:0.37995338 55:0.14784946 56:0.46569647 57:0.33333333 58:0.89273356 59:0.42090395 60:0.13194444 61:0.26956522 62:0.4673913 63:0.46368715 64:0.021582734 65:0.54681648 66:0.35532995 67:0.0023364486 68:0.61756374 69:0.67846608 70:0.58611111 71:0.88326848 72:0.63306452 73:0.5032967 74:0.50222222 75:0.39851485 76:0.057291667 77:0.35696822 78:0.6197479 79:0.43434343 80:0.60465116 81:0.32879819 82:0.28804348 83:0.50687623 84:0.16045845 85:0.079012346 86:0.30077121 87:0.96261682 88:0.14779874 89:0.50364964 90:0.027842227 91:0.23783784 92:0.17647059 93:0.36723164 94:0.30357143 95:0.31858407 96:0.11330049 97:0.27624309 98:0.22597403 99:0.85714286 100:0.31282051 101:0.94295302 102:0.27483444 103:0.47704082 104:0.57108434 105:0.54731458 106:0.53862661 107:0.065088757 108:0.4057971 109:0.41801386 110:0.47126437 111:0.56368564 112:0.45511482 113:0.2676399 114:0.26775956 115:0.19469027 116:0.44646925 117:0.033412888 118:0.25144509 119:0.34068627 120:0.45892351 121:0.029177719 122:0.1185567 123:0.068292683 124:0.12772586 125:0.13265306 126:0.31491713 127:0.21078431 128:0.037199125 129:0.24784483 130:0.42352941 131:0.30769231 132:0.077419355 133:0.3875502 134:0.4375 135:0.61368653 136:0.83532934 137:0.38242894 138:0.98776758 139:0.34895833 140:0.43610548 141:0.46992481 142:0.34986226 143:0.30188679 144:0.25679758 145:0.0028011204 146:0.0057636888 147:0.098484848 148:0.8 149:0.91666667 150:0.44383562 151:0.28184282 152:0.45878136 153:0.38557994 154:0.76470588 155:0.69281046 156:0.71290323 157:0.038167939 158:0.16666667 159:0.023076923 160:0.5375 161:0.54617414 162:0.31707317 163:0.22516556 164:0.53846154 165:0.66470588 166:0.3485342 
1 1:0.48920863 2:0.67340067 3:0.91967871 4:0.53308824 5:0.036619718 6:0.19791667 7:0.2734375 8:0.68735084 9:0.28647215 10:0.36653386 11:0.61020882 12:0.42145594 13:0.60143198 14:0.55 15:0.59891599 16:0.054380665 17:0.30571429 18:0.52771619 19:0.43366337 20:0.3003876 21:0.44736842 22:0.25748503 23:0.40271493 24:0.020942408 25:0.02247191 26:0.35555556 27:0.64088398 28:0.041800643 29:0.45482866 30:0.024271845 31:0.0032467532 32:0.57534247 33:0.27113703 34:0.095238095 35:0.33159269 36:0.21993127 37:0.007518797 38:0.34453782 39:0.76 40:0.49459459 41:0.91176471 42:0.58238636 43:0.49891068 44:0.63443396 45:0.48157895 46:0.41501104 47:0.82771536 48:0.45038168 49:0.55679287 50:0.36755647 51:0.44972578 52:0.26628895 53:0.2739726 54:0.46853147 55:0.15053763 56:0.32848233 57:0.29824561 58:0.61591695 59:0.4180791 60:0.21990741 61:0.27826087 62:0.6548913 63:0.4301676 64:0.021582734 65:0.54307116 66:0.37055838 67:0.0023364486 68:0.66288952 69:0.67551622 70:0.76944444 71:0.93385214 72:0.625 73:0.59340659 74:0.45111111 75:0.56188119 76:0.057291667 77:0.32762836 78:0.47689076 79:0.43434343 80:0.53488372 81:0.32653061 82:0.23369565 83:0.50687623 84:0.17765043 85:0.12592593 86:0.33161954 87:0.92834891 88:0.21069182 89:0.50364964 90:0.025522042 91:0.059459459 92:0.1657754 93:0.3700565 94:0.36904762 95:0.32743363 96:0.07635468 97:0.25966851 98:0.32987013 99:0.84236453 100:0.23333333 101:0.83557047 102:0.2218543 103:0.6377551 104:0.64096386 105:0.58056266 106:0.32618026 107:0.032544379 108:0.49855072 109:0.45496536 110:0.47126437 111:0.49593496 112:0.45302714 113:0.26520681 114:0.26775956 115:0.13938053 116:0.25512528 117:0.035799523 118:0.38728324 119:0.33578431 120:0.48725212 121:0.026525199 122:0.11597938 123:0.065853659 124:0.14018692 125:0.17687075 126:0.20994475 127:0.3504902 128:0.061269147 129:0.39224138 130:0.41764706 131:0.34615385 132:0.064516129 133:0.44176707 134:0.39204545 135:0.48344371 136:0.68263473 137:0.36434109 138:0.96330275 139:0.35677083 140:0.40365112 141:0.47180451 142:0.38842975 143:0.21563342 144:0.29607251 146:0.0057636888 147:0.098484848 148:0.91940299 149:0.95238095 150:0.60821918 151:0.28184282 152:0.45878136 153:0.38557994 154:0.68627451 155:0.64379085 156:0.74516129 157:0.038167939 158:0.11111111 159:0.023076923 160:0.5625 161:0.59102902 162:0.35230352 163:0.2384106 164:0.54487179 165:0.67058824 166:0.38436482 
1 1:0.41007194 2:0.037037037 3:0.092369478 4:0.52941176 6:0.26302083 7:0.546875 8:0.53937947 9:0.49071618 10:0.33665339 11:0.80278422 12:0.50383142 13:0.6849642 14:1 15:0.87262873 16:0.74924471 17:0.78 18:0.5631929 19:0.59009901 20:0.23837209 21:0.47773279 22:0.49401198 23:0.61312217 25:0.0084269663 26:0.5308642 27:0.71546961 28:0.43086817 29:0.46728972 30:0.11165049 31:0.0032467532 32:0.31506849 33:0.33819242 34:0.50340136 35:0.31070496 36:0.3161512 37:0.015037594 38:0.60504202 39:0.112 40:0.57297297 41:0.088235294 42:0.59943182 43:0.53376906 44:0.99528302 45:0.89473684 46:0.75496689 47:0.19475655 48:0.61323155 49:0.64142539 50:0.25256674 51:0.41681901 52:0.50708215 53:0.60273973 54:0.034965035 55:0.16935484 56:0.41372141 57:0.63909774 58:0.19377163 59:0.44067797 60:0.32407407 61:0.25217391 62:0.0081521739 63:0.5698324 64:0.19184652 65:0.53932584 66:0.27918782 67:0.0023364486 68:0.36543909 69:0.55162242 70:0.38611111 71:0.085603113 72:0.040322581 73:0.71648352 74:0.82 75:0.49504951 76:0.072916667 77:0.60391198 78:0.84033613 79:0.55757576 80:0.2627907 81:0.47619048 82:0.4673913 83:0.44990177 84:0.22922636 85:0.12098765 86:0.54498715 87:0.45794393 88:0.39937107 89:0.51094891 90:0.10904872 92:0.27807487 93:0.35028249 94:0.67857143 95:0.32300885 96:0.45812808 97:0.29834254 98:0.5974026 99:0.0049261084 100:0.57179487 101:0.083892617 102:0.4602649 103:0.75765306 104:0.89638554 105:0.96930946 106:0.53218884 107:0.13017751 108:0.51594203 109:0.46189376 110:0.77298851 111:0.4498645 112:0.49895616 113:0.49148418 114:0.61202186 115:0.11725664 116:0.19362187 117:0.021479714 118:0.73410405 119:0.67647059 120:0.69121813 121:0.026525199 122:0.1314433 123:0.073170732 124:0.41121495 125:0.074829932 126:0.49723757 127:0.59558824 128:0.28008753 129:0.66594828 130:0.40294118 131:0.15384615 132:0.093548387 133:0.51807229 134:0.54166667 135:0.90286976 136:0.38323353 137:0.69250646 138:0.45259939 139:0.68229167 140:0.49087221 141:0.47180451 142:0.52892562 143:0.52021563 144:0.58006042 145:0.0056022409 146:0.014409222 147:0.060606061 148:0.42985075 149:0.44940476 150:0.66575342 151:0.27100271 152:0.44802867 153:0.36990596 154:0.054901961 155:0.57843137 156:0.032258065 157:0.086513995 158:0.74747475 159:0.2 160:0.521875 161:0.73350923 162:0.57723577 163:0.15231788 164:0.57692308 165:0.71470588 166:0.19543974 
1 1:0.41726619 2:0.026936027 3:0.14457831 4:0.52573529 6:0.26302083 7:0.578125 8:0.76610979 9:0.55172414 10:0.187251 11:0.26914153 12:0.57279693 13:0.34367542 14:0.45714286 15:0.40108401 16:0.048338369 17:0.81142857 18:0.55432373 19:0.53861386 20:0.48255814 21:0.51012146 22:0.50598802 23:0.57239819 24:0.081151832 25:0.0084269663 26:0.49382716 27:0.74033149 28:0.23794212 29:0.46728972 30:0.012135922 31:0.0032467532 32:0.2739726 33:0.33819242 34:0.020408163 35:0.31331593 36:0.32302405 37:0.020050125 38:0.54621849 39:0.064 40:0.66486486 41:0.099264706 42:0.58806818 43:0.28540305 44:0.33726415 45:0.63947368 46:0.04415011 47:0.29588015 48:0.51653944 49:0.70155902 50:0.21355236 51:0.47714808 52:0.51558074 53:0.51780822 54:0.69463869 55:0.16666667 56:0.50519751 57:0.66917293 58:0.14186851 59:0.44350282 60:0.125 61:0.24347826 62:0.0054347826 63:0.5698324 64:0.014388489 65:0.54681648 66:0.28426396 67:0.0023364486 68:0.39376771 69:0.57227139 70:0.49722222 71:0.11284047 72:0.036290323 73:0.32307692 74:0.63333333 75:0.32425743 76:0.041666667 77:0.61613692 78:0.38445378 79:0.57979798 80:0.90465116 81:0.58276644 82:0.50815217 83:0.48526523 84:0.21489971 85:0.054320988 86:0.52956298 87:0.46105919 88:0.69496855 89:0.50729927 90:0.025522042 92:0.25668449 93:0.34745763 94:0.083333333 95:0.33628319 96:0.4729064 97:0.30939227 98:0.53766234 99:0.0049261084 100:0.63333333 101:0.070469799 102:0.45033113 103:0.33673469 104:0.31084337 105:0.36828645 106:0.35622318 107:0.13313609 108:0.5884058 109:0.53810624 110:0.75287356 111:0.96747967 112:0.565762 113:0.6107056 114:0.59562842 115:0.15707965 116:0.49430524 117:0.021479714 118:0.63294798 119:0.66666667 120:0.6572238 121:0.015915119 122:0.1314433 123:0.073170732 124:0.39252336 125:0.051020408 126:0.48618785 127:0.17647059 128:0.0087527352 129:0.15301724 130:0.40882353 131:0.17521368 132:0.12258065 133:0.45582329 134:0.51704545 135:0.52538631 136:0.30239521 137:0.63049096 138:0.40978593 139:0.53385417 140:0.48681542 141:0.42857143 142:0.60055096 143:0.59299191 144:0.56495468 145:0.016806723 146:0.048991354 147:0.66666667 148:0.52238806 149:0.50297619 150:0.7260274 151:0.27371274 152:0.4516129 153:0.36990596 154:0.043137255 155:0.55882353 156:0.025806452 157:0.043256997 158:0.012626263 159:0.017948718 160:0.515625 161:0.73614776 162:0.57181572 163:0.14900662 164:0.57692308 165:0.71764706 166:0.20521173 
1 1:0.17985612 2:0.0067340067 3:0.032128514 4:0.5625 6:0.098958333 7:0.53645833 8:0.63484487 9:0.55172414 10:0.36653386 11:0.63109049 12:0.65708812 13:0.61097852 14:0.55952381 15:0.57452575 16:0.060422961 17:0.73428571 18:0.51884701 19:0.66732673 20:0.31782946 21:0.68421053 22:0.49700599 23:0.71040724 24:0.031413613 25:0.042134831 26:0.6 27:0.52762431 28:0.33440514 29:0.24299065 30:0.036407767 31:0.0032467532 32:0.034246575 33:0.62682216 34:0.12018141 35:0.39686684 36:0.14089347 38:0.53221289 39:0.012 40:0.39189189 41:0.033088235 42:0.14204545 43:0.50326797 44:0.63915094 45:0.57894737 46:0.46136865 47:0.16104869 48:0.55470738 49:0.66146993 50:0.35523614 51:0.6654479 52:0.52124646 53:0.53424658 54:0.5011655 55:0.086021505 56:0.50519751 57:0.54887218 58:0.11418685 59:0.28813559 60:0.23148148 61:0.060869565 62:0.0027173913 63:0.62011173 64:0.03117506 65:0.58052434 66:0.16243655 67:0.0046728972 68:0.24929178 69:0.005899705 70:0.21944444 71:0.027237354 72:0.012096774 73:0.60659341 74:0.58888889 75:0.5519802 76:0.0625 77:0.62102689 78:0.49159664 79:0.6989899 80:0.56744186 81:0.54875283 82:0.47554348 83:0.74656189 84:0.091690544 85:0.1308642 86:0.58354756 87:0.23676012 88:0.50314465 89:0.31386861 90:0.034802784 92:0.26737968 93:0.38135593 94:0.40277778 95:0.5840708 96:0.014778325 97:0.082872928 98:0.58441558 99:0.014778325 100:0.46666667 101:0.023489933 102:0.36092715 103:0.63265306 104:0.64096386 105:0.56265985 106:0.32403433 107:0.062130178 108:0.56811594 109:0.4295612 110:0.54885057 111:0.50135501 112:0.70772443 113:0.52554745 114:0.5136612 115:0.14159292 116:0.34396355 117:0.047732697 118:0.7716763 119:0.62990196 120:0.52407932 121:0.039787798 122:0.048969072 123:0.051219512 124:0.71962617 125:0.0068027211 126:0.21546961 127:0.375 128:0.078774617 129:0.41810345 130:0.46470588 131:0.83760684 132:0.66774194 133:0.59437751 134:0.58712121 135:0.51214128 136:0.29041916 137:0.625323 138:0.31192661 139:0.66145833 140:0.70993915 141:0.71616541 142:0.4077135 143:0.46091644 144:0.56495468 145:0.0028011204 146:0.0086455331 147:0.098484848 148:0.24477612 149:0.25892857 150:0.46849315 151:0.42547425 152:0.35842294 153:0.26332288 154:0.011764706 155:0.30392157 156:0.0064516129 157:0.03307888 158:0.15151515 159:0.028205128 160:0.034375 161:0.12137203 162:0.39837398 163:0.56953642 164:0.60897436 165:0.30294118 166:0.4495114 
