svm_type c_svc
kernel_type polynomial
degree 0
gamma 1
coef0 0
nr_class 2
total_sv 94
rho -1
label 0 1
probA -0.00893569
probB -2.20152
nr_sv 47 47
SV
1 1:0.34532374 2:0.18518519 3:0.076305221 4:0.53308824 6:0.24739583 7:0.56770833 8:0.54653938 9:0.51193634 10:0.097609562 11:0.33642691 12:0.50383142 13:0.24343675 14:0.35 15:0.27371274 16:0.042296073 17:0.77714286 18:0.49002217 19:0.5960396 20:0.22674419 21:0.4757085 22:0.49401198 23:0.61312217 24:0.010471204 25:0.011235955 26:0.52592593 27:0.67679558 28:0.38263666 29:0.46728972 30:0.0097087379 31:0.0032467532 32:0.8869863 33:0.23906706 34:0.011337868 35:0.31331593 36:0.24742268 37:0.012531328 38:0.62184874 39:0.008 40:0.53783784 41:0.125 42:0.73011364 43:0.1546841 44:0.38915094 45:0.49473684 46:0.081677704 47:0.19850187 48:0.58524173 49:0.58351893 50:0.14784394 51:0.41499086 52:0.5184136 53:0.55890411 54:0.032634033 55:0.16935484 56:0.44490644 57:0.63157895 58:0.16608997 59:0.43785311 60:0.078703704 61:0.25797101 62:0.67663043 63:0.32402235 64:0.011990408 65:0.53932584 66:0.30456853 67:0.0023364486 68:0.37110482 69:0.0029498525 70:0.34444444 71:0.062256809 72:0.10887097 73:0.2989011 74:0.42222222 75:0.20792079 76:0.046875 77:0.58924205 78:0.30462185 79:0.58989899 80:0.29069767 81:0.50793651 82:0.48369565 83:0.49115914 84:0.23495702 85:0.02962963 86:0.57069409 87:0.41121495 88:0.31761006 89:0.51094891 90:0.020881671 91:0.045945946 92:0.62566845 93:0.35310734 94:0.077380952 95:0.4159292 96:0.064039409 97:0.29005525 98:0.59480519 99:0.014778325 100:0.56410256 101:0.23154362 102:0.56953642 103:0.29081633 104:0.35180723 105:0.32992327 106:0.08583691 107:0.032544379 108:0.56811594 109:0.18937644 110:0.5545977 111:0.39295393 112:0.565762 113:0.58394161 114:0.6147541 115:0.10619469 116:0.22779043 117:0.026252983 118:0.75722543 119:0.67892157 120:0.65155807 121:0.015915119 122:0.1314433 123:0.068292683 124:0.17133956 125:0.68367347 126:0.21546961 127:0.10784314 128:0.0021881838 129:0.090517241 130:0.40294118 131:0.55128205 132:0.093548387 133:0.47991968 134:0.40151515 135:0.37969095 136:0.41616766 137:0.7002584 138:0.4617737 139:0.58333333 140:0.45030426 141:0.47368421 142:0.52066116 143:0.52021563 144:0.58308157 145:0.0056022409 146:0.014409222 147:0.090909091 148:0.3641791 149:0.39285714 150:0.62739726 151:0.27371274 152:0.44802867 153:0.37304075 154:0.4745098 155:0.87908497 156:0.71612903 157:0.038167939 158:0.012626263 159:0.015384615 160:0.48125 161:0.47493404 162:0.53387534 163:0.25827815 164:0.66666667 165:0.77058824 166:0.4723127 
1 1:0.37410072 2:0.31986532 3:0.58634538 4:0.15441176 6:0.68489583 7:0.010416667 8:0.30071599 9:0.018567639 10:0.53187251 11:0.32714617 12:0.20114943 13:0.52983294 14:0.37380952 15:0.4200542 16:0.054380665 17:0.022857143 18:0.14634146 19:0.30693069 20:0.46124031 21:0.058704453 22:0.011976048 23:0.056561086 24:0.71465969 25:0.49719101 26:0.022222222 27:0.1160221 28:0.012861736 29:0.34267913 30:0.60194175 31:0.0032467532 32:0.15068493 33:0.303207 34:0.54648526 35:0.0026109661 36:0.49484536 37:0.030075188 38:0.1092437 39:0.468 40:0.14594595 41:0.51838235 42:0.35795455 43:0.52069717 44:0.39386792 45:0.27894737 46:0.094922737 47:0.02247191 48:0.063613232 49:0.38530067 50:0.50924025 51:0.095063985 52:0.014164306 53:0.0082191781 54:0.060606061 55:0.53494624 56:0.097713098 57:0.010025063 58:0.076124567 59:0.60169492 60:0.58333333 61:0.011594203 62:0.17663043 63:0.53072626 64:0.74100719 65:0.1423221 66:0.37055838 67:0.0023364486 68:0.44475921 69:0.48377581 70:0.43611111 71:0.54863813 72:0.46774194 73:0.38021978 74:0.28222222 75:0.50495049 76:0.072916667 77:0.024449878 78:0.35504202 79:0.25656566 80:0.38837209 81:0.020408163 82:0.010869565 83:0.11394892 84:0.55873925 85:0.62962963 86:0.0077120823 87:0.39563863 88:0.018867925 89:0.12773723 90:0.70069606 91:0.018918919 92:0.20320856 93:0.04519774 94:0.42460317 95:0.20353982 96:0.65024631 97:0.50276243 98:0.018181818 99:0.63546798 100:0.0076923077 101:0.46308725 102:0.37086093 103:0.36989796 104:0.32048193 105:0.31969309 106:0.10300429 107:0.020710059 108:0.023188406 109:0.55889146 110:0.28448276 111:0.37398374 112:0.056367432 113:0.00243309 114:0.0054644809 115:0.64823009 116:0.50569476 117:0.61575179 118:0.0028901734 119:0.014705882 120:0.036827195 121:0.5596817 122:0.54123711 123:0.64634146 124:0.52647975 125:0.034013605 126:0.54696133 127:0.62745098 128:0.61269147 129:0.57112069 131:0.025641026 132:0.10967742 133:0.096385542 134:0.15530303 135:0.36203091 136:0.50598802 137:0.067183463 138:0.4617737 139:0.044270833 140:0.18052738 141:0.15225564 142:0.13498623 143:0.0080862534 144:0.0090634441 145:0.0028011204 146:0.014409222 147:0.083333333 148:0.50447761 149:0.48809524 150:0.15342466 151:0.070460705 152:0.010752688 153:0.0062695925 154:0.44705882 155:0.25490196 156:0.35806452 157:0.040712468 158:0.04040404 159:0.69487179 160:0.371875 161:0.70976253 162:0.53658537 163:0.18543046 164:0.60897436 165:0.7 166:0.11400651 
1 1:0.35251799 3:0.0040160643 4:0.47058824 6:0.46354167 7:0.026041667 8:0.033412888 9:0.018567639 10:0.35657371 11:0.016241299 12:0.017241379 13:0.14081146 14:0.045238095 15:0.032520325 16:0.048338369 17:0.025714286 18:0.015521064 19:0.025742574 20:0.13178295 21:0.0060728745 22:0.023952096 23:0.0022624434 24:0.2486911 25:0.41573034 26:0.019753086 27:0.0082872928 28:0.022508039 29:0.51713396 30:0.59466019 31:0.0032467532 32:0.82876712 33:0.29154519 34:0.72335601 35:0.24020888 36:0.21993127 37:0.025062657 38:0.011204482 39:0.004 40:0.0081081081 41:0.014705882 42:0.74147727 43:0.19607843 44:0.037735849 45:0.042105263 46:0.017660044 47:0.014981273 48:0.010178117 49:0.035634744 50:0.31416838 51:0.0091407678 52:0.02266289 53:0.019178082 54:0.025641026 55:0.62903226 56:0.01039501 57:0.015037594 59:0.54519774 60:0.6087963 61:0.07826087 62:0.57336957 63:0.41340782 64:0.64268585 65:0.56928839 66:0.29949239 67:0.0023364486 68:0.0028328612 69:0.0029498525 70:0.0055555556 71:0.011673152 72:0.10887097 73:0.065934066 74:0.035555556 75:0.034653465 76:0.057291667 77:0.024449878 78:0.021008403 79:0.018181818 80:0.034883721 81:0.0045351474 82:0.024456522 83:0.0039292731 84:0.66762178 85:0.52839506 86:0.020565553 87:0.0031152648 88:0.018867925 89:0.4379562 90:0.55452436 91:0.010810811 92:0.5828877 93:0.39265537 94:0.39880952 95:0.45575221 96:0.073891626 97:0.45856354 98:0.028571429 100:0.01025641 101:0.0067114094 102:0.5794702 103:0.030612245 104:0.03373494 105:0.030690537 106:0.017167382 107:0.014792899 108:0.011594203 109:0.016166282 110:0.031609195 111:0.032520325 112:0.0020876827 113:0.00243309 114:0.010928962 115:0.60176991 116:0.69248292 117:0.45107399 118:0.014450867 119:0.029411765 120:0.011331445 121:0.48806366 122:0.65206186 123:0.53414634 124:0.12149533 125:0.54081633 126:0.15469613 127:0.69607843 128:0.66739606 129:0.57112069 130:0.44411765 131:0.55555556 132:0.038709677 133:0.010040161 134:0.015151515 135:0.026490066 136:0.002994012 137:0.018087855 138:0.003058104 139:0.0078125 140:0.012170385 141:0.007518797 142:0.0082644628 143:0.021563342 144:0.027190332 145:0.0056022409 146:0.017291066 147:0.090909091 148:0.0059701493 149:0.0029761905 150:0.0082191781 151:0.24390244 152:0.32258065 153:0.26645768 154:0.40784314 155:0.85947712 156:0.63870968 157:0.038167939 158:0.68181818 159:0.61538462 160:0.55 161:0.57255937 162:0.57181572 163:0.21523179 164:0.66025641 165:0.79411765 166:0.42019544 
1 1:0.38129496 2:0.13804714 3:0.41365462 4:0.018382353 6:0.010416667 7:0.46614583 8:0.22673031 9:0.56233422 10:0.0099601594 11:0.023201856 12:0.15708812 13:0.019093079 14:0.083333333 15:0.037940379 16:0.060422961 17:0.73142857 18:0.26385809 19:0.21980198 21:0.34210526 22:0.48502994 23:0.52941176 25:0.025280899 26:0.63950617 27:0.6519337 28:0.051446945 30:0.029126214 31:0.0064935065 32:0.17123288 33:0.33819242 34:0.015873016 35:0.0052219321 36:0.44329897 38:0.68627451 39:0.392 40:0.62702703 41:0.51470588 42:0.47159091 43:0.015250545 44:0.061320755 45:0.065789474 46:0.022075055 47:0.21348315 48:0.58778626 49:0.27839644 51:0.2285192 52:0.49008499 53:0.60547945 54:0.0093240093 55:0.0080645161 56:0.55301455 57:0.42105263 58:0.11764706 59:0.0056497175 60:0.027777778 61:0.0057971014 62:0.12228261 63:0.56424581 64:0.028776978 65:0.0037453184 66:0.35025381 67:0.0023364486 68:0.60906516 69:0.51917404 70:0.56111111 71:0.44357977 72:0.41532258 73:0.030769231 74:0.11111111 75:0.01980198 76:0.067708333 77:0.62347188 78:0.075630252 79:0.19191919 80:0.01627907 81:0.430839 82:0.46195652 83:0.36935167 84:0.0028653295 85:0.017283951 86:0.56041131 87:0.55140187 88:0.31132075 89:0.0072992701 90:0.032482599 92:0.24064171 93:0.042372881 94:0.013888889 95:0.30973451 96:0.57635468 97:0.0027624309 98:0.47532468 99:0.408867 100:0.42820513 101:0.5033557 102:0.45033113 103:0.033163265 104:0.045783133 105:0.038363171 106:0.10944206 107:0.29881657 108:0.73333333 109:0.013856813 110:0.048850575 111:0.029810298 112:0.42379958 113:0.44525547 114:0.55464481 115:0.0022123894 117:0.026252983 118:0.58381503 119:0.47058824 120:0.62606232 121:0.034482759 122:0.0077319588 123:0.017073171 124:0.4953271 125:0.040816327 126:0.49171271 127:0.0098039216 128:0.01750547 129:0.010775862 131:0.038461538 132:0.038709677 133:0.29718876 134:0.14962121 135:0.15452539 136:0.53592814 137:0.53488372 138:0.55351682 139:0.65625 140:0.51724138 141:0.40977444 142:0.6969697 143:0.45013477 144:0.46827795 145:0.0056022409 146:0.014409222 147:0.075757576 148:0.55223881 149:0.55059524 150:0.59726027 151:0.10298103 154:0.48627451 155:0.43464052 156:0.40967742 157:0.048346056 158:0.027777778 159:0.033333333 160:0.384375 161:0.73614776 162:0.5799458 163:0.14569536 164:0.61538462 165:0.73823529 166:0.15309446 
1 1:0.36690647 2:0.0033670034 3:0.0040160643 4:0.018382353 6:0.1171875 7:0.033854167 8:0.67541766 9:0.042440318 10:0.46015936 11:0.47099768 12:0.49042146 13:0.52267303 14:0.65714286 15:0.47425474 16:0.057401813 17:0.031428571 18:0.58980044 19:0.41386139 20:0.38953488 21:0.33603239 22:0.02994012 23:0.10180995 24:0.031413613 25:0.23033708 26:0.04691358 27:0.016574586 28:0.025723473 29:0.07165109 30:0.34223301 31:0.0032467532 32:0.70890411 33:0.28279883 34:0.25623583 35:0.065274151 36:0.2233677 38:0.016806723 39:0.024 40:0.013513514 41:0.014705882 42:0.72159091 43:0.48583878 44:0.59669811 45:0.62368421 46:0.29580574 47:0.014981273 48:0.27226463 49:0.54342984 50:0.5174538 51:0.42230347 52:0.028328612 53:0.021917808 54:0.48018648 55:0.091397849 56:0.16839917 57:0.022556391 59:0.14971751 60:0.38888889 61:0.0028985507 62:0.11684783 63:0.51955307 64:0.25179856 65:0.014981273 66:0.2893401 67:0.0023364486 68:0.0084985836 69:0.029498525 70:0.0083333333 71:0.011673152 72:0.088709677 73:0.47692308 74:0.62666667 75:0.44554455 76:0.052083333 77:0.029339853 78:0.56512605 79:0.46464646 80:0.55348837 81:0.14512472 82:0.032608696 83:0.33005894 84:0.048710602 85:0.32098765 86:0.025706941 87:0.0062305296 88:0.13522013 89:0.01459854 90:0.35266821 92:0.49197861 93:0.019774011 94:0.45436508 95:0.46460177 96:0.07635468 97:0.019337017 98:0.036363636 99:0.0049261084 100:0.017948718 101:0.0067114094 102:0.56622517 103:0.42091837 104:0.47710843 105:0.57289003 106:0.43776824 107:0.038461538 108:0.1826087 109:0.33487298 110:0.56034483 111:0.50406504 112:0.18580376 113:0.060827251 114:0.027322404 115:0.38274336 116:0.38724374 117:0.30071599 118:0.020231214 119:0.034313725 120:0.016997167 121:0.31830239 122:0.16237113 123:0.2902439 124:0.046728972 125:0.14285714 126:0.19337017 127:0.49019608 128:0.33041575 129:0.50646552 130:0.0029411765 131:0.47435897 132:0.0064516129 133:0.46787149 134:0.53598485 135:0.67549669 136:0.005988024 137:0.023255814 138:0.006116208 139:0.049479167 140:0.17444219 141:0.23496241 142:0.016528926 143:0.029649596 144:0.036253776 145:0.0028011204 146:0.014409222 147:0.090909091 148:0.0059701493 149:0.0089285714 150:0.01369863 151:0.16260163 152:0.0071684588 153:0.0031347962 154:0.18431373 155:0.79411765 156:0.30322581 157:0.040712468 158:0.058080808 159:0.020512821 160:0.578125 161:0.66490765 162:0.59891599 163:0.13907285 164:0.65384615 165:0.80294118 166:0.31921824 
1 1:0.36690647 2:0.0033670034 3:0.012048193 4:0.011029412 6:0.013020833 7:0.26302083 8:0.68257757 9:0.27851459 10:0.37051793 11:0.62180974 12:0.42145594 13:0.61336516 14:0.55238095 15:0.60162602 16:0.057401813 17:0.25714286 18:0.52993348 19:0.43564356 20:0.30426357 21:0.44534413 22:0.24550898 23:0.39366516 24:0.018324607 25:0.033707865 26:0.34814815 27:0.13259669 28:0.022508039 30:0.033980583 31:0.0032467532 32:0.70547945 33:0.27988338 34:0.10430839 35:0.065274151 36:0.21649485 38:0.22128852 39:0.024 40:0.089189189 41:0.018382353 42:0.72159091 43:0.50762527 44:0.64150943 45:0.47894737 46:0.42825607 47:0.014981273 48:0.44529262 49:0.55679287 50:0.36960986 51:0.44972578 52:0.25495751 53:0.26575342 54:0.46386946 55:0.016129032 56:0.32016632 57:0.22305764 58:0.0034602076 59:0.0084745763 60:0.22685185 61:0.0028985507 62:0.125 63:0.51955307 64:0.028776978 65:0.011235955 66:0.2893401 67:0.0023364486 68:0.090651558 69:0.032448378 70:0.058333333 71:0.019455253 72:0.092741935 73:0.6043956 74:0.45111111 75:0.56930693 76:0.0625 77:0.32273839 78:0.48319328 79:0.43434343 80:0.54651163 81:0.32199546 82:0.22554348 83:0.50294695 84:0.0085959885 85:0.1308642 86:0.32133676 87:0.037383178 88:0.1918239 89:0.003649635 90:0.030162413 92:0.48128342 93:0.02259887 94:0.38095238 95:0.46017699 96:0.071428571 97:0.0055248619 98:0.31688312 99:0.0098522167 100:0.15897436 101:0.010067114 102:0.56291391 103:0.64540816 104:0.65060241 105:0.5831202 106:0.33476395 107:0.038461538 108:0.49565217 109:0.45496536 110:0.47413793 111:0.50677507 112:0.44885177 113:0.25790754 114:0.25956284 115:0.13716814 116:0.2642369 117:0.038186158 118:0.38150289 119:0.31862745 120:0.087818697 121:0.037135279 122:0.015463918 123:0.019512195 124:0.046728972 125:0.1462585 126:0.20441989 127:0.36029412 128:0.067833698 129:0.40086207 130:0.0029411765 131:0.46581197 132:0.0064516129 133:0.44176707 134:0.39393939 135:0.48565121 136:0.11976048 137:0.3126615 138:0.073394495 139:0.34895833 140:0.39553753 141:0.46992481 142:0.11019284 143:0.18867925 144:0.27794562 145:0.0028011204 146:0.011527378 147:0.090909091 148:0.07761194 149:0.06547619 150:0.11780822 151:0.1598916 152:0.0071684588 153:0.0031347962 154:0.19607843 155:0.79411765 156:0.37741935 157:0.038167939 158:0.11616162 159:0.028205128 160:0.584375 161:0.66226913 162:0.59620596 163:0.13907285 164:0.65384615 165:0.79705882 166:0.31921824 
1 1:0.36690647 2:0.0067340067 3:0.084337349 4:0.011029412 6:0.013020833 7:0.6171875 8:0.44868735 9:0.56498674 10:0.061752988 11:0.31322506 12:0.42720307 13:0.16706444 14:0.36666667 15:0.24932249 16:0.051359517 17:0.69428571 18:0.38580931 19:0.38415842 20:0.1996124 21:0.45546559 22:0.53293413 23:0.41628959 24:0.0078534031 25:0.033707865 26:0.51111111 27:0.63259669 28:0.10289389 30:0.026699029 31:0.0032467532 32:0.71232877 33:0.27113703 34:0.013605442 35:0.067885117 36:0.21993127 38:0.44817927 39:0.024 40:0.58648649 41:0.047794118 42:0.72443182 43:0.10675381 44:0.39858491 45:0.31052632 46:0.08388521 47:0.19101124 48:0.62086514 49:0.40979955 50:0.084188912 51:0.45703839 52:0.48725212 53:0.49589041 54:0.025641026 55:0.01344086 56:0.45738046 57:0.63909774 58:0.079584775 59:0.0084745763 60:0.0625 61:0.0028985507 62:0.13315217 63:0.51396648 64:0.028776978 65:0.011235955 66:0.2893401 67:0.0023364486 68:0.28611898 69:0.029498525 70:0.36111111 71:0.058365759 72:0.092741935 73:0.24615385 74:0.37111111 75:0.15346535 76:0.057291667 77:0.61124694 78:0.33403361 79:0.44040404 80:0.32325581 81:0.45351474 82:0.57336957 83:0.50294695 84:0.0085959885 85:0.022222222 86:0.59383033 87:0.26791277 88:0.16037736 89:0.003649635 90:0.030162413 92:0.48663102 93:0.019774011 94:0.055555556 95:0.46460177 96:0.071428571 97:0.0055248619 98:0.46493506 99:0.0098522167 100:0.61025641 101:0.026845638 102:0.56291391 103:0.23979592 104:0.33012048 105:0.30946292 106:0.24248927 107:0.33431953 108:0.76231884 109:0.18244804 110:0.29022989 111:0.26558266 112:0.44258873 113:0.38199513 114:0.41256831 115:0.077433628 116:0.14578588 117:0.038186158 118:0.64450867 119:0.6495098 120:0.5325779 121:0.037135279 122:0.012886598 123:0.019512195 124:0.040498442 125:0.15306122 126:0.1878453 127:0.075980392 128:0.013129103 129:0.064655172 130:0.0029411765 131:0.47435897 132:0.0064516129 133:0.42369478 134:0.36931818 135:0.3598234 136:0.17664671 137:0.43152455 138:0.20183486 139:0.44791667 140:0.43002028 141:0.46428571 142:0.5399449 143:0.59568733 144:0.56797583 145:0.0028011204 146:0.011527378 147:0.098484848 148:0.3641791 149:0.33333333 150:0.63287671 151:0.1598916 152:0.0071684588 153:0.0031347962 154:0.2 155:0.79738562 156:0.39677419 157:0.03562341 158:0.02020202 159:0.028205128 160:0.584375 161:0.65963061 162:0.59620596 163:0.14238411 164:0.65384615 165:0.8 166:0.3257329 
1 1:0.35971223 2:0.0033670034 3:0.0040160643 4:0.12867647 6:0.3125 7:0.03125 8:0.30310263 9:0.023872679 10:0.47808765 11:0.33178654 12:0.10344828 13:0.37470167 14:0.35 15:0.2601626 16:0.045317221 17:0.031428571 18:0.079822616 19:0.27722772 20:0.38372093 21:0.034412955 22:0.02994012 23:0.031674208 24:0.53141361 25:0.55898876 26:0.022222222 27:0.016574586 28:0.025723473 29:0.13084112 30:0.58495146 31:0.0032467532 32:0.69863014 33:0.27988338 34:0.71882086 35:0.067885117 36:0.22680412 37:0.015037594 38:0.016806723 39:0.024 40:0.013513514 41:0.014705882 42:0.71875 43:0.47494553 44:0.39858491 45:0.25789474 46:0.10154525 47:0.014981273 48:0.038167939 49:0.37861915 50:0.5174538 51:0.0511883 52:0.028328612 53:0.021917808 54:0.058275058 55:0.59139785 56:0.066528067 57:0.020050125 58:0.0034602076 59:0.22033898 60:0.625 61:0.0028985507 62:0.10869565 63:0.51396648 64:0.61390887 65:0.026217228 66:0.2893401 67:0.0023364486 68:0.0056657224 69:0.032448378 70:0.0083333333 71:0.011673152 72:0.084677419 73:0.32747253 74:0.21777778 75:0.44306931 76:0.052083333 77:0.026894866 78:0.31722689 79:0.18585859 80:0.27209302 81:0.0090702948 82:0.032608696 83:0.058939096 84:0.46991404 85:0.46666667 86:0.025706941 87:0.0062305296 88:0.022012579 89:0.13138686 90:0.52436195 92:0.48128342 93:0.019774011 94:0.44444444 95:0.46460177 96:0.091133005 97:0.1519337 98:0.036363636 99:0.0049261084 100:0.017948718 101:0.0067114094 102:0.56291391 103:0.33418367 104:0.34216867 105:0.30946292 106:0.053648069 107:0.014792899 108:0.014492754 109:0.24249423 110:0.26724138 111:0.28184282 112:0.029227557 113:0.00486618 114:0.013661202 115:0.45353982 116:0.51936219 117:0.63961814 118:0.01734104 119:0.031862745 120:0.016997167 121:0.49602122 122:0.44329897 123:0.39756098 124:0.043613707 125:0.12585034 126:0.1878453 127:0.71813725 128:0.66083151 129:0.59913793 130:0.0029411765 131:0.47435897 132:0.0064516129 133:0.064257028 134:0.089015152 135:0.2781457 136:0.005988024 137:0.023255814 138:0.006116208 139:0.026041667 140:0.11561866 141:0.086466165 142:0.013774105 143:0.029649596 144:0.036253776 145:0.0028011204 146:0.014409222 147:0.090909091 148:0.0059701493 149:0.0089285714 150:0.01369863 151:0.16260163 152:0.0071684588 153:0.0031347962 154:0.17647059 155:0.7875817 156:0.2483871 157:0.038167939 158:0.68434343 159:0.57179487 160:0.578125 161:0.66754617 162:0.59891599 163:0.14238411 164:0.65384615 165:0.80294118 166:0.32247557 
1 1:1 2:0.013468013 3:0.076305221 4:0.018382353 5:0.97746479 6:0.0026041667 7:0.5625 8:0.5202864 9:0.52519894 10:0.312749 11:0.67053364 12:0.55938697 13:0.57279236 14:0.56428571 15:0.49593496 16:0.17220544 17:0.76571429 18:0.50776053 19:0.56435644 20:0.44767442 21:0.49797571 22:0.49101796 23:0.57918552 24:0.020942408 25:0.014044944 26:0.54320988 27:0.64364641 28:0.37299035 30:0.029126214 31:0.0064935065 32:0.13013699 33:0.34402332 34:0.14058957 35:0.023498695 36:0.79381443 38:0.64145658 39:0.14 40:0.51351351 41:0.055147059 42:0.65625 43:0.44008715 44:0.66273585 45:0.59473684 46:0.56291391 47:0.2659176 48:0.58778626 49:0.53229399 50:0.3798768 51:0.45338208 52:0.52124646 53:0.53972603 54:0.41958042 56:0.45114345 57:0.61403509 58:0.14532872 59:0.0028248588 60:0.19675926 61:0.0028985507 63:0.5698324 64:0.019184652 65:0.0074906367 66:0.98984772 67:0.0023364486 68:0.41076487 69:0.96755162 70:0.33888889 71:0.050583658 72:0.080645161 73:0.6043956 74:0.56666667 75:0.47277228 76:0.057291667 77:0.56479218 78:0.57773109 79:0.6040404 80:0.59069767 81:0.57142857 82:0.48369565 83:0.49705305 85:0.11358025 86:0.57583548 87:0.3364486 88:0.3427673 89:0.010948905 90:0.023201856 92:1 93:0.036723164 94:0.43452381 95:0.38053097 96:0.66256158 98:0.58701299 99:0.019704434 100:0.54358974 101:0.05033557 102:1 103:0.57142857 104:0.62168675 105:0.53196931 106:0.44635193 107:0.088757396 108:0.62608696 109:0.41570439 110:0.58333333 111:0.51761518 112:0.565762 113:0.60583942 114:0.59836066 115:0.26548673 116:0.53986333 117:0.023866348 118:0.76011561 119:0.66911765 120:0.6203966 121:0.023872679 123:0.0073170732 124:0.42056075 125:0.034013605 126:0.42541436 127:0.33088235 128:0.089715536 129:0.41163793 131:0.1965812 132:0.080645161 133:0.46385542 134:0.44507576 135:0.50993377 136:0.46706587 137:0.71059432 138:0.55351682 139:0.5234375 140:0.44421907 141:0.44172932 142:0.52341598 143:0.51212938 144:0.58006042 145:0.0056022409 146:0.017291066 147:0.075757576 148:0.33134328 149:0.3452381 150:0.59452055 151:0.13279133 154:0.098039216 155:0.81372549 156:0.029032258 157:0.045801527 158:0.25757576 159:0.023076923 160:0.515625 161:1 162:1 163:0.11589404 164:0.62820513 165:0.76470588 166:0.20521173 
1 1:0.37410072 3:0.0080321285 4:0.14338235 5:1 6:0.69791667 7:0.018229167 8:0.67303103 9:0.026525199 10:0.55378486 11:0.52900232 12:0.42720307 13:0.51789976 14:0.63333333 15:0.54471545 16:0.13595166 17:0.022857143 18:0.59866962 19:0.52277228 20:0.45348837 21:0.25708502 22:0.01497006 23:0.2239819 24:0.70942408 25:0.48876404 26:0.16296296 28:0.019292605 29:0.37383178 30:0.58737864 31:0.0032467532 32:0.65753425 33:0.3148688 34:0.53514739 36:0.57731959 37:0.032581454 38:0.0028011204 39:0.136 41:0.014705882 42:1 43:0.51198257 44:0.62971698 45:0.53157895 46:0.41501104 47:0.029962547 48:0.23918575 49:0.66146993 50:0.51540041 51:0.35283364 52:0.014164306 53:0.063013699 54:0.22843823 55:0.52688172 56:0.46985447 57:0.007518797 59:0.61864407 60:0.61111111 61:0.0086956522 62:0.035326087 63:0.53631285 64:0.73621103 65:0.15730337 66:0.41624365 67:0.030373832 69:0.92330383 71:0.011673152 72:0.79032258 73:0.47472527 74:0.55777778 75:0.55445545 76:0.057291667 77:0.024449878 78:0.6197479 79:0.46666667 80:0.43023256 81:0.10430839 82:0.016304348 83:0.36738703 84:0.54154728 85:0.64691358 86:0.035989717 88:0.20440252 89:0.13138686 90:0.69837587 92:0.40106952 93:0.042372881 94:0.45634921 95:0.23893805 96:0.62561576 97:0.53038674 98:0.020779221 99:0.0049261084 101:0.0067114094 102:0.62913907 103:0.48979592 104:0.51084337 105:0.53964194 106:0.55793991 107:0.082840237 108:0.23768116 109:0.57274827 110:0.50287356 111:0.51761518 112:0.2045929 113:0.04379562 114:0.051912568 115:0.62831858 116:0.51936219 117:0.61097852 118:0.057803468 119:0.022058824 120:0.0028328612 121:0.5464191 122:0.54896907 123:0.64878049 124:0.51401869 125:0.054421769 126:0.52486188 127:0.63235294 128:0.595186 129:0.57543103 132:0.087096774 133:0.40562249 134:0.47348485 135:0.66445916 136:0.002994012 137:0.012919897 139:0.22916667 140:0.5030426 141:0.41541353 143:0.010781671 144:0.01510574 145:0.0056022409 146:0.017291066 147:0.090909091 149:0.0029761905 151:0.081300813 152:0.014336918 153:0.0031347962 154:0.91764706 155:0.99346405 156:0.76129032 157:0.038167939 158:0.23737374 159:0.69487179 160:1 161:0.82585752 162:0.70460705 163:0.16887417 164:0.61538462 165:0.71176471 166:0.13029316 
1 1:0.48920863 2:0.97643098 3:0.25702811 4:0.011029412 6:0.0026041667 7:0.55729167 8:0.57995227 9:0.53846154 10:0.43426295 11:0.63109049 12:0.5651341 13:0.65871122 14:0.5047619 15:0.54471545 16:0.051359517 17:0.78857143 18:0.56097561 19:0.55643564 20:0.35658915 21:0.451417 22:0.49401198 23:0.61538462 24:0.036649215 25:0.016853933 26:0.4691358 27:0.75690608 28:0.17684887 30:0.04368932 31:0.4512987 32:0.94178082 33:0.0029154519 34:0.15646258 35:0.08616188 36:0.27491409 38:0.54061625 39:0.196 40:0.67837838 41:0.34926471 42:0.99431818 43:0.5620915 44:0.59433962 45:0.59736842 46:0.46136865 47:0.25468165 48:0.50890585 49:0.50556793 50:0.41067762 51:0.44424132 52:0.51274788 53:0.56986301 54:0.53379953 55:0.002688172 56:0.51767152 57:0.66666667 58:0.64013841 59:0.0028248588 60:0.29398148 62:0.93206522 63:0.17877095 64:0.016786571 65:0.018726592 66:0.27918782 67:0.0046728972 68:0.42776204 69:0.017699115 70:0.53055556 71:0.29182879 72:0.75403226 73:0.63296703 74:0.57555556 75:0.58415842 76:0.036458333 77:0.62591687 78:0.45168067 79:0.6020202 80:0.58837209 81:0.47165533 82:0.49456522 83:0.49705305 84:0.0028653295 85:0.17037037 86:0.50899743 87:0.60124611 88:0.27358491 89:0.0072992701 90:0.013921114 91:0.98918919 92:0.94652406 93:0.0028248588 94:0.45436508 95:0.38053097 96:0.061576355 98:0.53766234 99:0.064039409 100:0.63076923 101:0.58724832 102:0.6589404 103:0.64795918 104:0.62891566 105:0.51918159 106:0.26609442 107:0.14497041 108:0.6057971 109:0.43187067 110:0.58045977 111:0.50677507 112:0.54697286 113:0.57177616 114:0.6284153 115:0.18362832 116:0.42596811 117:0.031026253 118:0.60404624 119:0.65686275 120:0.6713881 121:0.018567639 124:0.049844237 125:0.91156463 126:0.49723757 127:0.47794118 128:0.10940919 129:0.49137931 130:0.0058823529 131:0.57692308 132:0.35806452 133:0.45582329 134:0.47537879 135:0.5187638 136:0.29041916 137:0.60465116 138:0.36085627 139:0.6171875 140:0.46247465 141:0.46240602 142:0.61707989 143:0.58490566 144:0.55891239 145:0.77871148 146:0.017291066 147:0.098484848 148:0.5641791 149:0.56845238 150:0.73972603 151:0.08401084 152:0.0035842294 154:0.87843137 155:0.97712418 156:0.92903226 157:0.038167939 158:0.18181818 159:0.017948718 160:1 161:0.84168865 162:0.7100271 163:0.3013245 164:0.75641026 165:0.79705882 166:0.52442997 
1 1:0.50359712 2:0.96969697 4:0.14705882 6:0.68229167 7:0.0234375 8:0.69928401 9:0.018567639 10:0.52589641 11:0.51044084 12:0.42720307 13:0.51789976 14:0.63809524 15:0.53116531 16:0.084592145 17:0.011428571 18:0.58314856 19:0.50891089 20:0.47093023 21:0.25303644 22:0.01497006 23:0.19683258 24:0.73036649 25:0.48876404 26:0.17777778 27:0.011049724 28:0.035369775 29:0.36448598 30:0.59223301 31:0.44805195 32:0.94520548 34:0.52154195 35:0.088772846 36:0.27835052 37:0.027568922 39:0.116 40:0.0054054054 41:0.055147059 42:0.98579545 43:0.50980392 44:0.62264151 45:0.55526316 46:0.37527594 48:0.22900763 49:0.65924276 50:0.50718686 51:0.35283364 52:0.0084985836 53:0.063013699 54:0.27272727 55:0.53225806 56:0.49064449 57:0.01754386 58:0.041522491 59:0.60734463 60:0.58333333 62:0.93478261 63:0.15083799 64:0.72661871 65:0.14981273 66:0.2893401 67:0.0046728972 69:0.020648968 70:0.0027777778 72:0.75 73:0.46593407 74:0.57333333 75:0.50495049 76:0.036458333 77:0.0097799511 78:0.60084034 79:0.45252525 80:0.44883721 81:0.10430839 82:0.019021739 83:0.34577603 84:0.57020057 85:0.63703704 86:0.046272494 87:0.0031152648 88:0.27987421 89:0.13138686 90:0.6937355 91:0.98918919 92:0.94652406 93:0.0028248588 94:0.41468254 95:0.37168142 96:0.091133005 97:0.5 98:0.012987013 99:0.0049261084 100:0.0076923077 101:0.37919463 102:0.65562914 103:0.45663265 104:0.50843373 105:0.54987212 106:0.5193133 107:0.056213018 108:0.2 109:0.55889146 110:0.50574713 111:0.51490515 112:0.18371608 113:0.03649635 114:0.043715847 115:0.6460177 116:0.523918 117:0.61097852 118:0.078034682 119:0.036764706 120:0.014164306 121:0.55437666 122:0.55154639 123:0.64634146 124:0.046728972 125:0.91156463 126:0.43093923 127:0.61764706 128:0.595186 129:0.56034483 130:0.052941176 131:0.57692308 132:0.41935484 133:0.40963855 134:0.48295455 135:0.66004415 136:0.002994012 139:0.22395833 140:0.5030426 141:0.40037594 143:0.013477089 144:0.01510574 145:0.7535014 146:0.017291066 147:0.13636364 149:0.0029761905 150:0.0082191781 151:0.081300813 152:0.017921147 154:0.8627451 155:0.96078431 156:0.92580645 157:0.015267176 158:0.1489899 159:0.67435897 160:1 161:0.8469657 162:0.70731707 163:0.31125828 164:0.76282051 165:0.79705882 166:0.53745928 
1 1:0.11510791 2:0.0067340067 3:0.048192771 4:0.51838235 6:0.13020833 7:0.56510417 8:0.82338902 9:0.98938992 10:0.34262948 11:0.63805104 12:0.38888889 13:0.59904535 14:0.55952381 15:0.60162602 16:0.072507553 17:0.7 18:0.53880266 19:0.57821782 20:0.35465116 21:0.43724696 22:0.88323353 23:0.46606335 24:0.015706806 25:0.028089888 26:0.60246914 27:0.53038674 28:0.32797428 29:0.31775701 30:0.031553398 31:0.0064935065 32:0.48287671 33:0.62099125 34:0.11564626 35:0.45169713 36:0.1443299 38:0.55462185 39:0.004 40:0.40540541 41:0.033088235 42:0.042613636 43:0.48583878 44:0.6509434 45:0.53947368 46:0.47682119 47:0.1835206 48:0.67938931 49:0.84187082 50:0.33059548 51:0.40219378 52:0.97450425 53:0.56164384 54:0.37762238 55:0.18817204 56:0.46777547 57:0.55137845 58:0.11072664 59:0.28531073 60:0.21759259 61:0.62318841 62:0.032608696 63:0.45251397 64:0.026378897 65:0.56179775 66:0.1319797 67:0.0023364486 68:0.32011331 69:0.005899705 70:0.24444444 71:0.027237354 72:0.0080645161 73:0.6043956 74:0.43111111 75:0.53465347 76:0.0625 77:0.95599022 78:0.51890756 79:0.47070707 80:0.84883721 81:0.62131519 82:0.63315217 83:0.48133595 84:0.14613181 85:0.11604938 86:0.58868895 87:0.23676012 88:0.53773585 89:0.43065693 90:0.027842227 91:0.0054054054 92:0.19251337 93:0.61016949 94:0.39880952 95:0.54424779 96:0.21182266 97:0.38674033 98:0.91168831 99:0.014778325 100:0.48205128 101:0.023489933 102:0.10264901 103:0.62244898 104:0.64096386 105:0.57033248 106:0.31974249 107:0.10650888 108:0.59710145 109:0.4965358 110:0.76436782 111:0.94579946 112:0.47181628 113:0.66666667 114:0.6147541 115:0.13716814 116:0.40774487 117:0.035799523 118:0.77745665 119:0.63480392 120:0.52407932 121:0.034482759 122:0.077319588 123:0.043902439 124:0.6728972 125:0.54761905 126:0.22651934 127:0.3504902 128:0.074398249 129:0.40517241 130:0.42941176 131:0.61538462 132:0.041935484 133:0.46987952 134:0.39393939 135:0.50772627 136:0.39221557 137:0.7002584 138:0.28134557 139:0.49739583 140:0.46855984 141:0.47932331 142:0.4214876 143:0.5606469 144:0.87915408 145:0.0028011204 146:0.014409222 147:0.090909091 148:0.24477612 149:0.25892857 150:0.47123288 151:0.66666667 152:0.36200717 153:0.51724138 154:0.011764706 155:0.13071895 156:0.029032258 157:0.040712468 158:0.16161616 159:0.025641026 160:0.015625 161:0.34036939 162:0.21138211 163:0.2218543 164:0.69871795 165:0.86764706 166:0.40065147 
1 1:0.014388489 2:0.01010101 3:0.076305221 4:0.38602941 6:0.078125 7:0.6015625 8:0.61097852 9:0.67374005 10:0.25099602 11:0.6287703 12:0.43295019 13:0.51073986 14:0.60952381 15:0.52845528 16:0.11178248 17:0.99428571 18:0.44789357 19:0.3960396 20:0.35271318 21:0.47975709 22:0.53592814 23:0.38687783 24:0.15183246 25:0.033707865 26:0.52592593 27:0.63812155 28:0.16720257 29:0.47040498 30:0.016990291 31:0.0064935065 32:0.023972603 33:0.27988338 34:0.092970522 35:0.68929504 36:0.20962199 37:0.58646617 38:0.55182073 39:0.02 40:0.56216216 41:0.051470588 42:0.12215909 43:0.37908497 44:0.66745283 45:0.49473684 46:0.49668874 47:0.73782772 48:0.54961832 49:0.48997773 50:0.32238193 51:0.46800731 52:0.55524079 53:0.48219178 54:0.79020979 55:0.10215054 56:0.47609148 57:0.63157895 58:0.10034602 59:0.46892655 60:0.16435185 61:0.44637681 63:0.19553073 64:0.023980815 65:0.48689139 66:0.076142132 67:0.0023364486 68:0.33994334 69:0.044247788 70:0.34166667 71:0.058365759 72:0.0080645161 73:0.55384615 74:0.49333333 75:0.43564356 76:0.057291667 77:0.64547677 78:0.59033613 79:0.42424242 80:0.6 81:0.4829932 82:0.54891304 83:0.47937132 84:0.034383954 85:0.088888889 86:0.59125964 87:0.28971963 88:0.53459119 89:0.40510949 90:0.023201856 92:0.069518717 93:0.37853107 94:0.34722222 95:0.40707965 96:0.064039409 97:0.055248619 98:0.49350649 99:0.024630542 100:0.59230769 101:0.033557047 102:0.15562914 103:0.55102041 104:0.61204819 105:0.57544757 106:0.45922747 107:0.20118343 108:0.65797101 109:0.36720554 110:0.47988506 111:0.60433604 112:0.434238 113:0.40389294 114:0.41256831 115:0.23230089 116:0.46924829 117:0.042959427 118:0.68208092 119:0.65686275 120:0.56090652 121:0.031830239 122:0.14175258 123:0.07804878 124:0.41433022 125:0.29931973 126:0.37569061 127:0.25980392 128:0.048140044 129:0.3125 130:0.68235294 131:0.7008547 132:0.74516129 133:0.45582329 134:0.4469697 135:0.56732892 136:0.41317365 137:0.73643411 138:0.71559633 139:0.42708333 140:0.45233266 141:0.41353383 142:0.51515152 143:0.56603774 144:0.54380665 145:0.0084033613 146:0.043227666 147:0.5 148:0.35522388 149:0.33928571 150:0.62191781 151:0.57452575 152:0.39426523 153:0.29467085 154:0.011764706 155:0.052287582 156:0.0064516129 157:0.027989822 158:0.16666667 159:0.020512821 160:0.0375 161:0.28759894 162:0.27642276 163:0.41390728 164:0.87820513 165:0.84705882 166:0.6286645 
1 1:0.10071942 2:0.01010101 3:0.048192771 4:0.46691176 5:0.045070423 6:0.03125 7:0.5703125 8:0.71837709 9:0.65517241 10:0.28087649 11:0.6450116 12:0.38122605 13:0.55847255 14:0.58333333 15:0.53658537 16:0.21752266 17:0.82285714 18:0.49002217 19:0.39405941 20:0.31395349 21:0.45951417 22:0.5239521 23:0.36199095 24:0.094240838 25:0.033707865 26:0.56790123 27:0.60220994 28:0.3022508 29:0.40498442 30:0.029126214 31:0.0097402597 32:0.27739726 33:0.70262391 34:0.11337868 35:0.36031332 36:0.17525773 38:0.46778711 39:0.008 40:0.47567568 41:0.040441176 42:0.17897727 43:0.43137255 44:0.66273585 45:0.45789474 46:0.51214128 47:0.52059925 48:0.55979644 49:0.52783964 50:0.30595483 51:0.43144424 52:0.57507082 53:0.47671233 54:0.73193473 55:0.18548387 56:0.44490644 57:0.59899749 58:0.12110727 59:0.15254237 60:0.18981481 61:0.73623188 62:0.0054347826 63:0.48603352 64:0.026378897 65:0.46816479 66:0.040609137 67:0.021028037 68:0.26062323 69:0.0029498525 70:0.26666667 71:0.038910506 72:0.0080645161 73:0.58461538 74:0.46222222 75:0.47524752 76:0.27083333 77:0.64792176 78:0.56722689 79:0.37575758 80:0.58372093 81:0.43764172 82:0.50543478 83:0.41650295 84:0.042979943 85:0.091358025 86:0.59125964 87:0.28037383 88:0.67295597 89:0.47445255 90:0.027842227 92:0.12299465 93:0.67231638 94:0.39087302 95:0.2699115 96:0.33004926 97:0.022099448 98:0.51428571 99:0.0098522167 100:0.53076923 101:0.030201342 102:0.20860927 103:0.58163265 104:0.62650602 105:0.56521739 106:0.47854077 107:0.87278107 108:0.82318841 109:0.38337182 110:0.47126437 111:0.62059621 112:0.37160752 113:0.36253041 114:0.39071038 115:0.19247788 116:0.4738041 117:0.040572792 118:0.74855491 119:0.65441176 120:0.5694051 121:0.037135279 122:0.12628866 123:0.036585366 124:0.66978193 125:0.017006803 126:0.54696133 127:0.30637255 128:0.067833698 129:0.37284483 130:0.51764706 131:0.32051282 132:0.44516129 133:0.51405622 134:0.45265152 135:0.53642384 136:0.31437126 137:0.56072351 138:0.3088685 139:0.46354167 140:0.50709939 141:0.42293233 142:0.42699725 143:0.49056604 144:0.49546828 145:0.0084033613 146:0.037463977 147:0.52272727 148:0.30149254 149:0.30654762 150:0.55616438 151:0.58807588 152:0.3046595 153:0.37617555 154:0.0078431373 155:0.34640523 156:0.0096774194 157:0.06870229 158:0.18939394 159:0.025641026 160:0.03125 161:0.01055409 162:0.2601626 163:0.25496689 164:0.65384615 165:0.71764706 166:0.009771987 
1 1:0.22302158 2:0.0067340067 3:0.044176707 4:0.54411765 5:0.070422535 6:0.37239583 7:0.5625 8:0.59665871 9:0.64456233 10:0.34462151 11:0.61716937 12:0.37547893 13:0.58949881 14:0.56428571 15:0.59078591 16:0.12990937 17:0.89428571 18:0.53215078 19:0.44356436 20:0.38178295 21:0.40283401 22:0.52095808 23:0.42307692 24:0.15445026 25:0.028089888 26:0.6 27:0.55248619 28:0.2926045 29:0.42990654 30:0.019417476 31:0.0032467532 32:0.5 33:0.45772595 34:0.095238095 35:0.68146214 36:0.1580756 38:0.54061625 39:0.008 40:0.42972973 41:0.029411765 42:0.13068182 43:0.48148148 44:0.64386792 45:0.48157895 46:0.43487859 47:0.77153558 48:0.54198473 49:0.56792873 50:0.36344969 51:0.39488117 52:0.56657224 53:0.49863014 54:0.76223776 55:0.075268817 56:0.43035343 57:0.57393484 58:0.10726644 59:0.50564972 60:0.20833333 61:0.13333333 62:0.043478261 63:0.59776536 64:0.019184652 65:0.4906367 66:0.076142132 67:0.021028037 68:0.30594901 69:0.020648968 70:0.25 71:0.023346303 72:0.0040322581 73:0.58901099 74:0.43555556 75:0.54455446 76:0.25 77:0.65525672 78:0.5 79:0.41010101 80:0.6 81:0.39455782 82:0.5 83:0.46954813 84:0.22922636 85:0.11604938 86:0.59897172 87:0.24299065 88:0.52830189 89:0.34306569 90:0.027842227 92:0.15508021 93:0.36440678 94:0.36904762 95:0.52654867 96:0.39901478 97:0.29005525 98:0.53506494 99:0.0098522167 100:0.5 101:0.020134228 102:0.18211921 103:0.62755102 104:0.63855422 105:0.5831202 106:0.38197425 107:0.79881657 108:0.69855072 109:0.43879908 110:0.49712644 111:0.57452575 112:0.4091858 113:0.38686131 114:0.41256831 115:0.22787611 116:0.69931663 117:0.064439141 118:0.76878613 119:0.64705882 120:0.53541076 121:0.026525199 122:0.10824742 123:0.095121951 124:0.39563863 125:0.32653061 126:0.28729282 127:0.33333333 128:0.056892779 129:0.38146552 130:0.52647059 131:0.64102564 132:0.79354839 133:0.48192771 134:0.40719697 135:0.50993377 136:0.36526946 137:0.57881137 138:0.34556575 139:0.5 140:0.49087221 141:0.47932331 142:0.44352617 143:0.45552561 144:0.48640483 145:0.0028011204 146:0.014409222 147:0.12121212 148:0.25970149 149:0.26785714 150:0.50136986 151:0.65853659 152:0.41935484 153:0.42319749 154:0.011764706 155:0.40522876 156:0.038709677 157:0.055979644 158:0.11868687 159:0.015384615 160:0.00625 161:0.12137203 162:0.16531165 163:0.13576159 164:0.63461538 165:0.82941176 166:0.22149837 
1 1:0.22302158 2:0.0033670034 3:0.13654618 4:0.54411765 6:0.36979167 7:0.984375 8:0.59427208 9:0.5729443 10:0.23904382 11:0.6287703 12:0.44444444 13:0.49164678 14:0.60952381 15:0.62330623 16:0.14199396 17:0.73142857 18:0.47228381 19:0.52475248 20:0.48255814 21:0.48178138 22:0.95209581 23:0.5158371 24:0.023560209 25:0.028089888 26:0.85679012 27:0.56077348 28:0.22186495 29:0.42990654 30:0.016990291 31:0.0032467532 32:0.5 33:0.45772595 34:0.090702948 35:0.68146214 36:0.16151203 38:0.43697479 39:0.012 40:0.59459459 41:0.047794118 42:0.13068182 43:0.35511983 44:0.66745283 45:0.59210526 46:0.50993377 47:0.21348315 48:0.57760814 49:0.73051225 50:0.30800821 51:0.46800731 52:0.68555241 53:0.94246575 54:0.48484848 55:0.075268817 56:0.4968815 57:0.839599 58:0.093425606 59:0.50564972 60:0.15509259 61:0.13623188 62:0.043478261 63:0.59776536 64:0.021582734 65:0.4906367 66:0.076142132 67:0.0023364486 68:0.36260623 69:0.0029498525 70:0.475 71:0.085603113 72:0.0040322581 73:0.54285714 74:0.49333333 75:0.43564356 76:0.046875 77:0.62347188 78:0.60294118 79:0.48888889 80:0.88372093 81:0.44217687 82:0.97282609 83:0.48722986 84:0.13180516 85:0.086419753 86:0.98457584 87:0.19937695 88:0.37735849 89:0.34306569 90:0.030162413 92:0.15508021 93:0.36723164 94:0.3452381 95:0.52654867 96:0.39901478 97:0.085635359 98:0.55844156 99:0.0098522167 100:0.82307692 101:0.013422819 102:0.18211921 103:0.53061224 104:0.6 105:0.58056266 106:0.49141631 107:0.29585799 108:0.71304348 109:0.59122402 110:0.84195402 111:1 112:0.46555324 113:0.47445255 114:0.79781421 115:0.23893805 116:0.46241458 117:0.040572792 118:0.72543353 119:0.86764706 120:0.46458924 121:0.029177719 122:0.10824742 123:0.097560976 124:0.39875389 125:0.32653061 126:0.28729282 127:0.25 128:0.048140044 129:0.29956897 130:0.52352941 131:0.64102564 132:0.79354839 133:0.4497992 134:0.44318182 135:0.58057395 136:0.20958084 137:0.49354005 138:0.24159021 139:0.75260417 140:0.44827586 141:0.42293233 142:0.53168044 143:0.85444744 144:0.81873112 145:0.0028011204 146:0.011527378 147:0.11363636 148:0.46865672 149:0.35119048 150:0.62465753 151:0.65853659 152:0.41935484 153:0.42319749 154:0.0078431373 155:0.40522876 156:0.038709677 157:0.027989822 158:0.17676768 159:0.017948718 160:0.00625 161:0.12137203 162:0.16260163 163:0.13576159 164:0.63461538 165:0.82941176 166:0.21824104 
1 1:0.10791367 2:0.11784512 3:0.1686747 4:0.46691176 6:0.033854167 7:0.5859375 8:0.58949881 9:0.54376658 10:0.34860558 11:0.63805104 12:0.39655172 13:0.60143198 14:0.55238095 15:0.57181572 16:0.060422961 17:0.74571429 18:0.53658537 19:0.45544554 20:0.40310078 21:0.40688259 22:0.54191617 23:0.44570136 24:0.11518325 25:0.030898876 26:0.63703704 27:0.94198895 28:0.64630225 29:0.40809969 30:0.033980583 31:0.0064935065 32:0.26712329 33:0.70262391 34:0.11791383 35:0.36553525 36:0.17525773 38:0.54061625 39:0.012 40:0.69459459 41:0.20220588 42:0.17613636 43:0.49019608 44:0.64858491 45:0.46052632 46:0.47461369 47:0.17602996 48:0.5216285 49:0.55011136 50:0.37166324 51:0.4095064 52:0.51274788 53:0.62465753 54:0.73193473 55:0.18548387 56:0.41580042 57:0.72681704 58:0.38408305 59:0.16101695 60:0.22222222 61:0.73913043 62:0.0054347826 63:0.49162011 64:0.026378897 65:0.46816479 66:0.040609137 67:0.0023364486 68:0.36543909 69:0.0029498525 70:0.53611111 71:0.18677043 72:0.0080645161 73:0.6043956 74:0.43333333 75:0.53712871 76:0.046875 77:0.62347188 78:0.51260504 79:0.42828283 80:0.61395349 81:0.38095238 82:0.54076087 83:0.48722986 84:0.040114613 85:0.12345679 86:0.66838046 87:0.79750779 88:0.58805031 89:0.47445255 90:0.030162413 92:0.11764706 93:0.66666667 94:0.40079365 95:0.27433628 96:0.33497537 97:0.027624309 98:0.58181818 99:0.0098522167 100:0.60769231 101:0.2114094 102:0.20860927 103:0.625 104:0.64096386 105:0.56777494 106:0.32618026 107:0.068047337 108:0.57971014 109:0.42032333 110:0.49712644 111:0.61788618 112:0.41962422 113:0.3649635 114:0.45355191 115:0.25 116:0.71070615 117:0.059665871 118:0.75722543 119:0.75 120:0.95184136 121:0.037135279 122:0.12628866 123:0.03902439 124:0.66666667 125:0.013605442 126:0.54696133 127:0.35784314 128:0.076586433 129:0.40948276 130:0.51764706 131:0.32478632 132:0.4483871 133:0.45582329 134:0.38825758 135:0.50110375 136:0.29041916 137:0.62790698 138:0.32110092 139:0.55989583 140:0.45436105 141:0.47744361 142:0.55371901 143:0.50404313 144:0.55891239 145:0.0028011204 146:0.011527378 147:0.11363636 148:0.67164179 149:0.74702381 150:0.84383562 151:0.59891599 152:0.3046595 153:0.38244514 154:0.0039215686 155:0.34313725 156:0.070967742 157:0.030534351 158:0.15909091 159:0.023076923 160:0.034375 161:0.015831135 162:0.2601626 163:0.24834437 164:0.65384615 165:0.71764706 166:0.013029316 
1 1:0.014388489 2:0.094276094 3:0.29317269 4:0.38602941 6:0.0859375 7:0.6171875 8:0.72792363 9:0.55702918 10:0.27091633 11:0.65429234 12:0.37739464 13:0.54653938 14:0.57380952 15:0.50948509 16:0.16616314 17:0.75142857 18:0.49223947 19:0.40990099 20:0.33333333 21:0.45546559 22:0.53892216 23:0.3800905 24:0.086387435 25:0.030898876 26:0.61234568 27:0.97790055 28:0.20257235 29:0.47040498 30:0.031553398 31:0.0064935065 32:0.020547945 33:0.28279883 34:0.12698413 35:0.68668407 36:0.20618557 37:0.58897243 38:0.55462185 39:0.012 40:0.82702703 41:0.25367647 42:0.11931818 43:0.41394336 44:0.66273585 45:0.43947368 46:0.54304636 47:0.20224719 48:0.56234097 49:0.5233853 50:0.3100616 51:0.42413163 52:0.50708215 53:0.61369863 54:0.73659674 55:0.096774194 56:0.42619543 57:0.76441103 58:0.23529412 59:0.46892655 60:0.18518519 61:0.44637681 63:0.20111732 64:0.028776978 65:0.4906367 66:0.076142132 67:0.0023364486 68:0.53541076 69:0.0029498525 70:0.71666667 71:0.28015564 72:0.0080645161 73:0.58241758 74:0.44888889 75:0.44306931 76:0.052083333 77:0.62836186 78:0.58403361 79:0.37777778 80:0.57209302 81:0.41496599 82:0.5625 83:0.41650295 84:0.025787966 85:0.091358025 86:0.67609255 87:0.81619938 88:0.67295597 89:0.40510949 90:0.032482599 92:0.069518717 93:0.37853107 94:0.4047619 95:0.40707965 96:0.078817734 97:0.060773481 98:0.54285714 99:0.044334975 100:0.6974359 101:0.18791946 102:0.15562914 103:0.55867347 104:0.61445783 105:0.54219949 106:0.45708155 107:0.18934911 108:0.6115942 109:0.37644342 110:0.47413793 111:0.65311653 112:0.37160752 113:0.35523114 114:0.43989071 115:0.21238938 116:0.46013667 117:0.033412888 118:0.67630058 119:0.72794118 120:0.90651558 121:0.037135279 122:0.14175258 123:0.085365854 124:0.41121495 125:0.14285714 126:0.37569061 127:0.30392157 128:0.078774617 129:0.375 130:0.68235294 131:0.6965812 132:0.74516129 133:0.51807229 134:0.44886364 135:0.54083885 136:0.28443114 137:0.57622739 138:0.28440367 139:0.52864583 140:0.5030426 141:0.43045113 142:0.70247934 143:0.56603774 144:0.54682779 145:0.0056022409 146:0.028818444 147:0.40909091 148:0.81492537 149:0.83035714 150:0.93424658 151:0.5799458 152:0.390681 153:0.29467085 154:0.0078431373 155:0.045751634 156:0.0032258065 157:0.038167939 158:0.22727273 159:0.028205128 160:0.0375 161:0.29023747 162:0.27642276 163:0.41721854 164:0.88461538 165:0.84705882 166:0.63192182 
1 1:0.014388489 2:0.033670034 3:0.10441767 4:0.37867647 6:0.083333333 7:0.64322917 8:0.53937947 9:0.53846154 10:0.3247012 11:0.63573086 12:0.38122605 13:0.56085919 14:0.58571429 15:0.55284553 16:0.075528701 17:0.76 18:0.47450111 19:0.4019802 20:0.48837209 21:0.45546559 22:0.54790419 23:0.37556561 24:0.078534031 25:0.033707865 26:0.56296296 27:0.60773481 28:0.8488746 29:0.47040498 30:0.024271845 31:0.0064935065 32:0.01369863 33:0.27405248 34:0.10430839 35:0.68929504 36:0.20962199 37:0.59398496 38:0.44257703 39:0.012 40:0.55945946 41:0.044117647 42:0.11647727 43:0.4379085 44:0.66037736 45:0.47368421 46:0.49227373 47:0.24344569 48:0.55979644 49:0.55233853 50:0.40451745 51:0.42778793 52:0.48725212 53:0.57808219 54:0.61305361 55:0.099462366 56:0.49480249 57:0.52380952 58:0.25605536 59:0.47175141 60:0.19212963 61:0.43768116 63:0.19553073 64:0.021582734 65:0.48689139 66:0.076142132 67:0.0023364486 68:0.28611898 69:0.0029498525 70:0.41388889 71:0.073929961 72:0.0040322581 73:0.58241758 74:0.46444444 75:0.49257426 76:0.046875 77:0.62102689 78:0.55672269 79:0.37575758 80:0.62790698 81:0.40589569 82:0.60869565 83:0.41650295 84:0.028653295 85:0.13333333 86:0.66323907 87:0.31775701 88:0.92138365 89:0.40145985 90:0.025522042 92:0.069518717 93:0.37853107 94:0.37896825 95:0.38053097 96:0.1182266 97:0.063535912 98:0.50649351 99:0.0098522167 100:0.48974359 101:0.05704698 102:0.15231788 103:0.58928571 104:0.62891566 105:0.57289003 106:0.38412017 107:0.23372781 108:0.64637681 109:0.40646651 110:0.49425287 111:0.62059621 112:0.37160752 113:0.33819951 114:0.41256831 115:0.40707965 116:0.77448747 117:0.071599045 118:0.95086705 119:0.625 120:0.69971671 121:0.034482759 122:0.14175258 123:0.082926829 124:0.41121495 125:0.11564626 126:0.37569061 127:0.30637255 128:0.06345733 129:0.36637931 130:0.68529412 131:0.6965812 132:0.7516129 133:0.51204819 134:0.45075758 135:0.53421634 136:0.2245509 137:0.5503876 138:0.28746177 139:0.50260417 140:0.51115619 141:0.42857143 142:0.4738292 143:0.45283019 144:0.49848943 145:0.081232493 146:0.023054755 147:0.39393939 148:0.42089552 149:0.3452381 150:0.61369863 151:0.55284553 152:0.39426523 153:0.28840125 154:0.0039215686 155:0.039215686 157:0.025445293 158:0.16666667 159:0.020512821 160:0.0375 161:0.29287599 162:0.27642276 163:0.4205298 164:0.88461538 165:0.84705882 166:0.63843648 
1 1:0.11510791 2:0.013468013 3:0.040160643 4:0.51838235 6:0.12760417 7:0.92447917 8:0.64677804 9:0.54376658 10:0.40039841 11:0.71925754 12:0.47701149 13:0.59188544 14:0.96190476 15:0.97289973 16:0.096676737 17:0.74857143 18:0.54323725 19:0.44158416 20:0.31395349 21:0.40688259 22:0.82035928 23:0.53846154 24:0.020942408 25:0.028089888 26:0.94814815 27:0.58563536 28:0.14790997 29:0.31775701 30:0.033980583 31:0.0064935065 32:0.48287671 33:0.62099125 34:0.074829932 35:0.4464752 36:0.1443299 37:0.0025062657 38:0.53501401 39:0.004 40:0.4 41:0.055147059 42:0.042613636 43:0.49673203 44:0.96226415 45:0.91578947 46:0.49668874 47:0.17228464 48:0.52926209 49:0.53229399 50:0.34291581 51:0.40767824 52:0.60906516 53:0.93972603 54:0.48018648 55:0.18817204 56:0.52806653 57:0.76441103 58:0.093425606 59:0.28531073 60:0.26388889 61:0.62318841 62:0.032608696 63:0.45251397 64:0.026378897 65:0.56179775 66:0.1319797 67:0.0023364486 68:0.25495751 69:0.005899705 70:0.24722222 71:0.046692607 72:0.0080645161 73:0.64835165 74:0.76222222 75:0.68811881 76:0.0625 77:0.62347188 78:0.70588235 79:0.48484848 80:0.56511628 81:0.37641723 82:0.88586957 83:0.48330059 84:0.14613181 85:0.15802469 86:0.98714653 87:0.32398754 88:0.60062893 89:0.4270073 90:0.030162413 91:0.0054054054 92:0.19251337 93:0.61299435 94:0.30555556 95:0.53982301 96:0.21428571 97:0.3839779 98:0.58701299 99:0.0098522167 100:0.68717949 101:0.043624161 102:0.10264901 103:0.86734694 104:0.93253012 105:0.99744246 106:0.37339056 107:0.082840237 108:0.57681159 109:0.65127021 110:0.86781609 111:0.62059621 112:0.42379958 113:0.41849148 114:0.7704918 115:0.14823009 116:0.3143508 117:0.033412888 118:0.9017341 119:0.86519608 120:0.5694051 121:0.034482759 122:0.077319588 123:0.046341463 124:0.6728972 125:0.54761905 126:0.22651934 127:0.40441176 128:0.048140044 129:0.35775862 130:0.42941176 131:0.61538462 132:0.041935484 133:0.46987952 134:0.45643939 135:0.76379691 136:0.29341317 137:0.63307494 138:0.32110092 139:0.84895833 140:0.4969574 141:0.47932331 142:0.41046832 143:0.67654987 144:0.66465257 145:0.0028011204 146:0.011527378 147:0.083333333 148:0.29253731 149:0.33928571 150:0.49589041 151:0.66666667 152:0.36200717 153:0.51724138 154:0.011764706 155:0.13398693 156:0.029032258 157:0.043256997 158:0.16414141 159:0.028205128 160:0.015625 161:0.34036939 162:0.21138211 163:0.2218543 164:0.69871795 165:0.86764706 166:0.40065147 
1 1:0.09352518 2:0.077441077 3:0.12048193 4:0.46691176 6:0.033854167 7:0.63541667 8:0.5202864 9:0.57029178 10:0.44223108 11:0.78886311 12:0.43295019 13:0.77088305 14:0.69761905 15:0.53658537 16:0.12386707 17:0.73142857 18:0.44789357 19:0.38019802 20:0.40503876 21:0.48582996 22:0.52694611 23:0.40045249 24:0.015706806 25:0.033707865 26:0.54320988 27:0.64088398 28:0.94533762 29:0.40498442 30:0.12135922 31:0.0097402597 32:0.28424658 33:0.70262391 34:0.44897959 35:0.35770235 36:0.17869416 38:0.45378151 39:0.008 40:0.58918919 41:0.069852941 42:0.17897727 43:0.62745098 44:0.68160377 45:0.54473684 46:0.72847682 47:0.19850187 48:0.57251908 49:0.48106904 50:0.37577002 51:0.46800731 52:0.50141643 53:0.54246575 54:0.41958042 55:0.18817204 56:0.47401247 57:0.53383459 58:0.40138408 59:0.14971751 60:0.37962963 61:0.73333333 62:0.0054347826 63:0.48044693 64:0.064748201 65:0.46816479 66:0.040609137 67:0.0023364486 68:0.33144476 69:0.0029498525 70:0.45 71:0.073929961 72:0.0080645161 73:0.76263736 74:0.53777778 75:0.51237624 76:0.0625 77:0.62836186 78:0.53361345 79:0.41212121 80:0.60465116 81:0.44444444 82:0.57608696 83:0.47740668 84:0.042979943 85:0.17037037 86:0.66580977 87:0.4423676 88:0.81446541 89:0.47445255 90:0.034802784 91:0.0081081081 92:0.12299465 93:0.67514124 94:0.68452381 95:0.26548673 96:0.32512315 97:0.022099448 98:0.5038961 99:0.0098522167 100:0.5 101:0.10738255 102:0.20860927 103:0.60969388 104:0.64096386 105:0.65217391 106:0.527897 107:0.24260355 108:0.68695652 109:0.40415704 110:0.5 111:0.55284553 112:0.43841336 113:0.37712895 114:0.41803279 115:0.19247788 116:0.44191344 117:0.038186158 118:0.91040462 119:0.6372549 120:0.80169972 121:0.047745358 122:0.12628866 123:0.036585366 124:0.66978193 125:0.023809524 126:0.54696133 127:0.6495098 128:0.25820569 129:0.69396552 130:0.51764706 131:0.32051282 132:0.43870968 133:0.46787149 134:0.45643939 135:0.5584989 136:0.21257485 137:0.51679587 138:0.24464832 139:0.44791667 140:0.45233266 141:0.40977444 142:0.52892562 143:0.45552561 144:0.48036254 145:0.1232493 146:0.031700288 147:0.41666667 148:0.42686567 149:0.36607143 150:0.61917808 151:0.58265583 152:0.30107527 153:0.36990596 154:0.0078431373 155:0.3496732 156:0.0096774194 157:0.040712468 158:0.65151515 159:0.051282051 160:0.03125 161:0.0079155673 162:0.25745257 163:0.25827815 164:0.65384615 165:0.71470588 166:0.003257329 
1 1:0.014388489 2:0.02020202 3:0.3815261 4:0.38602941 6:0.11458333 7:0.640625 8:0.51312649 9:0.57559682 10:0.42231076 11:0.78886311 12:0.43678161 13:0.75894988 14:0.69761905 15:0.53387534 16:0.1510574 17:0.73142857 18:0.45011086 19:0.38415842 20:0.4127907 21:0.48380567 22:0.50898204 23:0.41855204 24:0.013089005 25:0.030898876 26:0.62962963 27:0.94198895 28:0.30868167 29:0.47040498 30:0.11893204 31:0.0064935065 32:0.023972603 33:0.28571429 34:0.45804989 35:0.68668407 36:0.20618557 37:0.5839599 38:0.78431373 39:0.008 40:0.95405405 41:0.16911765 42:0.11931818 43:0.61220044 44:0.68632075 45:0.52894737 46:0.74172185 47:0.19475655 48:0.57760814 49:0.47438753 50:0.37371663 51:0.46800731 52:0.50141643 53:0.58082192 54:0.4009324 55:0.099462366 56:0.46361746 57:0.80701754 58:0.10726644 59:0.46610169 60:0.36342593 61:0.44927536 63:0.20111732 64:0.095923261 65:0.48689139 66:0.076142132 67:0.0023364486 68:0.75637394 69:0.0029498525 70:0.83888889 71:0.26848249 72:0.0080645161 73:0.75604396 74:0.53333333 75:0.5 76:0.0625 77:0.63080685 78:0.53991597 79:0.41616162 80:0.60232558 81:0.44671202 82:0.55434783 83:0.48133595 84:0.025787966 85:0.16049383 86:0.66838046 87:0.5576324 88:0.33333333 89:0.40875912 90:0.09512761 92:0.069518717 93:0.37853107 94:0.68650794 95:0.41150442 96:0.056650246 97:0.091160221 98:0.53766234 99:0.093596059 100:0.81794872 101:0.080536913 102:0.1589404 103:0.58928571 104:0.63373494 105:0.64705882 106:0.53218884 107:0.25147929 108:0.69855072 109:0.40877598 110:0.49137931 111:0.55555556 112:0.43841336 113:0.38199513 114:0.43715847 115:0.19469027 116:0.44646925 117:0.035799523 118:0.62138728 119:0.68137255 120:0.67988669 121:0.045092838 122:0.14175258 123:0.082926829 124:0.41433022 125:0.30612245 126:0.37569061 127:0.6372549 128:0.26039387 129:0.68965517 130:0.68235294 131:0.6965812 132:0.74193548 133:0.45983936 134:0.45454545 135:0.56512141 136:0.4251497 137:0.5503876 138:0.23853211 139:0.50260417 140:0.44016227 141:0.41353383 142:0.91184573 143:0.77088949 144:0.67673716 145:0.0028011204 146:0.011527378 147:0.083333333 148:0.85671642 149:0.75595238 150:0.9890411 151:0.58265583 152:0.39426523 153:0.29780564 154:0.0078431373 155:0.052287582 156:0.0032258065 157:0.043256997 158:0.67171717 159:0.1974359 160:0.0375 161:0.28496042 162:0.27642276 163:0.41390728 164:0.87820513 165:0.84705882 166:0.6286645 
1 1:0.22302158 2:0.033670034 3:0.096385542 4:0.54411765 6:0.3671875 7:0.63541667 8:0.59427208 9:0.55702918 10:0.36653386 11:0.68213457 12:0.38505747 13:0.54653938 14:0.65 15:0.60704607 16:0.8489426 17:0.75428571 18:0.53215078 19:0.38415842 20:0.33333333 21:0.46356275 22:0.53592814 23:0.37330317 24:0.031413613 25:0.028089888 26:0.57037037 27:0.61325967 28:0.86495177 29:0.42990654 30:0.024271845 31:0.0032467532 32:0.50342466 33:0.46355685 34:0.15419501 35:0.67885117 36:0.16151203 38:0.45378151 39:0.008 40:0.54594595 41:0.051470588 42:0.13068182 43:0.48583878 44:0.66745283 45:0.52368421 46:0.71302428 47:0.20973783 48:0.55979644 49:0.51893096 50:0.31827515 51:0.43327239 52:0.50141643 53:0.56164384 54:0.4988345 55:0.075268817 56:0.49480249 57:0.52380952 58:0.25951557 59:0.50564972 60:0.23611111 61:0.14492754 62:0.043478261 63:0.59776536 64:0.021582734 65:0.4906367 66:0.076142132 67:0.018691589 68:0.27195467 69:0.0029498525 70:0.38888889 71:0.073929961 72:0.0080645161 73:0.53186813 74:0.49555556 75:0.42574257 76:0.22916667 77:0.62836186 78:0.65546218 79:0.37575758 80:0.58837209 81:0.41723356 82:0.57880435 83:0.41846758 84:0.13467049 85:0.1308642 86:0.67095116 87:0.31464174 88:0.95283019 89:0.34306569 90:0.027842227 92:0.14973262 93:0.3700565 94:0.42857143 95:0.52212389 96:0.39901478 97:0.077348066 98:0.53506494 99:0.0098522167 100:0.47692308 101:0.05704698 102:0.17880795 103:0.52295918 104:0.60481928 105:0.66751918 106:0.72746781 107:0.46153846 108:0.63478261 109:0.37644342 110:0.49137931 111:0.51761518 112:0.37787056 113:0.34549878 114:0.40163934 115:0.14823009 116:0.39179954 117:0.042959427 118:0.93930636 119:0.6127451 120:0.67705382 121:0.029177719 122:0.10824742 123:0.095121951 124:0.41121495 125:0.33333333 126:0.29834254 127:0.37745098 128:0.083150985 129:0.39224138 130:0.52058824 131:0.63675214 132:0.79354839 133:0.51405622 134:0.45454545 135:0.53863135 136:0.23353293 137:0.57105943 138:0.28440367 139:0.49479167 140:0.51115619 141:0.42293233 142:0.45730028 143:0.44204852 144:0.51057402 145:0.095238095 146:0.028818444 147:0.46212121 148:0.41791045 149:0.36309524 150:0.61643836 151:0.66124661 152:0.41935484 153:0.42633229 154:0.011764706 155:0.40522876 156:0.041935484 157:0.16030534 158:0.40151515 159:0.030769231 160:0.00625 161:0.11873351 162:0.16260163 163:0.13576159 164:0.63461538 165:0.82941176 166:0.21498371 
1 1:0.22302158 2:0.0067340067 3:0.048192771 4:0.54411765 6:0.36197917 7:0.56770833 8:0.66109785 9:0.98938992 10:0.4063745 11:0.67285383 12:0.47509579 13:0.57756563 14:0.95238095 15:0.98373984 16:0.072507553 17:0.68571429 18:0.53436807 19:0.44752475 20:0.31589147 21:0.43319838 22:0.89221557 23:0.47285068 24:0.031413613 25:0.028089888 26:0.60246914 27:0.53867403 28:0.34405145 29:0.43302181 30:0.019417476 31:0.0032467532 32:0.50342466 33:0.46938776 34:0.070294785 35:0.67624021 36:0.16151203 38:0.55742297 39:0.008 40:0.40810811 41:0.029411765 42:0.13068182 43:0.49455338 44:0.94339623 45:0.93157895 46:0.48565121 47:0.17602996 48:0.67938931 49:0.53452116 50:0.3613963 51:0.40036563 52:0.98016997 53:0.56438356 54:0.5011655 55:0.075268817 56:0.44490644 57:0.55639098 58:0.11418685 59:0.50564972 60:0.25694444 61:0.15942029 62:0.046195652 63:0.60335196 64:0.021582734 65:0.48689139 66:0.07106599 67:0.0023364486 68:0.32011331 69:0.0029498525 70:0.24444444 71:0.023346303 72:0.0080645161 73:0.62197802 74:0.76444444 75:0.70049505 76:0.052083333 77:0.95110024 78:0.65756303 79:0.49090909 80:0.5627907 81:0.62811791 82:0.64130435 83:0.47740668 84:0.14040115 85:0.16296296 86:0.58868895 87:0.24299065 88:0.51886792 89:0.34306569 90:0.027842227 92:0.14973262 93:0.37570621 94:0.29166667 95:0.52212389 96:0.39655172 97:0.071823204 98:0.91168831 99:0.014778325 100:0.48717949 101:0.023489933 102:0.17880795 103:0.86734694 104:0.92048193 105:0.99744246 106:0.34549356 107:0.10059172 108:0.57971014 109:0.67667436 110:0.89942529 111:0.6395664 112:0.47181628 113:0.67639903 114:0.6284153 115:0.15707965 116:0.3143508 117:0.042959427 118:0.78323699 119:0.63970588 120:0.53541076 121:0.029177719 122:0.10824742 123:0.092682927 124:0.42056075 125:0.34013605 126:0.3038674 127:0.3872549 128:0.037199125 129:0.32327586 130:0.51764706 131:0.63675214 132:0.79354839 133:0.47188755 134:0.45643939 135:0.73509934 136:0.38922156 137:0.69250646 138:0.27828746 139:0.49739583 140:0.47870183 141:0.47932331 142:0.42424242 143:0.56603774 144:0.88217523 145:0.0028011204 146:0.014409222 147:0.10606061 148:0.24776119 149:0.26190476 150:0.47671233 151:0.66395664 152:0.41935484 153:0.42946708 154:0.011764706 155:0.40522876 156:0.04516129 157:0.030534351 158:0.14646465 159:0.017948718 160:0.00625 161:0.11873351 162:0.16260163 163:0.13576159 164:0.63461538 165:0.82941176 166:0.21172638 
1 1:0.09352518 2:0.01010101 3:0.080321285 4:0.47058824 6:0.03125 7:0.59635417 8:0.53460621 9:0.68435013 10:0.46215139 11:0.79118329 12:0.44444444 13:0.78520286 14:0.69761905 15:0.55284553 16:0.096676737 17:1 18:0.43902439 19:0.3960396 20:0.39728682 21:0.47368421 22:0.53592814 23:0.40045249 24:0.023560209 25:0.033707865 26:0.52098765 27:0.64917127 28:0.18327974 29:0.40186916 30:0.11407767 31:0.0097402597 32:0.28767123 33:0.70262391 34:0.41723356 35:0.36031332 36:0.17869416 38:0.57422969 39:0.02 40:0.56216216 41:0.055147059 42:0.17897727 43:0.64488017 44:0.67216981 45:0.59473684 46:0.71302428 47:0.62921348 48:0.53435115 49:0.45879733 50:0.38603696 51:0.46435101 52:0.57507082 53:0.46575342 54:0.45221445 55:0.18817204 56:0.46985447 57:0.63408521 58:0.11072664 59:0.14971751 60:0.38657407 61:0.73623188 62:0.0054347826 63:0.47486034 64:0.052757794 65:0.46816479 66:0.040609137 67:0.0023364486 68:0.35410765 69:0.014749263 70:0.34722222 71:0.062256809 72:0.0080645161 73:0.77142857 74:0.54888889 75:0.53712871 76:0.0625 77:0.64792176 78:0.52310924 79:0.42626263 80:0.60465116 81:0.49206349 82:0.53532609 83:0.49312377 84:0.045845272 85:0.18024691 86:0.58611825 87:0.31152648 88:0.26415094 89:0.47445255 90:0.027842227 92:0.12299465 93:0.67231638 94:0.67460317 95:0.2699115 96:0.3226601 97:0.019337017 98:0.51428571 99:0.024630542 100:0.58717949 101:0.040268456 102:0.20860927 103:0.64540816 104:0.65542169 105:0.66496164 106:0.5193133 107:0.17159763 108:0.65797101 109:0.39953811 110:0.51724138 111:0.53387534 112:0.44676409 113:0.42822384 114:0.41530055 115:0.19469027 116:0.45330296 117:0.042959427 118:0.69364162 119:0.65931373 120:0.58073654 121:0.045092838 122:0.12371134 123:0.034146341 124:0.66978193 125:0.023809524 126:0.54696133 127:0.65196078 128:0.24070022 129:0.69181034 130:0.51764706 131:0.32478632 132:0.43870968 133:0.42570281 134:0.44128788 135:0.53642384 136:0.44011976 137:0.76744186 138:0.71253823 139:0.4296875 140:0.43407708 141:0.43609023 142:0.52066116 143:0.55795148 144:0.54380665 145:0.0028011204 146:0.011527378 147:0.090909091 148:0.3641791 149:0.35119048 150:0.62739726 151:0.58807588 152:0.3046595 153:0.37304075 154:0.011764706 155:0.3496732 156:0.012903226 157:0.03562341 158:0.60353535 159:0.038461538 160:0.03125 161:0.0052770449 162:0.25745257 163:0.2615894 164:0.66025641 165:0.71470588 
1 1:0.014388489 2:0.01010101 3:0.044176707 4:0.38970588 5:0.042253521 6:0.078125 7:0.54947917 8:0.56563246 9:0.65517241 10:0.57370518 11:0.74477958 12:0.38314176 13:0.84009547 14:0.68809524 15:0.56910569 16:0.17522659 17:0.86 18:0.48115299 19:0.39207921 20:0.36627907 21:0.46558704 22:0.52694611 23:0.36425339 24:0.020942408 25:0.033707865 26:0.56790123 27:0.59392265 28:0.36655949 29:0.47040498 30:0.14563107 31:0.0097402597 32:0.037671233 33:0.28862974 34:0.42176871 35:0.68668407 36:0.20962199 37:0.57393484 38:0.48739496 39:0.004 40:0.45135135 41:0.044117647 42:0.12215909 43:0.72984749 44:0.6745283 45:0.54736842 46:0.598234 47:0.54307116 48:0.55979644 49:0.51670379 50:0.4661191 51:0.42961609 52:0.60339943 53:0.45753425 54:0.46620047 55:0.10483871 56:0.44698545 57:0.5839599 58:0.13148789 59:0.46327684 60:0.51851852 61:0.45797101 63:0.19553073 64:0.052757794 65:0.48314607 66:0.081218274 67:0.01635514 68:0.27478754 69:0.0029498525 70:0.26111111 71:0.038910506 72:0.0080645161 73:0.78461538 74:0.51111111 75:0.63613861 76:0.234375 77:0.6405868 78:0.51470588 79:0.37777778 80:0.59069767 81:0.44217687 82:0.48913043 83:0.41650295 84:0.031518625 85:0.28888889 86:0.57840617 87:0.28971963 88:0.43396226 89:0.41240876 90:0.090487239 92:0.069518717 93:0.37853107 94:0.67261905 95:0.42920354 96:0.039408867 97:0.052486188 98:0.54805195 99:0.0098522167 100:0.51025641 101:0.036912752 102:0.16225166 103:0.70408163 104:0.66746988 105:0.67007673 106:0.50643777 107:0.83727811 108:0.81449275 109:0.40415704 110:0.50287356 111:0.53658537 112:0.37578288 113:0.36982968 114:0.38797814 115:0.21460177 116:0.39635535 117:0.040572792 118:0.76300578 119:0.6495098 120:0.57790368 121:0.066312997 122:0.14175258 123:0.085365854 124:0.41433022 125:0.35034014 126:0.37016575 127:0.74509804 128:0.28665208 129:0.73491379 130:0.67941176 131:0.7008547 132:0.73548387 133:0.51606426 134:0.45643939 135:0.54525386 136:0.33832335 137:0.56589147 138:0.30275229 139:0.45833333 140:0.50507099 141:0.42293233 142:0.42699725 143:0.46091644 144:0.49848943 145:0.0028011204 146:0.014409222 147:0.075757576 148:0.28955224 149:0.30357143 150:0.53972603 151:0.58807588 152:0.39426523 153:0.30094044 154:0.011764706 155:0.068627451 156:0.0064516129 157:0.063613232 158:0.46969697 159:0.030769231 160:0.0375 161:0.2823219 162:0.27913279 163:0.40397351 164:0.86538462 165:0.84705882 166:0.61889251 
1 1:0.014388489 2:0.01010101 3:0.092369478 4:0.38602941 6:0.075520833 7:0.578125 8:0.60620525 9:0.68169761 10:0.38645418 11:0.70765661 12:0.39463602 13:0.54176611 14:0.62619048 15:0.63414634 16:0.82779456 17:0.94 18:0.5232816 19:0.38019802 20:0.31782946 21:0.45951417 22:0.52994012 23:0.36877828 24:0.039267016 25:0.030898876 26:0.5654321 27:0.60497238 28:0.26688103 29:0.47040498 30:0.02184466 31:0.0064935065 32:0.030821918 33:0.28279883 34:0.16099773 35:0.68929504 36:0.20962199 37:0.58145363 38:0.69747899 39:0.036 40:0.50810811 41:0.044117647 42:0.12215909 43:0.49237473 44:0.66745283 45:0.53684211 46:0.72406181 47:0.25842697 48:0.55979644 49:0.51224944 50:0.33470226 51:0.43875686 52:0.58356941 53:0.48219178 54:0.52447552 55:0.10483871 56:0.44698545 57:0.60401003 58:0.11418685 59:0.46610169 60:0.24305556 61:0.44927536 63:0.19553073 64:0.023980815 65:0.48314607 66:0.081218274 67:0.014018692 68:0.46175637 69:0.017699115 70:0.33888889 71:0.042801556 72:0.012096774 73:0.54725275 74:0.49777778 75:0.4480198 76:0.19270833 77:0.65036675 78:0.66596639 79:0.37777778 80:0.57674419 81:0.46031746 82:0.51358696 83:0.41846758 84:0.034383954 85:0.14320988 86:0.59383033 87:0.28037383 88:0.41194969 89:0.40875912 90:0.020881671 92:0.069518717 93:0.37853107 94:0.45039683 95:0.41150442 96:0.049261084 97:0.049723757 98:0.56883117 99:0.073891626 100:0.54358974 101:0.033557047 102:0.1589404 103:0.53571429 104:0.60481928 105:0.67263427 106:0.71888412 107:0.44674556 108:0.6 109:0.38337182 110:0.49137931 111:0.49593496 112:0.37578288 113:0.39172749 114:0.40983607 115:0.15265487 116:0.39179954 117:0.045346062 118:0.73988439 119:0.65686275 120:0.56657224 121:0.029177719 122:0.14175258 123:0.075609756 124:0.41433022 125:0.32312925 126:0.37569061 127:0.37990196 128:0.087527352 129:0.39224138 130:0.67941176 131:0.7008547 132:0.74193548 133:0.51004016 134:0.45833333 135:0.53642384 136:0.64371257 137:0.83979328 138:0.80122324 139:0.46614583 140:0.50912779 141:0.41729323 142:0.53719008 143:0.5148248 144:0.54682779 145:0.0028011204 146:0.011527378 147:0.098484848 148:0.30746269 149:0.30952381 150:0.56712329 151:0.57723577 152:0.39426523 153:0.29780564 154:0.011764706 155:0.062091503 156:0.0064516129 157:0.44020356 158:0.41414141 159:0.030769231 160:0.0375 161:0.2823219 162:0.27642276 163:0.41059603 164:0.87179487 165:0.84705882 166:0.62540717 
1 1:0.26618705 2:0.8956229 3:0.78714859 4:0.53676471 6:0.76302083 7:0.48697917 8:0.20763723 9:0.59681698 11:0.0023201856 12:0.23371648 14:0.13095238 15:0.016260163 16:0.03021148 17:0.52857143 18:0.4767184 19:0.14059406 20:0.011627907 21:0.49190283 22:0.45209581 23:0.42986425 24:0.018324607 25:0.036516854 26:0.63209877 27:0.56906077 28:0.38906752 29:0.73831776 30:0.014563107 31:0.0032467532 32:0.42808219 33:0.65889213 35:0.45953003 36:0.12714777 37:0.68170426 38:0.6022409 39:0.92 40:0.67297297 41:0.96691176 42:0.40909091 44:0.056603774 45:0.094736842 46:0.004415011 47:0.097378277 48:0.70737913 49:0.17371938 51:0.36197441 52:0.51558074 53:0.50136986 54:0.027972028 55:0.10752688 56:0.52182952 57:0.50125313 58:0.84775087 59:0.8220339 61:0.1942029 62:0.49456522 63:0.66480447 64:0.052757794 65:0.98876404 66:0.17766497 67:0.0023364486 68:0.59490085 69:0.77581121 70:0.64444444 71:0.90661479 72:0.7016129 73:0.0087912088 74:0.20222222 75:0.0074257426 76:0.046875 77:0.53056235 78:0.10504202 79:0.18585859 80:0.041860465 81:0.56689342 82:0.42391304 83:0.36345776 84:0.10601719 86:0.57069409 87:0.93146417 88:0.59433962 89:0.59124088 90:0.15545244 91:0.24864865 92:0.37433155 93:0.38700565 94:0.001984127 95:0.5619469 96:0.073891626 97:0.86740331 98:0.3974026 99:0.87684729 100:0.48974359 101:0.96308725 102:0.38410596 103:0.0076530612 104:0.0072289157 105:0.030690537 106:0.13733906 107:0.085798817 108:0.73333333 109:0.0092378753 110:0.043103448 111:0.029810298 112:0.45929019 113:0.51094891 114:0.48087432 115:0.0066371681 116:0.011389522 117:0.047732697 118:0.78034682 119:0.58333333 120:0.58073654 121:0.034482759 122:0.23969072 123:0.26585366 124:0.53894081 125:0.15646258 126:0.1878453 128:0.0065645514 130:0.71764706 131:0.76495727 132:0.80322581 133:0.50803213 134:0.33333333 135:0.26710817 136:0.63473054 137:0.56330749 138:0.88685015 139:0.5234375 140:0.36511156 141:0.30075188 142:0.68319559 143:0.44743935 144:0.44410876 145:0.0028011204 146:0.011527378 147:0.12878788 148:0.7761194 149:0.89285714 150:0.62191781 151:0.46070461 152:0.70609319 153:0.37304075 154:0.78823529 155:0.47058824 156:0.71290323 157:0.020356234 158:0.0075757576 159:0.030769231 160:0.496875 161:0.41424802 162:0.38753388 163:0.53642384 164:0.55128205 165:0.32941176 166:0.40390879 
1 1:0.20143885 2:0.9023569 3:0.81124498 4:0.56617647 5:0.014084507 6:0.70572917 7:0.45833333 8:0.23627685 9:0.55437666 10:0.011952191 11:0.023201856 12:0.15708812 13:0.023866348 14:0.1 15:0.032520325 16:0.069486405 17:0.67142857 18:0.3902439 19:0.21188119 20:0.003875969 21:0.36437247 22:0.46107784 23:0.51357466 24:0.0052356021 25:0.036516854 26:0.63209877 27:0.66574586 28:0.054662379 29:0.62305296 30:0.024271845 31:0.0032467532 32:0.36643836 33:0.58309038 34:0.011337868 35:0.50913838 36:0.19243986 37:0.76441103 38:0.68627451 39:0.82 40:0.57027027 41:0.99632353 42:0.47443182 43:0.019607843 44:0.070754717 45:0.055263158 46:0.024282561 47:0.6741573 48:0.6437659 49:0.27616926 50:0.0041067762 51:0.24497258 52:0.46458924 53:0.5890411 54:0.0093240093 55:0.099462366 56:0.55093555 57:0.46616541 58:0.69896194 59:0.74011299 60:0.016203704 61:0.095652174 62:0.5625 63:0.49162011 64:0.06235012 65:0.97378277 66:0.2284264 67:0.0023364486 68:0.58923513 69:0.71091445 70:0.56666667 71:0.93774319 72:0.81854839 73:0.032967033 74:0.12666667 75:0.022277228 76:0.078125 77:0.59657702 78:0.11134454 79:0.18383838 80:0.013953488 81:0.45351474 82:0.45108696 83:0.35559921 84:0.094555874 85:0.0024691358 86:0.55269923 87:0.8317757 88:0.35220126 89:0.46715328 90:0.13225058 91:0.24054054 92:0.2513369 93:0.37570621 94:0.015873016 95:0.66814159 96:0.088669951 97:0.86740331 98:0.43636364 99:0.86699507 100:0.40769231 101:0.98322148 102:0.35430464 103:0.033163265 104:0.043373494 105:0.030690537 106:0.16094421 107:0.40236686 108:0.79130435 109:0.013856813 110:0.037356322 111:0.021680217 112:0.4091858 113:0.4379562 114:0.53551913 115:0.0022123894 116:0.0022779043 117:0.040572792 118:0.59248555 119:0.47794118 120:0.47875354 121:0.039787798 122:0.13917526 123:0.17560976 124:0.75700935 125:0.14965986 126:0.22651934 127:0.0098039216 128:0.015317287 129:0.012931034 130:0.77647059 131:0.84615385 132:0.36774194 133:0.37751004 134:0.18181818 135:0.19426049 136:0.67065868 137:0.59173127 138:0.94495413 139:0.64322917 140:0.50912779 141:0.39849624 142:0.59504132 143:0.40161725 144:0.44108761 145:0.0028011204 146:0.011527378 147:0.068181818 148:0.70447761 149:0.81845238 150:0.64657534 151:0.45257453 152:0.66666667 153:0.31974922 154:0.90588235 155:0.4869281 156:0.80645161 157:0.043256997 158:0.03030303 159:0.058974359 160:0.471875 161:0.39841689 162:0.40108401 163:0.54635762 164:0.57692308 165:0.34411765 166:0.48208469 
1 1:0.20143885 2:0.90572391 3:0.80722892 4:0.99632353 5:0.014084507 6:0.10416667 7:0.45572917 8:0.23627685 9:0.55437666 10:0.013944223 11:0.025522042 12:0.15708812 13:0.028639618 14:0.1 15:0.032520325 16:0.072507553 17:0.67428571 18:0.38802661 19:0.21386139 20:0.0019379845 21:0.36437247 22:0.46107784 23:0.51357466 25:0.036516854 26:0.63209877 27:0.66574586 28:0.054662379 29:0.54517134 30:0.031553398 31:0.0032467532 32:0.3630137 33:0.58017493 34:0.015873016 35:0.4308094 36:0.19587629 38:0.68627451 39:0.82 40:0.57027027 41:0.99632353 42:0.47443182 43:0.021786492 44:0.075471698 45:0.057894737 46:0.026490066 47:0.67041198 48:0.6437659 49:0.27839644 50:0.0041067762 51:0.24497258 52:0.46458924 53:0.5890411 54:0.0046620047 55:0.5 56:0.54885655 57:0.46616541 58:0.70242215 59:0.29096045 60:0.023148148 61:0.62898551 62:0.5625 63:0.4972067 64:0.035971223 65:0.56554307 66:0.2284264 67:0.0023364486 68:0.58923513 69:0.71091445 70:0.56944444 71:0.93774319 72:0.81854839 73:0.037362637 74:0.12666667 75:0.024752475 76:0.083333333 77:0.59657702 78:0.11344538 79:0.18383838 80:0.0093023256 81:0.45351474 82:0.44836957 83:0.35559921 84:0.85100287 85:0.0074074074 86:0.55269923 87:0.8317757 88:0.35220126 89:0.80656934 90:0.041763341 91:0.24324324 92:0.24064171 93:0.54237288 94:0.017857143 95:0.67256637 96:0.091133005 97:0.14917127 98:0.43896104 99:0.86699507 100:0.40769231 101:0.98657718 102:0.35099338 103:0.038265306 104:0.048192771 105:0.033248082 106:0.16094421 107:0.39940828 108:0.79130435 109:0.013856813 110:0.037356322 111:0.01897019 112:0.4091858 113:0.4379562 114:0.53551913 117:0.040572792 118:0.59248555 119:0.47794118 120:0.4815864 121:0.042440318 122:0.17525773 123:0.051219512 124:0.75700935 125:0.1462585 126:0.22651934 127:0.012254902 128:0.019693654 129:0.015086207 130:0.47058824 131:0.84615385 132:0.051612903 133:0.37550201 134:0.18181818 135:0.19426049 136:0.67365269 137:0.58914729 138:0.94801223 139:0.64322917 140:0.50912779 141:0.39849624 142:0.59779614 143:0.40161725 144:0.44410876 145:0.0028011204 146:0.011527378 147:0.060606061 148:0.70447761 149:0.81845238 150:0.64657534 151:0.45799458 152:0.41218638 153:0.47648903 154:0.90588235 155:0.48366013 156:0.80645161 157:0.048346056 158:0.032828283 159:0.038461538 160:0.471875 161:0.40105541 162:0.40108401 163:0.54966887 164:0.57692308 165:0.34411765 166:0.48859935 
1 1:0.26618705 2:0.8989899 3:0.78313253 4:0.96691176 6:0.11979167 7:0.48697917 8:0.20763723 9:0.59681698 10:0.0039840637 11:0.0069605568 12:0.23371648 13:0.0023866348 14:0.13095238 15:0.01897019 16:0.036253776 17:0.52571429 18:0.4767184 19:0.14059406 20:0.0096899225 21:0.49190283 22:0.45209581 23:0.42986425 24:0.013089005 25:0.036516854 26:0.63209877 27:0.56906077 28:0.39228296 29:0.41121495 30:0.024271845 31:0.0032467532 32:0.42123288 33:0.65597668 34:0.0045351474 35:0.39164491 36:0.13402062 38:0.59943978 39:0.92 40:0.67567568 41:0.96691176 42:0.40625 43:0.0043572985 44:0.061320755 45:0.094736842 46:0.0066225166 47:0.097378277 48:0.70992366 49:0.17371938 51:0.36197441 52:0.5184136 53:0.50136986 54:0.025641026 55:0.29301075 56:0.52390852 57:0.49874687 58:0.85121107 59:0.37288136 60:0.0069444444 61:0.71304348 62:0.49456522 63:0.66480447 64:0.028776978 65:0.57303371 66:0.18274112 67:0.0023364486 68:0.59206799 69:0.77286136 70:0.64444444 71:0.90661479 72:0.7016129 73:0.010989011 74:0.20222222 75:0.0099009901 76:0.046875 77:0.53056235 78:0.10714286 79:0.18585859 80:0.037209302 81:0.56689342 82:0.42119565 83:0.36345776 84:0.83381089 85:0.0024691358 86:0.57069409 87:0.93146417 88:0.59748428 89:0.69708029 90:0.034802784 91:0.25135135 92:0.36898396 93:0.57344633 94:0.003968254 95:0.5619469 96:0.078817734 97:0.091160221 98:0.3974026 99:0.8817734 100:0.48974359 101:0.96308725 102:0.38410596 103:0.012755102 104:0.014457831 105:0.033248082 106:0.13733906 107:0.088757396 108:0.73333333 109:0.011547344 110:0.043103448 111:0.027100271 112:0.45929019 113:0.51094891 114:0.48087432 115:0.0044247788 116:0.0091116173 117:0.042959427 118:0.78034682 119:0.58333333 120:0.57790368 121:0.039787798 122:0.095360825 123:0.058536585 124:0.54517134 125:0.15306122 126:0.18232044 127:0.0024509804 128:0.010940919 129:0.0021551724 130:0.47058824 131:0.76923077 132:0.80322581 133:0.50803213 134:0.33333333 135:0.26710817 136:0.63473054 137:0.56589147 138:0.88685015 139:0.52083333 140:0.36713996 141:0.30075188 142:0.68044077 143:0.44743935 144:0.44410876 145:0.0028011204 146:0.011527378 147:0.12121212 148:0.77313433 149:0.88988095 150:0.62465753 151:0.45799458 152:0.37634409 153:0.44514107 154:0.78823529 155:0.47058824 156:0.71612903 157:0.027989822 158:0.012626263 159:0.025641026 160:0.496875 161:0.41688654 162:0.38753388 163:0.53642384 164:0.55128205 165:0.32941176 166:0.41042345 
1 1:0.22302158 2:0.9023569 3:0.78313253 4:0.56617647 6:0.66666667 7:0.48177083 8:0.2124105 9:0.59681698 10:0.20517928 12:0.23754789 13:0.019093079 14:0.12619048 15:0.010840108 16:0.027190332 17:0.51714286 18:0.47450111 19:0.14257426 20:0.023255814 21:0.49392713 22:0.45209581 23:0.4321267 24:0.057591623 25:0.37640449 26:0.62962963 27:0.5718232 28:0.40192926 29:0.5576324 30:0.34708738 31:0.0032467532 32:0.39041096 33:0.56851312 34:0.20181406 35:0.50913838 36:0.13058419 37:0.78947368 38:0.59383754 39:0.92 40:0.67837838 41:0.97058824 42:0.40909091 43:0.091503268 44:0.051886792 45:0.092105263 47:0.08988764 48:0.70483461 49:0.17594655 50:0.090349076 51:0.36563071 52:0.5184136 53:0.49589041 54:0.03030303 55:0.3172043 56:0.52390852 57:0.50125313 58:0.85121107 59:0.6920904 60:0.41435185 61:0.10144928 62:0.49728261 63:0.4972067 64:0.30935252 65:0.96629213 66:0.21827411 67:0.0023364486 68:0.59206799 69:0.7699115 70:0.64166667 71:0.90661479 72:0.7016129 73:0.0043956044 74:0.20222222 75:0.0099009901 76:0.041666667 77:0.52811736 78:0.10084034 79:0.18787879 80:0.044186047 81:0.56689342 82:0.41847826 83:0.36738703 84:0.23495702 85:0.39753086 86:0.56812339 87:0.92834891 88:0.61006289 89:0.44525547 90:0.3387471 91:0.25675676 92:0.32620321 93:0.37570621 94:0.003968254 95:0.69911504 96:0.051724138 97:0.85911602 98:0.39480519 99:0.8817734 100:0.48974359 101:0.96644295 102:0.37748344 103:0.0025510204 105:0.025575448 106:0.13090129 107:0.079881657 108:0.72463768 109:0.0069284065 110:0.043103448 111:0.027100271 112:0.46137787 113:0.513382 114:0.48360656 115:0.37168142 116:0.21640091 117:0.34128878 118:0.78323699 119:0.58333333 120:0.58073654 121:0.36604775 122:0.31443299 123:0.33658537 124:0.76012461 125:0.17346939 126:0.28176796 127:0.36519608 128:0.32822757 129:0.075431034 130:0.80294118 131:0.85042735 132:0.43548387 133:0.50803213 134:0.33522727 135:0.26490066 136:0.63772455 137:0.57105943 138:0.89602446 139:0.51822917 140:0.36511156 141:0.30263158 142:0.68044077 143:0.44474394 144:0.44410876 145:0.0028011204 146:0.0086455331 147:0.14393939 148:0.77313433 149:0.88988095 150:0.63287671 151:0.45528455 152:0.64874552 153:0.30721003 154:0.79215686 155:0.46405229 156:0.71935484 157:0.015267176 158:0.0075757576 159:0.074358974 160:0.49375 161:0.42216359 162:0.39837398 163:0.54635762 164:0.56410256 165:0.32647059 166:0.43648208 
1 1:0.20143885 2:0.9023569 3:0.81124498 4:0.56985294 5:0.014084507 6:0.65104167 7:0.45572917 8:0.23627685 9:0.55437666 10:0.21314741 11:0.020881671 12:0.15517241 13:0.057279236 14:0.097619048 15:0.029810298 16:0.066465257 17:0.67142857 18:0.3902439 19:0.21188119 20:0.015503876 21:0.36437247 22:0.45808383 23:0.51131222 24:0.031413613 25:0.37359551 26:0.63209877 27:0.66574586 28:0.054662379 29:0.55140187 30:0.35679612 31:0.0032467532 32:0.35616438 33:0.54810496 34:0.23582766 35:0.51697128 36:0.19243986 37:0.78947368 38:0.68627451 39:0.82 40:0.57027027 41:1 42:0.47443182 43:0.11546841 44:0.068396226 45:0.055263158 46:0.022075055 47:0.67041198 48:0.6437659 49:0.27839644 50:0.094455852 51:0.24497258 52:0.46458924 53:0.5890411 54:0.0093240093 55:0.31182796 56:0.55093555 57:0.46616541 58:0.69896194 59:0.68079096 60:0.42361111 61:0.41449275 62:0.5625 63:0.5027933 64:0.31894484 65:0.96629213 66:0.23350254 67:0.0023364486 68:0.58923513 69:0.71091445 70:0.56944444 71:0.94163424 72:0.81854839 73:0.030769231 74:0.12444444 75:0.027227723 76:0.078125 77:0.59657702 78:0.1092437 79:0.18181818 80:0.013953488 81:0.45351474 82:0.44836957 83:0.35559921 84:0.22063037 85:0.4 86:0.55269923 87:0.83489097 88:0.35534591 89:0.44525547 90:0.34338747 91:0.23783784 92:0.23529412 93:0.36158192 94:0.023809524 95:0.7300885 96:0.081280788 97:0.85082873 98:0.43896104 99:0.86699507 100:0.40769231 101:0.98657718 102:0.35099338 103:0.030612245 104:0.040963855 105:0.028132992 106:0.15879828 107:0.39940828 108:0.79130435 109:0.011547344 110:0.037356322 111:0.021680217 112:0.4091858 113:0.4379562 114:0.53551913 115:0.36725664 116:0.19362187 117:0.33174224 118:0.59248555 119:0.47794118 120:0.4815864 121:0.37135279 122:0.31185567 123:0.33658537 124:0.76012461 125:0.15646258 126:0.24309392 127:0.38235294 128:0.34354486 129:0.10344828 130:0.81176471 131:0.83333333 132:0.4483871 133:0.37751004 134:0.18181818 135:0.19205298 136:0.67365269 137:0.58914729 138:0.94801223 139:0.64322917 140:0.50912779 141:0.39849624 142:0.59779614 143:0.40161725 144:0.44410876 145:0.0028011204 146:0.0086455331 147:0.075757576 148:0.70746269 149:0.82142857 150:0.64657534 151:0.48238482 152:0.65591398 153:0.31347962 154:0.90588235 155:0.48366013 156:0.80645161 157:0.038167939 158:0.032828283 159:0.11794872 160:0.471875 161:0.40369393 162:0.40108401 163:0.55298013 164:0.58333333 165:0.34117647 166:0.49185668 
1 1:0.25899281 2:0.9023569 3:0.81927711 4:0.94485294 5:0.014084507 6:0.31770833 7:0.45572917 8:0.22911695 9:0.54907162 10:0.21912351 11:0.030162413 12:0.15900383 13:0.069212411 14:0.10238095 15:0.032520325 16:0.078549849 17:0.67428571 18:0.39467849 19:0.21386139 20:0.011627907 21:0.36639676 22:0.46107784 23:0.5158371 24:0.010471204 25:0.37359551 26:0.62962963 27:0.66022099 28:0.048231511 29:0.38629283 30:0.36407767 31:0.0064935065 32:0.39041096 33:0.65306122 34:0.2585034 35:0.38642298 36:0.17869416 38:0.68347339 39:0.824 40:0.57297297 41:1 42:0.47443182 43:0.12418301 44:0.080188679 45:0.057894737 46:0.028697572 47:0.6741573 48:0.6437659 49:0.27616926 50:0.094455852 51:0.24862888 52:0.46175637 53:0.59178082 54:0.0023310023 55:0.38978495 56:0.54677755 57:0.46867168 58:0.70588235 59:0.40677966 60:0.43055556 61:0.76521739 62:0.55434783 63:0.70949721 64:0.29016787 65:0.56928839 66:0.19796954 67:0.0023364486 68:0.58923513 69:0.71386431 70:0.56944444 71:0.94552529 72:0.81451613 73:0.041758242 74:0.12666667 75:0.02970297 76:0.088541667 77:0.59413203 78:0.11764706 79:0.18787879 80:0.0023255814 81:0.45124717 82:0.45108696 83:0.35952849 84:0.81088825 85:0.40246914 86:0.55012853 87:0.8411215 88:0.33647799 89:0.63138686 90:0.33178654 91:0.22972973 92:0.29411765 93:0.58757062 94:0.031746032 95:0.5840708 96:0.10837438 97:0.11049724 98:0.43376623 99:0.86699507 100:0.41282051 101:0.98657718 102:0.36754967 103:0.038265306 104:0.05060241 105:0.035805627 106:0.16738197 107:0.41715976 108:0.79710145 109:0.011547344 110:0.037356322 111:0.016260163 112:0.41336117 113:0.44038929 114:0.53825137 115:0.36504425 116:0.17084282 117:0.32458234 118:0.58381503 119:0.4754902 120:0.45892351 121:0.37400531 122:0.30154639 123:0.30731707 124:0.5046729 125:0.12244898 126:0.077348066 127:0.39460784 128:0.35667396 129:0.12284483 130:0.47058824 131:0.74786325 132:0.82258065 133:0.37550201 134:0.18371212 135:0.19646799 136:0.66766467 137:0.5994832 138:0.94495413 139:0.64322917 140:0.50709939 141:0.40037594 142:0.58953168 143:0.39892183 144:0.44108761 145:0.0028011204 146:0.59942363 147:0.053030303 148:0.71641791 149:0.83035714 150:0.64931507 151:0.46070461 152:0.37992832 153:0.43260188 154:0.90196078 155:0.49346405 156:0.8 157:0.050890585 158:0.045454545 159:0.071794872 160:0.46875 161:0.39313984 162:0.40108401 163:0.54966887 164:0.57051282 165:0.33235294 166:0.45928339 
1 1:0.28057554 2:0.8956229 3:0.78714859 4:0.94485294 6:0.3125 7:0.48697917 8:0.2052506 9:0.59681698 10:0.21115538 11:0.0069605568 12:0.23371648 13:0.035799523 14:0.13095238 15:0.016260163 16:0.036253776 17:0.52857143 18:0.4767184 19:0.13861386 20:0.021317829 21:0.49190283 22:0.45209581 23:0.42986425 24:0.034031414 25:0.37359551 26:0.63209877 27:0.56906077 28:0.38906752 29:0.38629283 30:0.35436893 31:0.0064935065 32:0.43150685 33:0.65014577 34:0.22902494 35:0.37859008 36:0.13058419 38:0.6022409 39:0.92 40:0.67567568 41:0.97058824 42:0.40909091 43:0.10239651 44:0.061320755 45:0.094736842 46:0.0066225166 47:0.097378277 48:0.70992366 49:0.17371938 50:0.092402464 51:0.36197441 52:0.51558074 53:0.50136986 54:0.023310023 55:0.38709677 56:0.52182952 57:0.49874687 58:0.84775087 59:0.40960452 60:0.4212963 61:0.77391304 62:0.49456522 63:0.70949721 64:0.27098321 65:0.56928839 66:0.17766497 67:0.0023364486 68:0.59490085 69:0.77286136 70:0.64444444 71:0.91050584 72:0.7016129 73:0.010989011 74:0.20222222 75:0.014851485 76:0.052083333 77:0.53056235 78:0.10714286 79:0.18383838 80:0.034883721 81:0.56462585 82:0.42119565 83:0.36345776 84:0.79942693 85:0.4 86:0.57069409 87:0.93146417 88:0.59748428 89:0.62773723 90:0.32018561 91:0.24594595 92:0.37433155 93:0.59887006 94:0.011904762 95:0.61946903 96:0.086206897 97:0.096685083 98:0.3974026 99:0.8817734 100:0.48974359 101:0.96308725 102:0.38410596 103:0.012755102 104:0.014457831 105:0.033248082 106:0.13948498 107:0.088757396 108:0.73333333 109:0.0092378753 110:0.043103448 111:0.024390244 112:0.45720251 113:0.51094891 114:0.48087432 115:0.36946903 116:0.19817768 117:0.33412888 118:0.78034682 119:0.58333333 120:0.57790368 121:0.36870027 122:0.29896907 123:0.3 124:0.41433022 125:0.1462585 126:0.12154696 127:0.37990196 128:0.34135667 129:0.092672414 130:0.47058824 131:0.71367521 132:0.83548387 133:0.50803213 134:0.33333333 135:0.26931567 136:0.63473054 137:0.56589147 138:0.88990826 139:0.52083333 140:0.36713996 141:0.29887218 142:0.68319559 143:0.44743935 144:0.44410876 145:0.0028011204 146:0.0086455331 147:0.12121212 148:0.7761194 149:0.89285714 150:0.62465753 151:0.48780488 152:0.37992832 153:0.44200627 154:0.78823529 155:0.47385621 156:0.71290323 157:0.030534351 158:0.017676768 159:0.048717949 160:0.496875 161:0.41424802 162:0.38753388 163:0.5397351 164:0.55128205 165:0.32352941 166:0.40390879 
1 1:0.4028777 4:0.95588235 6:0.6015625 7:0.033854167 8:0.042959427 9:0.018567639 10:0.19322709 11:0.0046403712 12:0.017241379 13:0.023866348 14:0.033333333 15:0.024390244 16:0.036253776 17:0.028571429 18:0.013303769 19:0.033663366 20:0.003875969 21:0.0020242915 22:0.02994012 24:0.034031414 25:0.26404494 26:0.019753086 27:0.016574586 28:0.028938907 29:0.60124611 30:0.28883495 31:0.0064935065 32:0.16438356 33:0.37900875 34:0.029478458 35:0.63707572 36:0.38831615 37:0.67669173 38:0.016806723 39:0.044 40:0.016216216 41:0.011029412 42:0.42897727 43:0.10675381 44:0.018867925 45:0.039473684 46:0.0066225166 47:0.011235955 48:0.0050890585 49:0.051224944 50:0.059548255 51:0.0073126143 52:0.025495751 53:0.021917808 54:0.025641026 55:0.6155914 56:0.012474012 57:0.025062657 59:0.63276836 60:0.43055556 61:0.74202899 63:0.50837989 64:0.55155875 65:0.9588015 66:0.26903553 67:0.0023364486 68:0.0084985836 69:0.63716814 70:0.0083333333 71:0.0077821012 72:0.0080645161 73:0.0087912088 74:0.031111111 75:0.012376238 76:0.041666667 77:0.02200489 78:0.014705882 79:0.022222222 80:0.039534884 82:0.032608696 83:0.0039292731 84:0.81948424 85:0.34074074 86:0.025706941 87:0.0062305296 88:0.025157233 89:0.66788321 90:0.46635731 92:0.28877005 93:0.5819209 94:0.003968254 95:0.34955752 96:0.57881773 97:0.67403315 98:0.033766234 99:0.0049261084 100:0.017948718 101:0.0033557047 102:0.36092715 103:0.0076530612 104:0.014457831 105:0.020460358 106:0.012875536 107:0.01183432 108:0.0086956522 109:0.0092378753 110:0.034482759 111:0.037940379 113:0.00243309 114:0.013661202 115:0.2300885 116:0.08428246 117:0.32696897 118:0.020231214 119:0.036764706 120:0.016997167 121:0.25994695 122:0.65206186 123:0.53170732 124:0.53894081 125:0.074829932 126:0.59668508 127:0.44607843 128:0.32166302 129:0.064655172 130:0.88529412 131:0.4957265 132:0.69677419 133:0.0060240964 134:0.009469697 135:0.024282561 136:0.005988024 137:0.023255814 138:0.003058104 139:0.0078125 140:0.016227181 141:0.0093984962 142:0.016528926 143:0.029649596 144:0.036253776 145:0.0056022409 146:0.014409222 147:0.10606061 148:0.0059701493 149:0.005952381 150:0.016438356 151:0.44173442 152:0.73835125 153:0.52978056 154:0.0078431373 155:0.32026144 156:0.0032258065 157:0.030534351 158:0.0075757576 159:0.56923077 160:0.328125 161:0.72559367 162:0.53116531 163:0.22516556 164:0.55128205 165:0.63823529 166:0.13680782 
1 1:0.30935252 2:0.01010101 3:0.0040160643 4:0.88970588 6:0.68489583 7:0.03125 8:0.033412888 9:0.023872679 10:0.051792829 11:0.018561485 12:0.021072797 13:0.023866348 14:0.057142857 15:0.032520325 16:0.054380665 17:0.034285714 18:0.017738359 19:0.02970297 20:0.011627907 21:0.0060728745 22:0.02994012 24:0.002617801 25:0.26404494 26:0.014814815 27:0.013812155 28:0.022508039 29:0.62928349 30:0.35194175 31:0.058441558 32:0.94520548 33:0.56268222 34:0.34013605 35:0.45430809 36:0.32989691 37:0.77694236 38:0.019607843 39:0.004 40:0.013513514 41:0.018382353 42:0.67045455 43:0.047930283 44:0.049528302 45:0.05 46:0.017660044 47:0.018726592 48:0.0076335878 49:0.037861915 50:0.036960986 51:0.010968921 52:0.025495751 53:0.019178082 54:0.013986014 55:0.64784946 56:0.01039501 57:0.020050125 59:0.72316384 60:0.33101852 61:0.83768116 62:0.74456522 63:0.26256983 64:0.38609113 65:0.97003745 66:0.29949239 67:0.0023364486 68:0.0084985836 69:0.0029498525 70:0.0083333333 71:0.011673152 72:0.064516129 73:0.021978022 74:0.046666667 75:0.0099009901 76:0.057291667 77:0.026894866 78:0.025210084 79:0.022222222 80:0.020930233 81:0.0022675737 82:0.029891304 83:0.0058939096 84:0.67335244 85:0.2617284 86:0.023136247 87:0.0062305296 88:0.01572327 89:0.62773723 90:0.3549884 91:0.57837838 92:0.68983957 93:0.72881356 94:0.011904762 95:0.36283186 96:0.096059113 97:0.86187845 98:0.036363636 99:0.0049261084 100:0.017948718 101:0.0067114094 102:0.54966887 103:0.022959184 104:0.036144578 105:0.035805627 106:0.02360515 107:0.017751479 108:0.014492754 109:0.011547344 110:0.037356322 111:0.029810298 112:0.0020876827 113:0.00243309 114:0.010928962 115:0.33849558 116:0.22323462 117:0.29594272 118:0.014450867 119:0.031862745 120:0.014164306 121:0.27055703 122:0.64690722 123:0.47804878 124:0.59501558 125:0.83333333 126:0.43093923 127:0.20098039 128:0.40700219 129:0.040948276 130:0.79117647 131:0.52136752 132:0.59032258 133:0.012048193 134:0.018939394 135:0.035320088 136:0.005988024 137:0.025839793 138:0.006116208 139:0.0052083333 140:0.012170385 141:0.007518797 142:0.016528926 143:0.029649596 144:0.036253776 145:0.0056022409 146:0.017291066 147:0.075757576 148:0.0089552239 149:0.005952381 150:0.01369863 151:0.45257453 152:0.65949821 153:0.59561129 154:0.29019608 155:0.87254902 156:0.72258065 157:0.048346056 158:0.02020202 159:0.087179487 160:0.215625 161:0.24010554 162:0.47154472 163:0.35430464 164:0.70512821 165:0.72941176 166:0.5732899 
1 1:0.30215827 3:0.0040160643 4:0.86029412 5:0.0028169014 6:0.69270833 7:0.026041667 8:0.031026253 9:0.026525199 10:0.047808765 11:0.018561485 12:0.019157088 13:0.021479714 14:0.054761905 15:0.032520325 16:0.054380665 17:0.034285714 18:0.017738359 19:0.025742574 20:0.011627907 21:0.008097166 22:0.026946108 24:0.0052356021 25:0.26404494 26:0.012345679 27:0.011049724 28:0.019292605 29:0.63551402 30:0.35679612 31:0.0064935065 32:0.6609589 33:0.58892128 34:0.29251701 35:0.45691906 36:0.604811 37:0.77694236 38:0.016806723 39:0.004 40:0.010810811 41:0.018382353 42:0.09375 43:0.045751634 44:0.049528302 45:0.047368421 46:0.01986755 47:0.018726592 48:0.012722646 49:0.033407572 50:0.032854209 51:0.010968921 52:0.028328612 53:0.016438356 54:0.011655012 55:0.66666667 56:0.0083160083 57:0.015037594 59:0.7259887 60:0.32638889 61:0.83478261 62:0.0625 63:0.29050279 64:0.38609113 65:0.97003745 66:0.5177665 67:0.0023364486 68:0.0056657224 69:0.01179941 70:0.0083333333 71:0.015564202 72:0.0080645161 73:0.024175824 74:0.044444444 75:0.012376238 76:0.0625 77:0.031784841 78:0.025210084 79:0.02020202 80:0.020930233 81:0.0068027211 82:0.027173913 83:0.0058939096 84:0.67048711 85:0.25432099 86:0.017994859 87:0.0031152648 88:0.01572327 89:0.62043796 90:0.35730858 91:0.0081081081 92:0.42780749 93:0.73446328 94:0.011904762 95:0.42477876 96:0.74137931 97:0.86740331 98:0.036363636 99:0.0049261084 100:0.012820513 101:0.010067114 102:0.27483444 103:0.025510204 104:0.038554217 105:0.035805627 106:0.02360515 107:0.020710059 108:0.017391304 109:0.011547344 110:0.034482759 111:0.027100271 112:0.0020876827 113:0.00486618 114:0.010928962 115:0.32964602 116:0.22323462 117:0.29832936 118:0.011560694 119:0.024509804 120:0.011331445 121:0.27586207 122:0.6443299 123:0.43658537 124:0.60124611 125:0.66666667 126:0.3480663 127:0.17156863 128:0.404814 129:0.036637931 130:0.78823529 131:0.63247863 132:0.78709677 133:0.014056225 134:0.018939394 135:0.033112583 136:0.005988024 137:0.028423773 138:0.006116208 139:0.0026041667 140:0.010141988 141:0.007518797 142:0.013774105 143:0.026954178 144:0.033232628 145:0.0028011204 146:0.014409222 147:0.075757576 148:0.0059701493 149:0.005952381 150:0.0082191781 151:0.48238482 152:0.65949821 153:0.60188088 154:0.015686275 155:0.43464052 156:0.058064516 157:0.045801527 158:0.022727273 159:0.074358974 160:0.003125 161:0.35092348 162:0.29268293 163:0.54304636 164:0.62820513 165:0.3 166:0.11074919 
1 1:0.34532374 3:0.032128514 4:0.53308824 5:0.050704225 6:0.24739583 7:0.33072917 8:0.53221957 9:1 10:0.38844622 11:0.63805104 12:0.4789272 13:0.6300716 14:0.52857143 15:0.56910569 16:0.057401813 17:0.97428571 18:0.50110865 19:0.6 20:0.3624031 21:0.46356275 22:0.75149701 23:0.58371041 24:0.04973822 25:0.011235955 26:0.51358025 27:0.33149171 28:0.025723473 29:0.46417445 30:0.024271845 31:0.0032467532 32:0.87671233 33:0.24198251 34:0.12471655 35:0.31070496 36:0.24054983 37:0.012531328 38:0.42016807 39:0.14 40:0.38378378 41:0.014705882 42:0.73863636 43:0.52287582 44:0.63207547 45:0.51842105 46:0.47019868 47:0.98876404 48:0.81170483 49:0.63919822 50:0.37371663 51:0.43510055 52:0.92067989 53:0.62739726 54:0.55944056 55:0.17204301 56:0.46985447 57:0.32581454 59:0.43502825 60:0.24074074 61:0.26086957 62:0.66032609 63:0.34078212 64:0.011990408 65:0.53558052 66:0.30964467 67:0.0023364486 68:0.24929178 69:0.20058997 70:0.24444444 71:0.015564202 72:0.11693548 73:0.61978022 74:0.49111111 75:0.56435644 76:0.067708333 77:0.98288509 78:0.47689076 79:0.56363636 80:0.58604651 81:0.67800454 82:0.44021739 83:0.4459725 84:0.23782235 85:0.13333333 86:0.3933162 87:0.087227414 88:0.42138365 89:0.51094891 90:0.016241299 91:0.035135135 92:0.60962567 93:0.35310734 94:0.42261905 95:0.42477876 96:0.068965517 97:0.28729282 98:0.83896104 99:0.0098522167 100:0.33589744 101:0.0067114094 102:0.57284768 103:0.64030612 104:0.64337349 105:0.54987212 106:0.35193133 107:0.25443787 108:0.77971014 109:0.43187067 110:0.54597701 111:0.48509485 112:0.46137787 113:0.6593674 114:0.66666667 115:0.17699115 116:0.47835991 117:0.031026253 118:0.4017341 119:0.28676471 120:0.082152975 121:0.013262599 122:0.12886598 123:0.065853659 124:0.1588785 125:0.65306122 126:0.1878453 127:0.40931373 128:0.078774617 129:0.44396552 130:0.4 131:0.55128205 132:0.083870968 133:0.51606426 134:0.49242424 135:0.52759382 136:0.3502994 137:0.68475452 138:0.74923547 139:0.6953125 140:0.5030426 141:0.46992481 142:0.36639118 143:0.38814016 144:0.70090634 145:0.0056022409 146:0.014409222 147:0.090909091 148:0.22985075 149:0.16369048 150:0.39178082 151:0.27371274 152:0.44802867 153:0.37304075 154:0.49019608 155:0.87908497 156:0.70967742 157:0.03562341 158:0.16161616 159:0.012820513 160:0.50625 161:0.50131926 162:0.54200542 163:0.25165563 164:0.66025641 165:0.77352941 166:0.46254072 
1 1:0.37410072 2:0.31986532 3:0.58634538 4:0.50735294 6:0.28125 7:0.0078125 8:0.66587112 9:0.034482759 10:0.57768924 11:0.52436195 12:0.42528736 13:0.51551313 14:0.62380952 15:0.57181572 16:0.17220544 17:0.025714286 18:0.61419069 19:0.52871287 20:0.4127907 21:0.25708502 22:0.011976048 23:0.18325792 24:0.87172775 25:0.51404494 26:0.12345679 27:0.11049724 28:0.0096463023 29:0.21495327 30:0.33980583 31:0.0032467532 32:0.15068493 33:0.3090379 34:0.43764172 35:0.0026109661 36:0.49484536 38:0.1092437 39:0.468 40:0.14594595 41:0.51470588 42:0.36079545 43:0.52505447 44:0.62028302 45:0.51842105 46:0.43267108 47:0.026217228 48:0.26717557 49:0.66146993 50:0.50102669 51:0.35100548 52:0.014164306 53:0.046575342 54:0.44755245 55:0.93010753 56:0.43035343 57:0.0050125313 58:0.076124567 59:0.25706215 60:0.68518519 61:0.11594203 62:0.17391304 63:0.53631285 64:0.29496403 65:0.0037453184 66:0.37563452 67:0.0023364486 68:0.44192635 69:0.48082596 70:0.43611111 71:0.54863813 72:0.46370968 73:0.45054945 74:0.54444444 75:0.63613861 76:0.072916667 77:0.031784841 78:0.62394958 79:0.47070707 80:0.44186047 81:0.11111111 82:0.0081521739 83:0.35363458 84:1 85:0.65925926 86:0.017994859 87:0.39252336 88:0.16037736 89:0.43430657 90:0.38979118 91:0.018918919 92:0.20320856 93:0.06779661 94:0.48412698 95:0.21681416 96:0.65024631 97:0.046961326 98:0.020779221 99:0.63546798 100:0.0051282051 101:0.46308725 102:0.37086093 103:0.60969388 104:0.52771084 105:0.52685422 106:0.57939914 107:0.10946746 108:0.29565217 109:0.5704388 110:0.51149425 111:0.51219512 112:0.18371608 113:0.03892944 114:0.038251366 115:0.57743363 116:0.56492027 117:0.75894988 118:0.034682081 119:0.0098039216 120:0.033994334 121:0.35013263 122:0.65206186 123:0.38780488 124:0.52647975 125:0.034013605 126:0.54696133 127:0.67401961 128:0.36761488 129:0.56465517 131:0.02991453 132:0.10967742 133:0.41967871 134:0.47348485 135:0.66445916 136:0.50598802 137:0.069767442 138:0.4617737 139:0.18229167 140:0.47870183 141:0.40037594 142:0.13498623 143:0.0080862534 144:0.012084592 145:0.014005602 146:0.27665706 147:0.32575758 148:0.50149254 149:0.48511905 150:0.15068493 151:0.073170732 152:0.0035842294 153:0.0031347962 154:0.44705882 155:0.25490196 156:0.35806452 157:0.040712468 158:0.16161616 159:0.033333333 160:0.371875 161:0.70976253 162:0.53658537 163:0.18211921 164:0.60897436 165:0.70294118 166:0.11726384 
1 1:0.43884892 2:0.25589226 3:0.57028112 4:0.26470588 6:0.265625 7:0.018229167 8:0.69451074 9:0.021220159 10:0.53984064 11:0.51276102 12:0.42337165 13:0.49880668 14:0.63095238 15:0.55284553 16:0.10876133 17:0.011428571 18:0.59201774 19:0.51485149 20:0.44186047 21:0.25101215 22:0.0089820359 23:0.17647059 24:0.93979058 25:0.8988764 26:0.14814815 27:0.093922652 28:0.028938907 29:0.12149533 30:0.32038835 31:0.10064935 32:0.97260274 33:0.0058309038 34:0.36281179 35:0.088772846 36:0.26116838 38:0.11204482 39:0.496 40:0.13513514 41:0.47426471 42:0.59659091 43:0.50108932 44:0.62028302 45:0.53684211 46:0.39514349 47:0.026217228 48:0.24427481 49:0.6636971 50:0.51334702 51:0.34917733 52:0.0084985836 53:0.052054795 54:0.48484848 55:0.75268817 56:0.46361746 57:0.015037594 58:0.024221453 59:0.24011299 60:0.61111111 61:0.0028985507 62:0.70652174 63:0.19553073 64:0.32853717 65:0.026217228 66:0.29441624 67:0.0023364486 68:0.43909348 69:0.31268437 70:0.41666667 71:0.51750973 72:0.4516129 73:0.45494505 74:0.56222222 75:0.59405941 76:0.041666667 77:0.012224939 78:0.60714286 79:0.45454545 80:0.44186047 81:0.10657596 82:0.013586957 83:0.33791749 84:0.64756447 85:0.66419753 86:0.033419023 87:0.32087227 88:0.22641509 89:0.14233577 90:0.39211137 91:0.55675676 92:0.81283422 93:0.0028248588 94:0.44444444 95:0.35840708 96:0.04679803 97:0.052486188 98:0.01038961 99:0.63546798 100:0.01025641 101:0.41275168 102:0.5794702 103:0.52040816 104:0.50843373 105:0.53964194 106:0.53862661 107:0.071005917 108:0.23478261 109:0.57505774 110:0.50287356 111:0.51219512 112:0.17327766 113:0.03406326 114:0.035519126 115:0.65265487 116:0.56947608 117:0.98329356 118:0.060693642 119:0.029411765 120:0.031161473 121:0.39787798 122:0.41237113 123:0.36585366 124:0.11214953 125:0.91156463 126:0.61878453 127:0.63480392 128:0.36323851 129:0.56896552 130:0.0088235294 131:0.57692308 132:0.44193548 133:0.41365462 134:0.47916667 135:0.66004415 136:0.52095808 137:0.069767442 138:0.51376147 139:0.19010417 140:0.48681542 141:0.39097744 142:0.12947658 143:0.010781671 144:0.0090634441 145:0.0056022409 146:0.17002882 147:0.22727273 148:0.47164179 149:0.4375 150:0.13150685 151:0.073170732 152:0.010752688 154:0.47058824 155:0.85947712 156:0.57419355 157:0.012722646 158:0.098484848 159:0.012820513 160:0.359375 161:0.21635884 162:0.47154472 163:0.32781457 164:0.76282051 165:0.79117647 166:0.5504886 
